2679 64
</s> 0.006254 0.006905 -0.005985 -0.005122 0.002135 0.004720 0.001470 0.000330 -0.005630 0.003466 -0.006807 0.001952 -0.001174 -0.001496 -0.005181 -0.002941 0.004030 0.004727 0.004639 0.002496 0.002414 -0.005942 -0.006400 0.007765 0.005939 0.004828 -0.000944 0.006274 -0.000773 0.001148 -0.000233 -0.004661 0.002050 -0.002090 -0.005977 0.007428 0.006843 -0.001711 -0.000353 0.000796 -0.005684 -0.006261 0.007117 0.000098 -0.004035 -0.004753 -0.004807 0.002651 0.000315 0.002080 -0.006584 -0.005950 -0.000203 0.001787 0.003984 -0.004953 0.006374 0.001448 0.001750 -0.000951 0.004666 -0.003575 -0.003277 0.003372 
of 0.095129 -0.314434 0.185960 0.006926 0.016952 0.252199 0.235180 0.427659 0.141896 -0.068733 -0.018375 -0.154062 0.197744 -0.057044 0.003169 -0.200545 0.390732 0.276818 0.029173 0.032194 0.377001 -0.344348 0.026045 0.034464 0.068958 -0.137293 -0.185448 0.059051 0.213222 -0.078030 -0.104476 0.083466 -0.220335 0.009295 -0.121736 0.053767 -0.003303 0.036114 -0.031183 -0.060578 -0.138742 -0.146028 -0.039675 0.462380 -0.257257 0.091613 0.224450 0.159702 -0.000069 -0.196296 0.237447 -0.070365 -0.128843 -0.043939 -0.105837 -0.259476 0.349950 0.136662 -0.137682 0.091994 0.240582 -0.027907 -0.019757 0.409747 
the -0.040535 -0.292584 0.163114 -0.033567 -0.134967 0.301958 0.100265 0.319027 0.096412 -0.046786 -0.105134 -0.151902 -0.001647 -0.059635 -0.052820 -0.071488 0.252103 0.246748 0.102220 0.084200 0.274519 -0.246573 -0.024734 0.151041 0.093196 0.051517 -0.096468 0.112029 0.217080 -0.139881 -0.124959 0.158613 -0.081799 -0.071550 -0.129024 0.039580 0.067852 0.034257 0.083654 -0.068626 -0.048102 -0.274371 0.075209 0.271169 -0.305993 -0.058915 0.275226 0.099533 0.057682 -0.195221 0.184676 -0.147242 -0.097337 0.028676 -0.067306 -0.256620 0.434236 0.096696 -0.205709 0.061586 0.219964 -0.013195 0.162183 0.363713 
and 0.065894 -0.215823 0.099689 -0.077504 -0.025018 0.295699 0.120076 0.449115 0.075675 -0.073574 -0.076120 -0.142230 0.293107 -0.156471 -0.072957 -0.071871 0.230571 0.246777 -0.058259 0.005556 0.164529 -0.449694 0.070651 -0.033499 0.086297 0.022166 0.007789 -0.020325 0.297211 -0.000698 -0.000808 0.008490 -0.234232 -0.084089 -0.113596 0.360567 0.228550 0.002051 0.023617 0.065110 -0.202465 -0.225837 -0.167537 0.505291 -0.333073 -0.003487 0.142234 0.026453 0.107508 -0.072234 0.183941 -0.031572 -0.139391 0.104226 -0.029462 -0.144489 0.223731 0.162480 -0.160466 0.037394 0.193587 0.119339 0.057347 0.285537 
in 0.208481 -0.341134 0.022212 -0.052203 -0.166949 0.319771 0.267941 0.266114 0.036048 -0.192187 -0.015056 -0.254908 0.138830 -0.054327 -0.010765 -0.115212 0.283182 0.198779 0.041971 0.040690 0.350314 -0.287540 -0.052175 -0.117696 0.120157 0.047318 -0.085235 -0.118092 0.157641 -0.078637 -0.114673 -0.014571 -0.329230 0.020089 0.067225 0.204847 0.099689 0.061329 0.003888 0.064166 -0.087520 -0.151100 -0.081864 0.544617 -0.216386 -0.115248 0.168792 0.010540 -0.142107 -0.199841 0.228398 0.037325 -0.125442 0.069066 -0.228797 -0.147914 0.401404 0.086000 -0.278672 0.002509 0.229764 -0.052962 0.111717 0.286753 
a -0.035816 -0.267779 0.085397 0.086281 -0.196710 0.424178 0.008032 0.181285 0.038739 -0.188183 -0.004295 -0.298384 -0.007995 -0.003431 -0.068952 0.000940 0.258698 0.079048 0.002512 0.206759 0.075106 -0.238043 0.113879 0.026442 0.091721 0.125737 -0.192658 -0.022358 0.453224 0.014727 -0.021523 0.279767 -0.164181 -0.117252 -0.020422 0.172848 0.022107 0.050103 -0.017760 0.178059 -0.173719 -0.278110 0.199257 0.195511 -0.245269 0.056194 0.011778 0.027417 -0.060108 -0.149103 0.193395 -0.198001 -0.038049 0.086401 0.044496 -0.191865 0.514410 0.159107 -0.217311 -0.053269 0.207949 -0.089778 -0.109715 0.336033 
-@@ -0.168930 -0.037730 0.097942 -0.196908 0.115440 0.591106 0.055077 0.148913 0.074859 0.012226 0.076058 -0.175076 0.311245 -0.139839 -0.319559 0.004577 0.289548 -0.024267 -0.105583 0.264371 -0.211339 -0.536749 0.194093 -0.273646 -0.137803 -0.045237 -0.144403 -0.129622 0.465979 -0.190278 -0.008424 0.258789 -0.390046 0.011455 0.092138 0.326368 0.077236 0.158992 -0.023337 0.035290 -0.437504 -0.285121 -0.198762 0.309734 -0.369755 0.040041 0.078813 -0.011984 -0.033070 0.048108 0.209480 -0.374478 0.053532 0.284115 0.042593 0.020567 0.432465 0.209198 0.115323 -0.072139 0.386657 -0.172019 0.085428 0.242608 
to 0.054747 -0.471677 0.285803 -0.053714 -0.185964 0.242511 -0.112180 0.325379 -0.042200 -0.045655 0.015611 -0.215567 -0.052289 -0.364039 -0.220716 -0.234793 0.337436 0.167657 0.029416 -0.128687 0.374598 -0.503741 -0.239561 0.113920 0.224016 0.393699 0.010229 0.123847 0.250536 -0.070469 -0.110416 -0.052482 -0.120347 -0.171900 -0.001916 0.003189 0.143621 -0.067134 -0.156829 -0.053116 -0.159728 -0.145158 0.078847 0.505458 -0.327702 0.090049 0.221435 0.117132 0.035786 -0.162919 -0.030971 -0.131182 -0.224570 0.406527 0.075322 -0.154457 0.321565 0.068659 -0.322888 -0.184734 0.023473 -0.077402 -0.015777 0.426764 
s -0.121792 -0.103997 0.250295 -0.117852 -0.168203 0.606700 0.018249 0.317299 -0.089288 -0.071895 0.079184 0.105272 0.203709 0.030996 -0.329155 0.093688 0.165232 0.065682 0.131570 0.045335 -0.030655 -0.293345 -0.065554 -0.108824 -0.148277 0.232089 0.199579 -0.104353 0.274281 -0.167485 0.039756 0.066784 -0.075866 0.048819 -0.152503 0.316864 0.051215 0.264722 0.043199 0.225111 0.001705 -0.339321 0.128518 0.464419 -0.200470 0.020778 0.313495 -0.281216 -0.285061 -0.317405 0.116869 0.124604 -0.441784 0.294999 0.049682 -0.037163 0.428779 0.146872 -0.241513 -0.042926 0.269369 0.054112 -0.068924 0.196076 
. -0.195535 -0.172807 0.417351 -0.405641 0.068907 0.622338 -0.023281 -0.033163 -0.251268 0.237024 0.017774 -0.178276 0.451985 -0.144397 0.262805 -0.321463 0.539513 0.424392 -0.124130 0.296287 0.014797 -0.373974 0.278393 -0.197682 0.083098 0.107196 -0.255221 -0.052467 0.181669 -0.461986 0.016760 0.048387 -0.171524 0.025528 -0.152389 0.066880 0.176629 0.049568 0.252114 -0.025145 -0.145158 -0.126016 0.223118 -0.048960 -0.308790 -0.234517 0.061334 0.264486 -0.254814 -0.338207 0.315780 -0.066675 -0.168438 0.197743 -0.136887 -0.038240 0.585355 0.237703 -0.664374 0.082524 0.427061 0.312132 -0.081762 0.105195 
o@@ 0.196283 0.202261 -0.074853 0.140748 0.261715 0.644014 0.121763 0.042315 0.050651 -0.130685 -0.232441 0.125724 0.139895 -0.109918 -0.075262 -0.070858 0.243372 0.157870 -0.028518 -0.264389 0.406438 -0.321834 -0.020946 -0.067234 0.091661 -0.035563 -0.411841 -0.314014 0.329719 -0.092035 0.156593 0.036902 0.147384 -0.090674 -0.071865 0.402872 -0.002467 0.199653 0.043057 0.341178 -0.387754 -0.588641 0.210074 0.426402 -0.335839 -0.111770 -0.032060 -0.090764 0.063507 -0.067638 0.297297 -0.201299 -0.048652 0.180882 -0.128716 0.119195 0.311073 0.036416 -0.117015 -0.135407 0.286320 -0.132361 0.146345 0.200400 
, -0.079678 -0.170532 0.073714 -0.409203 -0.157617 0.625301 -0.296085 0.284119 -0.157713 0.198990 0.179146 -0.123470 0.300776 0.049337 0.034566 -0.153630 0.197643 0.138256 0.060342 0.222351 -0.150478 -0.425481 0.147648 -0.142373 -0.132458 0.313289 0.108529 0.076113 0.209451 -0.116470 0.078541 0.123395 -0.162330 -0.039366 -0.131610 0.409523 0.193206 0.068183 0.167848 -0.024449 -0.294655 -0.488682 -0.075796 0.372508 -0.574741 -0.133139 0.018369 -0.053106 -0.017243 0.039145 0.117914 -0.262925 -0.320981 0.095788 -0.091762 0.087509 0.443579 0.426250 -0.367117 0.058333 0.474663 0.159905 0.055748 -0.025919 
with 0.163411 -0.331731 0.038826 0.042332 -0.154223 0.403940 0.251740 0.277655 -0.236530 -0.266484 -0.080166 -0.282347 0.255290 -0.291338 -0.132695 -0.346906 0.294834 0.083531 -0.146850 0.067960 0.119713 -0.319220 0.035654 -0.116792 0.168754 -0.255107 -0.023325 -0.111768 0.377086 -0.007934 -0.154720 0.010488 -0.208006 -0.115203 0.119198 0.282022 0.082304 -0.094120 -0.027637 0.316106 -0.209734 -0.021395 -0.064034 0.497383 -0.236367 0.039140 0.264729 0.005510 0.063259 -0.340437 0.140383 0.188950 -0.013481 0.011463 -0.213037 -0.026689 0.514839 0.128582 -0.169100 -0.239104 0.133131 -0.241004 -0.003224 0.169457 
ing -0.015084 -0.017386 0.127406 0.297262 -0.124177 0.470032 0.051101 0.110048 0.108214 0.125193 0.088638 -0.320149 0.305108 0.036847 -0.495024 0.069590 -0.036293 0.365865 0.267692 0.053589 -0.068608 -0.309754 0.194959 0.283323 -0.057134 0.017504 0.008478 0.095340 0.118562 -0.153189 0.180317 0.124355 -0.410085 -0.056230 -0.057237 0.181860 0.172633 0.096817 0.067961 -0.116705 -0.224550 -0.331673 0.056235 0.361718 -0.354880 0.150337 0.288836 -0.138696 -0.065579 -0.041313 0.421604 -0.166651 -0.173728 -0.042565 0.078662 -0.239198 0.330911 0.172849 -0.136770 0.143702 0.379879 0.004052 -0.127126 0.107160 
i@@ 0.313062 0.064068 -0.087179 -0.386350 -0.130979 0.354415 0.162558 0.134968 0.268522 0.232312 -0.469117 -0.025427 0.149455 0.063752 0.023928 -0.197837 -0.112768 0.546982 0.160566 0.225925 -0.040601 -0.354928 0.201365 0.107007 0.312911 0.114434 -0.018960 -0.250299 0.585868 -0.144566 -0.105920 0.163747 -0.213451 0.055702 -0.339332 0.063452 0.111474 0.233501 -0.103373 0.351806 -0.144366 -0.372957 0.129560 0.487674 0.029337 0.107460 -0.005870 0.136721 0.390394 -0.023204 0.461504 -0.050210 -0.229183 0.402862 -0.021474 -0.040418 0.030060 0.276420 -0.006865 0.130237 0.049090 -0.270483 -0.020518 0.065359 
e -0.195791 -0.191482 0.119846 -0.159727 -0.321106 0.297338 -0.084683 0.298814 -0.113100 -0.461385 0.008294 -0.213894 0.196488 -0.119508 -0.304635 -0.061502 -0.060428 0.445934 0.203945 -0.057990 0.131491 -0.068505 0.121580 0.281741 0.213969 0.173540 0.092474 0.033813 0.339306 -0.139288 0.393848 0.218847 -0.345349 0.072999 -0.105749 0.369302 0.235996 0.386221 -0.149846 -0.009443 -0.315639 -0.517695 0.040161 0.146090 -0.186226 0.237385 0.259345 0.520967 0.083967 0.066495 0.290675 -0.066606 0.036828 0.084859 -0.026375 -0.377526 0.358681 0.063234 -0.105574 0.015102 0.145291 -0.275091 -0.062800 0.281045 
es -0.105667 -0.128456 0.438323 -0.064726 -0.442939 0.284507 0.047736 0.394494 0.154537 -0.146823 0.043563 -0.412091 0.481428 0.049051 -0.233882 -0.206699 -0.214673 0.299600 -0.138463 -0.055425 0.204135 -0.066031 0.064994 0.287072 0.194068 0.122139 0.393431 -0.106046 0.086999 -0.152379 0.004523 0.463736 -0.290378 0.337443 -0.239670 0.244833 0.250489 0.352070 -0.221114 0.321525 0.117776 -0.218750 0.184187 0.286860 -0.222995 -0.046347 0.099709 -0.012163 0.038398 -0.221128 0.488869 -0.069965 -0.153842 0.221148 0.151967 -0.219493 0.295306 0.105309 -0.126955 -0.044016 0.354812 -0.208828 -0.044680 0.188514 
b@@ -0.101305 -0.007733 -0.005334 -0.309358 0.027731 0.350325 0.056014 0.244010 0.227217 0.131209 -0.158748 -0.362337 0.183385 0.086717 -0.170646 0.181909 0.021674 0.344408 -0.085004 0.171928 0.051029 -0.532179 -0.121048 0.157918 -0.164305 0.145458 -0.135027 0.135019 0.506403 -0.008450 -0.170075 -0.052373 -0.313010 0.325756 0.009405 -0.070663 -0.025954 0.062198 -0.351509 0.311031 -0.480003 -0.348747 0.157689 0.288434 0.097295 -0.051470 0.436288 0.122843 0.330515 -0.199685 0.286924 -0.150726 -0.015230 -0.029415 0.025992 -0.022832 0.395583 0.287992 -0.160008 0.155840 0.235296 0.160239 -0.081301 0.268149 
al 0.011368 0.037660 -0.185821 0.059287 0.039550 0.548886 0.084007 0.312988 0.431398 -0.205664 -0.455011 -0.097263 0.065750 0.013688 -0.130607 0.142942 0.390080 0.224922 0.109729 0.343622 0.166384 -0.247709 0.302213 -0.090912 0.343747 -0.148461 0.359967 -0.129032 -0.029523 -0.437442 0.081558 0.301451 -0.129851 -0.008030 0.042425 0.352925 0.171429 0.012341 -0.009804 0.026609 -0.004622 -0.522518 -0.162262 0.403239 -0.191347 0.125925 0.301086 0.197217 -0.233359 0.201361 0.084985 -0.036259 0.015700 0.057161 0.271287 -0.340414 0.398946 0.508337 -0.209545 -0.232581 0.304870 0.003195 -0.119819 0.145675 
S@@ 0.063542 0.061319 0.199894 -0.521792 -0.074461 0.657692 0.296194 0.257191 0.058152 -0.079545 -0.077340 -0.104092 0.107276 0.169364 -0.261908 -0.078085 -0.127535 0.174807 -0.067261 0.291899 0.151545 -0.513979 0.197690 -0.095363 0.077944 0.001415 -0.228994 -0.181673 0.278244 -0.194173 0.117426 0.275010 -0.374248 -0.290326 -0.268405 0.126262 0.399785 0.005986 -0.054617 -0.022308 -0.001107 -0.229156 -0.219487 0.130040 -0.264585 -0.231052 0.377279 0.286019 0.093961 -0.250428 0.012213 0.072518 0.038012 0.181493 -0.184833 0.084724 0.427760 0.390928 -0.073115 0.062673 0.061490 -0.177479 -0.023473 0.410458 
(@@ -0.048122 -0.155113 0.207720 -0.285315 -0.054519 0.437526 0.237204 0.350784 0.138137 -0.209766 -0.234866 -0.332034 0.452797 -0.193452 0.012627 -0.060181 0.333189 0.172324 -0.212595 0.235210 -0.081923 -0.599554 0.523735 -0.268575 0.029386 -0.058863 -0.007124 -0.277413 0.394502 0.219732 -0.038724 -0.209696 -0.496485 -0.329351 -0.065977 0.292720 0.048806 0.118942 -0.027927 0.307995 -0.444105 -0.183961 -0.210509 0.578195 -0.214298 -0.174919 0.043362 0.287941 0.224758 -0.159283 -0.014443 -0.291742 -0.231212 0.170409 0.037804 0.061474 0.160244 0.041111 -0.243734 0.139872 0.291668 -0.172429 -0.017203 0.702771 
s@@ -0.031598 0.011220 -0.123198 -0.074541 -0.036393 0.453164 -0.035828 0.216745 0.234144 -0.015324 -0.457624 -0.133231 0.095627 -0.184040 -0.168825 0.152411 0.036229 0.298341 0.051778 -0.037322 0.088515 -0.370121 0.259732 -0.057203 0.151745 0.252853 -0.200182 -0.076534 0.604720 -0.289906 0.154949 0.153405 -0.429342 -0.047864 -0.258746 0.330181 0.206436 -0.018873 -0.036450 0.214135 0.101385 -0.124156 -0.061609 0.007598 -0.284014 0.051783 0.248254 0.150561 0.006801 0.241787 -0.074113 0.207446 -0.110650 0.017708 0.118716 -0.145952 0.397525 0.343427 -0.079046 0.075146 0.164559 0.020497 0.163236 0.569431 
p@@ -0.357732 -0.129071 0.184361 -0.155107 0.084646 0.527393 -0.011100 0.492501 -0.069283 -0.035142 -0.073653 -0.255703 -0.118901 -0.015546 -0.239874 -0.067415 0.292082 0.251867 -0.463017 0.182838 0.020701 -0.445188 0.002933 0.242410 -0.335477 0.179328 -0.215208 0.353758 0.157436 0.091534 0.015749 0.036158 -0.230400 -0.027926 -0.463250 0.304551 0.019082 0.031745 -0.213216 0.133297 -0.045095 -0.356973 0.103689 0.469107 0.009061 -0.014407 0.188509 0.025748 0.055652 0.169392 0.202119 0.604448 0.141560 0.459395 -0.143254 -0.200780 0.437441 0.370209 0.010473 0.234516 0.228331 0.020858 -0.171979 0.079734 
t@@ -0.042540 -0.108186 0.001868 -0.249160 0.043152 0.004340 0.048839 0.387157 0.282984 0.208382 0.001935 -0.133587 0.000532 -0.109230 -0.553842 0.164629 0.023304 0.240861 -0.309387 0.184686 0.202533 -0.198038 0.165420 -0.393324 0.063788 -0.067111 -0.178825 -0.050944 0.483527 -0.130385 -0.028457 0.530344 -0.007351 -0.056442 -0.120904 0.255149 0.303207 -0.216302 0.028697 0.169808 -0.288463 -0.438666 -0.061375 0.419133 0.195359 -0.122121 0.241563 0.511965 0.181061 -0.043620 0.112148 0.142888 -0.476491 0.340266 0.025011 -0.225925 0.334134 0.302490 -0.343474 0.192670 0.085566 -0.156497 0.066966 0.079686 
ed -0.250333 -0.089818 0.079256 0.372641 -0.327072 0.502951 -0.113177 0.041230 -0.382731 0.121902 0.202187 -0.120028 0.408250 -0.054616 -0.250952 0.089065 0.078614 0.464534 0.160345 0.263572 -0.045653 -0.165274 0.297096 0.065215 -0.168391 0.051352 0.014830 0.104083 0.210755 -0.130395 -0.230736 0.356417 -0.321407 -0.266353 -0.010882 -0.033508 0.327709 0.151519 -0.249940 0.014891 -0.324449 -0.560647 -0.117902 0.359855 -0.358981 0.033536 0.302778 -0.201858 -0.215959 0.225256 0.213468 -0.113210 -0.007648 0.154916 -0.051809 -0.214847 0.284630 0.097454 -0.346939 -0.199503 0.172004 -0.340291 -0.086872 0.262730 
g@@ 0.344588 -0.042024 0.282386 0.097670 -0.184326 0.537933 -0.028456 0.082653 0.169671 -0.011714 -0.190958 0.026115 0.128868 0.009932 0.077477 0.095629 0.274975 0.082146 -0.366873 0.170033 -0.021386 -0.267291 0.189539 -0.006183 0.007904 0.254402 -0.049834 -0.162725 0.134490 0.210041 0.144306 0.042962 -0.228634 0.292214 -0.137543 0.356922 0.350365 -0.157489 -0.057327 0.192286 -0.127072 -0.168116 -0.182934 0.243429 0.017720 -0.140075 0.458825 -0.080629 0.266134 0.058708 0.131740 -0.220714 -0.213130 0.165168 0.035166 -0.110705 0.650174 0.405693 -0.113522 0.183604 0.142897 0.020318 0.011731 0.380987 
for 0.127327 -0.269150 0.236082 0.234049 -0.059300 0.250324 0.167680 0.330494 0.136398 -0.095147 -0.012699 -0.249524 0.353875 -0.161296 -0.205101 -0.278453 0.316567 0.198746 0.095579 -0.011652 0.272547 -0.657714 0.081710 0.008169 0.237330 0.245644 -0.147041 0.077323 0.337677 -0.022229 -0.039875 0.052533 -0.183995 -0.074446 -0.030648 0.172956 0.233243 -0.016189 -0.103983 -0.033284 -0.223538 -0.162610 0.046122 0.440955 -0.141237 0.059509 -0.004602 0.156087 0.152608 -0.056618 0.152879 0.119915 -0.170331 -0.056717 0.137506 -0.015514 0.222074 0.200303 -0.231017 0.113617 0.261176 -0.215245 -0.116203 0.317041 
C@@ -0.012821 0.018498 0.138251 -0.438572 -0.024768 0.590557 0.265176 0.351265 0.048164 -0.041113 -0.140658 -0.254439 0.170635 -0.034661 -0.074780 -0.002376 -0.062090 0.017332 -0.055415 0.188541 0.109872 -0.578835 -0.009600 -0.193932 -0.155546 0.075922 -0.258835 -0.448207 0.133830 -0.263374 0.077852 0.305841 -0.124146 -0.244010 -0.157720 0.204780 0.454853 0.150883 0.107991 -0.096565 -0.290436 -0.412935 0.073379 0.332789 -0.258680 -0.357747 0.348674 0.158333 0.171232 -0.142701 0.347866 -0.033974 0.127787 0.122655 -0.154216 0.070785 0.219505 0.187496 -0.125632 0.038889 0.078146 -0.315587 0.011378 0.420860 
was -0.136736 -0.400734 0.426743 0.000690 -0.196334 0.559485 -0.088853 0.220605 -0.172117 0.180769 0.121321 -0.073608 -0.155699 -0.070327 -0.054721 -0.021786 0.200645 -0.046009 -0.032527 0.037931 0.418079 -0.311498 -0.176762 0.214152 0.157272 0.102249 -0.282125 0.028227 0.397422 0.003451 -0.300756 0.193945 -0.392681 -0.230099 -0.119681 0.124968 0.359470 -0.179800 0.110547 0.187177 -0.003473 -0.117200 0.040511 0.476051 0.116124 0.194576 0.225805 0.217425 0.024808 -0.356298 0.409606 -0.093375 0.214563 0.063346 -0.009302 -0.282348 0.607686 -0.138734 -0.073798 -0.173378 0.055992 -0.334992 0.651381 0.476259 
re@@ -0.002283 0.036402 0.214530 0.175814 -0.100414 0.510657 0.159078 0.018643 0.094135 -0.097877 -0.255360 -0.124976 0.080047 -0.333387 -0.104632 -0.160817 -0.072798 0.036282 -0.101781 0.340704 0.130781 -0.518499 -0.371346 -0.036478 0.078345 0.354940 -0.197446 0.178702 0.053566 0.086249 -0.032809 0.450315 -0.048740 0.030332 0.233630 0.082523 0.129530 -0.142852 0.134308 0.316087 0.062149 -0.544747 -0.090230 0.393886 -0.409895 0.208528 0.056082 0.199127 -0.070959 -0.154177 0.367324 -0.178461 -0.011078 0.240099 -0.020036 -0.233549 0.069148 0.166084 -0.270701 0.177823 0.250575 0.107214 0.134283 0.129923 
P@@ -0.145244 0.031263 0.124150 -0.495951 -0.142099 0.688723 0.245007 0.342374 -0.069214 -0.134820 -0.044233 -0.123819 0.026252 -0.134502 -0.237381 -0.158735 -0.076036 0.007273 0.053210 0.228763 0.077147 -0.658604 -0.026587 -0.211850 -0.184416 -0.048017 -0.346572 -0.216086 0.248881 -0.134981 0.147977 0.138559 -0.111372 -0.219624 -0.273143 0.131127 0.396426 0.217345 -0.158808 -0.037595 -0.093772 -0.355004 -0.081052 0.146797 -0.240541 -0.341262 0.301028 0.194024 0.151493 -0.263753 0.333646 -0.075207 0.078591 0.231941 -0.305853 -0.015521 0.308272 0.307406 -0.009342 0.047656 0.060834 -0.138651 0.144662 0.384824 
a@@ 0.193527 0.000118 -0.204181 -0.111307 -0.312138 0.745201 -0.066367 0.290751 0.007468 0.201279 -0.026973 -0.225273 -0.185766 -0.150208 -0.023380 0.479728 0.278113 0.236566 -0.255082 -0.121069 0.281976 -0.543326 0.034184 0.023011 0.341937 0.097397 -0.037792 -0.155580 0.392450 -0.135863 0.080359 0.111626 -0.155515 -0.153477 -0.159981 -0.133984 0.109645 -0.134953 -0.307251 0.345827 -0.121579 -0.382074 0.211435 0.295823 -0.190148 -0.092710 0.098958 0.169808 -0.093491 -0.250576 0.132456 -0.219630 0.146990 0.473166 0.104548 0.020192 0.103206 0.205131 -0.016069 0.296334 0.083005 0.121085 0.001705 0.311133 
The 0.242791 -0.269279 0.139191 0.047394 -0.114585 0.735253 0.232656 0.389987 0.242557 0.076647 0.236011 -0.041839 0.043011 0.092396 -0.077499 -0.052814 0.285468 0.057335 0.153301 -0.178494 0.428348 -0.232625 -0.057219 0.037878 0.027723 -0.154459 -0.304316 0.367397 0.177991 -0.247078 -0.076165 0.408706 -0.351035 0.127605 -0.345171 -0.043632 -0.061997 0.239544 -0.102286 -0.117504 0.131588 -0.427823 -0.210488 0.457992 -0.051681 0.284312 0.333832 0.354985 -0.136236 -0.174360 0.036630 0.011876 -0.094202 0.103440 -0.094959 0.062023 0.595722 0.159349 0.054417 -0.068060 0.153514 -0.302953 -0.015023 0.493657 
in@@ 0.267677 0.289360 0.113430 -0.203463 -0.070422 0.268816 0.077222 0.348335 0.122894 -0.160134 0.010355 -0.469777 0.203689 -0.275857 -0.098335 -0.088843 0.277690 0.338368 0.058840 -0.051155 -0.112652 0.015330 0.203866 0.229388 0.006929 0.316947 -0.373860 -0.201468 0.360922 0.026962 -0.071016 0.233610 -0.264679 0.079258 -0.183829 0.032112 0.113091 -0.178341 0.158876 0.392288 -0.155231 -0.296736 -0.250022 0.236803 0.067649 0.189264 0.206033 -0.191074 -0.055826 -0.103504 0.300591 -0.277779 -0.207564 0.034948 -0.115380 -0.058447 0.393856 0.075347 -0.233277 0.064463 0.195142 0.132854 0.240877 0.319810 
) -0.304863 0.044094 0.063702 -0.162569 -0.034830 0.709665 0.102297 0.312479 0.086121 -0.241704 -0.082679 -0.404831 0.331343 -0.006064 -0.043059 0.090107 0.124263 -0.240919 0.053632 0.199725 -0.288833 -0.359410 0.363057 -0.374007 0.086451 0.388548 0.266858 -0.092312 0.373472 -0.081512 -0.233269 0.152568 -0.284424 -0.198148 -0.283851 0.280361 0.245947 0.304313 0.157468 0.246634 -0.207773 -0.281778 0.104299 0.280032 -0.069045 -0.329626 0.179216 0.100159 0.186952 0.030747 0.108446 -0.255770 -0.310221 0.550090 -0.142611 -0.037986 0.405662 0.021166 -0.137032 -0.013504 0.402204 -0.081720 -0.025462 0.543338 
l@@ 0.071360 -0.311371 -0.070533 0.101999 -0.243837 0.376044 0.096361 0.145988 0.061551 -0.096489 -0.300176 -0.267834 -0.035359 0.092581 0.029071 0.005038 0.241326 0.052073 -0.234405 -0.174453 -0.119271 -0.289496 0.207989 -0.047540 -0.233820 0.237435 -0.257459 -0.091757 0.260080 -0.220571 0.075797 0.161892 -0.220651 0.022390 -0.139566 0.416546 0.134551 -0.433086 -0.103690 0.112698 -0.178099 -0.309875 -0.068023 0.336248 -0.264522 -0.038945 0.443617 -0.166703 0.049178 -0.053459 -0.040550 -0.146809 -0.022762 0.698799 0.098761 0.115863 0.462497 0.141851 -0.260358 0.302916 0.153086 0.000604 0.010488 0.367964 
ation -0.109089 -0.160841 0.063224 0.284025 0.310747 0.412589 0.322527 0.342337 -0.192264 -0.225759 0.004269 -0.124353 0.297670 0.205951 -0.109120 0.007959 -0.003247 -0.167920 -0.073933 0.200974 0.305141 -0.325672 0.295475 0.095971 0.415624 0.206871 -0.069719 0.088930 0.276398 -0.318513 0.177395 0.283448 -0.014231 -0.226065 -0.440144 -0.010188 0.251349 0.056914 -0.334703 0.002370 0.153643 -0.573403 -0.161538 0.102926 -0.294210 0.224279 0.178468 -0.177919 0.168363 -0.086371 0.434566 -0.302002 -0.271866 -0.141181 0.151256 -0.399133 0.395218 0.084779 0.018814 -0.052503 0.170501 0.002701 0.208599 0.376984 
al@@ 0.114564 -0.054424 -0.134199 -0.318765 -0.176985 0.669900 0.258364 0.185257 0.387399 -0.037313 -0.126057 -0.188471 -0.096345 0.080299 -0.363222 -0.054252 0.134767 0.313353 0.153182 -0.032718 0.022623 -0.464953 0.043285 -0.095023 0.168047 -0.109699 -0.226766 -0.272874 0.269160 0.013655 -0.080879 0.289979 -0.043136 0.286530 -0.179923 0.306451 0.002972 0.036070 0.080815 0.134515 -0.284105 -0.005861 -0.107501 0.204275 -0.393370 0.070776 -0.003361 0.136540 0.223605 -0.134655 -0.082887 -0.218061 -0.084797 0.212937 0.184944 -0.282739 0.387348 0.359025 -0.258328 -0.339829 0.146450 0.145307 -0.151322 0.088692 
f@@ -0.047130 -0.146403 0.328831 -0.049820 -0.136953 0.336210 -0.148522 0.097051 -0.006087 -0.172994 -0.297812 -0.372125 0.209170 0.047209 -0.107650 0.349081 -0.033997 0.131219 -0.471808 0.228299 0.084051 -0.192658 -0.096836 -0.091918 0.191047 0.240510 -0.094019 0.439065 0.424149 0.014547 0.034291 0.341299 -0.500315 -0.007131 -0.117765 0.055353 0.006059 -0.147488 0.002526 -0.197550 -0.237567 -0.224976 -0.171382 0.345637 -0.244974 -0.077598 0.328106 -0.191141 0.505311 -0.170775 0.207023 0.083551 0.153193 0.294387 0.078135 -0.211981 0.203344 0.253191 -0.306343 0.179030 0.046699 -0.021927 -0.038520 0.290263 
A@@ 0.088774 0.064796 0.104634 -0.546305 -0.229518 0.657750 0.306796 0.371663 0.034336 -0.221386 -0.009023 -0.104825 0.033857 0.200492 -0.087331 -0.040189 -0.010807 0.158268 0.095179 0.261793 0.085083 -0.521184 0.055746 -0.253693 0.073858 0.099746 -0.310637 -0.180978 0.283089 0.026809 0.038028 0.119352 -0.336248 -0.342490 -0.192319 0.293700 0.396052 0.011226 -0.233517 0.058430 -0.113613 -0.101025 -0.185267 0.032261 -0.292487 -0.343775 0.257422 0.066036 -0.089468 -0.221491 0.171522 -0.027745 0.040867 0.058280 -0.084310 -0.093970 0.546666 0.183390 -0.016998 0.104442 0.273931 -0.163845 0.045164 0.391930 
were 0.165558 -0.086526 0.541183 0.016100 -0.349792 0.573318 -0.044012 0.137726 -0.148558 0.087211 -0.105744 0.083198 0.354687 -0.221422 -0.095685 -0.118981 0.055291 0.277918 -0.091670 0.142646 0.213448 -0.296108 -0.155900 0.125435 0.052950 -0.075431 0.082553 -0.043072 0.398672 -0.189413 -0.381876 0.110999 -0.194345 -0.140902 -0.123225 0.367774 0.393561 -0.117262 0.016752 0.243481 0.050292 -0.190178 -0.175844 0.605253 0.006068 -0.172580 0.151806 -0.187961 0.272495 -0.374441 0.218572 0.331221 0.045334 0.069680 0.094802 -0.024526 0.472600 -0.223931 -0.113259 -0.239969 -0.059143 -0.357005 0.693437 0.406490 
c@@ 0.209114 -0.232540 0.144728 -0.223683 -0.098891 0.251868 -0.238074 0.397634 -0.039380 0.070975 -0.360835 -0.321190 0.155359 0.092638 -0.001388 0.352565 0.252278 -0.037811 -0.257989 0.360499 -0.237024 -0.337496 0.109669 -0.205471 -0.049998 0.121350 -0.433539 -0.464993 0.196810 -0.268067 0.073616 -0.028393 -0.385392 0.161481 -0.259263 -0.015766 0.310735 0.063289 0.053798 -0.063428 0.020856 -0.390915 0.019437 0.417560 -0.269799 0.100302 0.123376 0.219570 0.088839 0.204758 0.145699 0.551106 0.077736 0.122216 0.146844 -0.195144 0.500691 0.209755 -0.353967 -0.289733 0.138361 0.020329 0.077586 0.411584 
M@@ 0.000024 0.148151 0.128876 -0.345487 -0.089251 0.637064 0.310879 0.152529 -0.009419 -0.127618 -0.035100 -0.196980 0.274106 0.215928 -0.256984 0.009163 0.159209 0.034445 -0.063555 -0.014624 0.207823 -0.414485 -0.048708 -0.195412 -0.117073 0.108163 -0.295123 -0.130433 0.314530 -0.236389 0.125862 0.001150 -0.449445 -0.359973 -0.341804 0.210608 0.318613 0.194594 0.150985 0.082252 -0.138845 -0.356928 -0.127269 0.298922 -0.255794 -0.416801 0.402192 0.132091 0.302318 -0.316912 0.114876 -0.020934 0.063684 0.170288 -0.264695 0.026356 0.189875 0.250805 -0.144703 0.196245 -0.072990 -0.343983 -0.070392 0.307350 
e@@ 0.369685 0.497520 0.179072 0.009284 -0.408687 0.360183 0.174348 0.270568 0.257301 -0.167388 -0.000318 -0.192578 0.652434 -0.073327 0.188002 0.229216 -0.041087 0.241760 -0.268698 0.022291 0.334280 -0.353359 0.235038 0.010542 0.363159 0.317663 -0.274320 -0.038304 0.369025 0.131000 0.013073 0.089727 -0.016756 -0.073049 -0.184132 0.355199 -0.049212 -0.079224 0.095194 0.058040 -0.293615 -0.370834 0.050925 0.351411 -0.182247 -0.162130 0.042512 0.171635 0.138606 -0.322449 -0.051283 -0.022335 -0.083278 0.485118 -0.023808 -0.086491 0.357683 0.296874 0.006778 0.241315 0.175205 -0.098732 -0.166668 0.028529 
is 0.156621 -0.285805 0.222655 -0.127972 -0.261092 0.177559 -0.125044 0.254765 -0.073339 0.065942 -0.061289 -0.166482 -0.084044 -0.073098 -0.167141 -0.183236 0.085053 -0.046635 -0.027566 0.111922 0.259209 -0.387441 -0.243678 0.011118 0.036285 0.280873 -0.272385 -0.040631 0.266216 0.101843 0.172210 0.160542 -0.575051 -0.371429 -0.080421 -0.018621 -0.050061 -0.361169 -0.005998 0.277242 -0.071660 -0.158184 0.479112 0.178061 0.058326 0.070050 0.042755 0.100338 0.064435 -0.178164 0.557919 -0.229097 -0.190083 -0.029178 -0.108105 -0.225707 0.575844 0.288687 -0.027742 -0.042005 0.423674 -0.324080 0.158579 0.243171 
d@@ -0.134009 0.179552 0.034804 -0.010902 0.082055 0.057611 -0.303696 0.178853 -0.026406 0.018221 -0.606537 -0.355159 0.234170 -0.159243 0.156919 0.067946 0.118075 0.011420 -0.136157 0.151772 0.238990 -0.363993 -0.052642 -0.048639 -0.112155 0.043003 -0.454442 -0.039409 0.072841 -0.258593 0.109422 -0.001155 -0.205282 0.219717 -0.193936 0.029504 0.189096 -0.107033 -0.031152 0.101933 -0.134849 -0.387704 -0.103068 0.414395 -0.264187 -0.002631 0.341162 -0.024046 0.339052 -0.008458 0.105627 -0.064115 -0.531051 0.093973 0.191691 0.017050 0.761514 0.256477 -0.141808 0.295402 0.070566 -0.473562 0.226143 0.377669 
or@@ 0.122731 0.058143 -0.271769 -0.107089 -0.061177 0.409511 0.293936 0.111836 0.159950 -0.059198 -0.021982 -0.314376 0.084203 -0.127235 0.008855 -0.273713 -0.016731 0.436760 0.064797 0.025457 -0.151079 -0.045417 -0.135952 0.058516 0.408769 0.046852 -0.559218 0.162237 0.349286 -0.168562 -0.107875 -0.173482 -0.520863 -0.133355 -0.150516 0.125047 0.072909 -0.093231 0.266017 0.080830 -0.049210 -0.515043 -0.073406 0.170558 -0.363039 0.336184 -0.062875 -0.106410 0.369979 0.042505 0.223182 -0.267799 -0.035731 0.282798 0.138702 0.223263 0.501802 0.128192 -0.073855 -0.202430 0.395778 0.149570 0.272232 0.491468 
n@@ -0.163328 -0.088413 -0.001305 -0.405281 -0.062212 0.394015 0.322554 0.111771 0.142339 -0.168074 -0.354658 -0.204237 -0.060532 -0.174746 -0.256862 -0.115409 -0.011216 0.297783 -0.241544 -0.125962 0.202296 -0.088582 0.289801 -0.269299 -0.324188 0.175389 -0.166407 -0.039005 0.677523 -0.136199 0.051079 0.229802 -0.165065 0.046637 -0.406534 0.052059 0.384000 0.179230 0.107007 0.139145 -0.146619 -0.388537 0.011200 0.310646 0.068768 0.159794 0.051267 0.112906 0.266297 0.024112 0.014181 0.180696 -0.363776 0.297248 0.214808 -0.203616 0.372310 0.532579 -0.135098 0.128743 0.093144 -0.012422 -0.065821 0.229540 
en@@ 0.101192 0.083107 -0.069517 0.100235 -0.017292 0.492744 0.145930 0.463197 -0.050357 -0.200997 0.084748 -0.215632 0.372642 -0.243458 0.097700 0.195713 0.236767 0.291758 0.006697 -0.180658 0.044294 -0.730619 0.067934 0.345763 0.265478 0.259702 -0.109847 0.087050 0.172641 0.146804 0.249044 0.208457 -0.241189 0.302482 0.161847 0.131690 0.097461 -0.076586 -0.140864 0.415677 0.130962 -0.300753 -0.241332 -0.143515 -0.366466 -0.149501 0.350567 0.015247 0.263081 0.200504 0.190468 0.163748 -0.260597 0.171902 0.108441 0.339758 0.423606 -0.171138 -0.105687 0.183433 0.422218 -0.019246 -0.020291 0.404404 
r@@ 0.231954 -0.108355 0.013183 -0.035687 0.139188 0.435745 -0.135015 0.598959 -0.058186 -0.227030 0.085349 -0.254433 0.027448 0.329574 -0.284642 0.596696 0.165530 0.210854 -0.103087 0.151283 0.241455 -0.256862 0.011876 -0.227641 -0.072253 0.139852 -0.474493 -0.135168 0.108215 -0.101438 0.012835 -0.163455 -0.364434 0.185680 -0.217357 0.358038 0.328362 0.308712 0.276411 0.377042 -0.243493 -0.285287 -0.059962 0.321929 -0.237842 -0.314042 -0.020607 -0.110168 -0.113863 0.049964 0.168867 -0.105723 -0.120716 0.261869 0.318687 0.337374 0.385112 0.313272 -0.410599 -0.068122 0.156121 0.121959 -0.288818 0.440941 
m@@ -0.154470 -0.349391 0.157538 -0.098850 -0.339728 -0.121583 0.279834 0.122616 -0.199825 0.190015 -0.052186 0.023612 0.196008 -0.202554 0.011638 0.281598 0.075240 0.075399 -0.010559 0.108338 0.019596 -0.384553 -0.062550 0.162146 -0.038899 0.400707 -0.224273 -0.401042 0.312933 0.139557 -0.010173 0.338989 -0.313839 -0.144699 -0.431471 0.305465 0.278277 0.333099 0.008267 0.115890 -0.250635 -0.478525 0.008852 0.470414 -0.022663 0.307497 0.261970 -0.050968 0.214797 0.499382 0.236543 0.172250 -0.062317 0.376448 -0.284948 -0.089695 0.439332 0.447318 -0.231410 0.198104 0.097227 0.177443 -0.189928 0.488061 
on -0.049633 -0.223019 0.218639 -0.050150 -0.001696 0.106174 0.094900 0.433770 -0.127975 -0.100681 -0.030298 -0.046010 0.420340 -0.192076 -0.068329 -0.052617 0.423450 0.360384 -0.032516 0.099985 0.352305 -0.212037 0.249605 0.048275 -0.109535 0.006559 -0.087406 0.077800 0.398516 -0.081990 -0.288956 0.213353 -0.350822 -0.108895 0.143596 0.090128 0.000689 -0.023142 -0.156920 -0.029425 -0.114367 -0.339909 -0.120789 0.312132 -0.250272 -0.061015 0.284716 0.128291 0.004634 0.071097 -0.090005 -0.233855 0.012432 0.011778 -0.144962 -0.090487 0.342712 0.265763 -0.116793 -0.078141 0.408122 -0.042178 0.067604 0.461202 
D@@ 0.052257 -0.127247 0.235847 -0.432233 -0.114507 0.535936 0.259885 0.423702 -0.042507 -0.019917 0.051425 -0.281991 0.100449 0.172068 -0.164613 -0.090871 -0.269308 0.162955 -0.098007 0.323800 -0.152838 -0.767445 -0.109779 -0.180154 0.078008 0.014533 -0.233647 -0.125449 0.080747 -0.280472 0.132998 0.332140 -0.226458 -0.296803 -0.146929 0.238330 0.409447 0.123772 0.038817 -0.242484 -0.186001 -0.319371 -0.137384 0.137949 -0.300717 -0.189565 0.414276 0.130370 0.123727 -0.186347 0.151141 0.033970 -0.000805 0.112421 -0.292015 -0.008006 0.502191 0.011333 0.052581 0.228059 -0.036327 -0.073669 -0.154422 0.678675 
E@@ -0.012315 0.130409 0.169737 -0.439573 -0.104681 0.742980 0.441108 0.311817 0.090347 -0.238191 0.113914 0.118109 0.145899 0.160114 -0.104983 -0.159409 0.256796 0.187131 0.096323 0.296305 0.110429 -0.454843 0.021595 -0.164531 -0.098230 0.098353 -0.355185 -0.208062 0.250345 0.192696 0.242319 0.305778 -0.632327 -0.443286 -0.366904 0.118496 0.461826 0.173240 -0.071119 0.142252 0.003533 -0.259337 -0.076529 0.044012 -0.309785 -0.097824 0.402146 0.083340 0.108556 -0.435720 0.044810 -0.097920 0.053657 0.205510 -0.368366 -0.052941 0.243055 -0.006253 -0.130697 0.196840 0.224645 -0.284980 -0.030962 0.294574 
by -0.009615 -0.393647 0.044652 -0.008527 -0.102473 0.398953 0.090028 0.243578 -0.050598 -0.017362 -0.128945 -0.254454 0.349389 -0.353209 -0.421381 0.053262 0.225210 0.087613 0.164377 0.246494 0.135798 -0.545181 -0.034079 -0.043798 -0.097837 0.123891 -0.267285 -0.134600 0.203832 -0.195546 -0.299418 0.158214 -0.357627 -0.043759 -0.163902 0.432497 0.305416 -0.038755 0.008772 0.100831 -0.103527 0.049828 0.014977 0.317121 -0.082477 -0.063737 -0.059681 -0.039207 -0.022455 0.006747 0.118375 -0.235407 -0.001763 0.071133 -0.061488 -0.099285 0.242274 -0.163016 -0.060971 -0.305525 0.121195 0.135792 0.193534 0.611252 
that 0.384770 -0.593561 0.150227 -0.156048 -0.148028 0.302922 0.173885 0.190059 0.038513 -0.059248 -0.172486 -0.271666 -0.045399 -0.307889 -0.207995 -0.174830 0.181253 0.205106 0.061897 0.296681 0.092135 -0.268581 -0.224786 0.155552 0.093333 0.117464 -0.317546 0.089652 0.368776 -0.053201 -0.107545 0.188090 0.079829 -0.089852 -0.063111 0.073073 -0.025633 0.385827 0.221953 -0.199906 0.255508 -0.232333 0.069439 -0.172848 -0.307070 -0.422281 0.102021 0.059434 -0.190892 -0.132872 0.178903 -0.091929 -0.246261 0.327636 -0.089448 -0.055438 0.641001 0.311880 -0.277239 -0.207098 0.204020 -0.216956 -0.078908 0.244051 
t 0.272209 0.194747 -0.135579 0.119220 -0.100791 0.172927 -0.123165 0.420326 0.062388 0.006255 0.059181 -0.184614 0.320406 0.011126 -0.209854 -0.042451 0.221726 0.297720 0.013457 0.074944 0.140792 -0.084772 0.228821 0.193531 0.145893 0.399738 -0.246875 0.099153 0.351498 -0.442841 -0.255345 0.091445 0.066293 -0.308355 0.005672 0.193157 0.038858 0.386371 -0.215388 -0.213909 -0.081629 -0.561988 0.403202 0.473403 0.027657 -0.114713 0.645556 0.193286 -0.191986 -0.060111 0.034477 -0.199221 -0.211713 -0.001037 -0.022805 -0.164736 0.380111 0.251700 -0.335413 0.245170 0.185415 0.101654 0.320367 0.337601 
R@@ -0.181039 0.012212 0.262780 -0.256168 -0.167966 0.543295 0.241650 0.388898 0.004382 -0.201386 0.008318 -0.160694 -0.170714 0.085639 -0.424936 -0.056789 0.067028 0.108558 -0.045150 0.339286 -0.146007 -0.847047 -0.142528 -0.349911 -0.121541 -0.130681 -0.254764 -0.289829 0.150408 0.055613 0.117661 0.151510 -0.376690 -0.348401 -0.283046 0.264915 0.501734 0.294827 -0.077658 -0.002904 -0.151314 -0.422527 -0.178896 0.063096 -0.170505 -0.320988 0.335373 0.219595 0.019880 -0.350416 0.053193 -0.124449 -0.074041 0.326693 -0.127664 -0.031703 0.394995 0.323401 -0.133841 0.221157 0.080952 -0.259109 0.018289 0.377668 
y -0.190077 0.226164 0.054003 0.002992 -0.006217 0.605032 -0.142173 0.347826 0.208046 0.017605 -0.306217 -0.139215 0.281403 0.186866 -0.244452 0.152401 0.224980 0.027570 0.269394 0.310352 0.295124 -0.105055 0.135503 0.048205 0.198581 0.075800 0.139186 0.032710 0.423854 0.329583 0.286718 0.561889 -0.341039 0.069139 -0.197919 0.484084 0.373810 -0.073388 0.008680 -0.114410 -0.006673 -0.365841 0.287134 0.523799 -0.339348 -0.036884 0.011397 0.296614 0.136707 -0.089982 0.222875 0.304331 -0.172342 0.282672 0.151466 0.181474 0.402057 -0.332304 -0.376825 0.129405 0.118561 -0.012517 -0.065871 -0.047614 
s. -0.622935 -0.468026 0.370201 -0.039172 0.214940 0.564209 0.427956 -0.261415 -0.219486 0.348465 -0.258828 -0.077078 0.802578 -0.095291 0.137758 -0.210333 0.868657 0.549507 -0.145668 0.149022 0.047826 -0.445684 -0.023469 -0.394219 0.238488 0.006278 0.129577 -0.276487 0.343293 -0.528762 -0.028310 -0.005297 -0.257989 0.016440 0.170775 0.057159 0.182348 0.244160 0.430286 -0.146601 -0.157306 0.240184 0.204013 -0.160712 -0.397575 -0.044023 0.087426 -0.109066 -0.202668 -0.342639 0.437814 -0.024308 -0.409517 0.336898 -0.081692 -0.189330 0.532084 0.222207 -0.628020 0.021709 0.189968 0.558036 -0.061457 0.087299 
I@@ 0.088931 0.097638 0.244879 -0.560937 -0.273231 0.488088 0.433992 0.368544 0.044307 -0.294867 0.312788 -0.244902 0.189015 0.045274 -0.205089 0.125202 0.181287 0.189709 0.051781 0.414719 -0.238771 -0.567061 0.068282 -0.043063 0.153653 -0.134871 -0.243985 -0.234211 0.359686 0.089429 -0.097391 0.317384 -0.270127 -0.514551 -0.417533 0.172931 0.518067 0.079048 0.058134 -0.079946 -0.289559 -0.219146 -0.036052 0.016658 -0.295752 -0.196631 0.335450 0.172210 0.156676 -0.535612 0.161625 -0.233305 0.087892 0.067576 -0.376724 0.086537 0.386296 0.103285 0.115571 0.195029 0.250494 -0.269601 0.036814 0.289572 
pro@@ 0.012502 -0.281383 0.168234 0.284422 0.051251 0.251336 0.063909 0.011481 0.518746 -0.090742 -0.042532 0.263015 0.554986 -0.048609 -0.109017 0.028376 0.304197 0.416819 0.037644 0.162064 0.159467 -0.219582 -0.243569 0.122719 0.214957 0.389444 -0.554869 -0.246743 0.293988 0.268560 0.077635 -0.021970 0.099415 -0.647175 0.006884 0.205152 0.147364 -0.033449 0.105994 0.140799 -0.009879 -0.111791 -0.069926 0.341477 -0.448986 0.316792 0.255795 0.036481 -0.069817 0.352242 0.441677 -0.182734 -0.136977 -0.108095 -0.217278 -0.229676 0.662498 0.216850 0.042113 -0.068574 -0.079559 -0.286455 -0.314683 0.394665 
ac@@ 0.158600 -0.300181 -0.225844 -0.325242 -0.190434 0.545830 0.083594 0.493894 0.330944 0.117474 0.057707 -0.197477 0.341987 -0.235030 -0.427046 -0.214101 0.176089 0.188484 0.037713 -0.102453 0.084616 -0.093080 0.176298 -0.045760 0.294583 0.573827 -0.164369 0.032420 0.382605 0.051822 -0.031448 -0.006541 0.003464 -0.248567 -0.289102 -0.250219 -0.134635 -0.115945 0.139396 0.446699 -0.218995 -0.231738 -0.107712 0.309462 -0.757076 -0.138002 0.260507 0.207595 -0.044109 -0.012835 0.197854 0.199782 -0.095519 0.006402 0.383186 0.053416 0.192566 -0.369531 -0.186358 0.085973 -0.063177 0.097051 0.059141 0.271181 
er@@ 0.293799 0.030570 -0.146212 0.029993 -0.175653 0.311189 -0.170559 0.445440 -0.036050 -0.342388 -0.072591 0.065415 0.063907 0.110114 -0.388575 -0.127937 -0.085920 0.222873 -0.375213 0.066335 0.072633 -0.197908 0.187519 -0.017202 -0.165505 0.103068 -0.280866 -0.359543 0.384045 -0.254158 -0.070488 -0.003329 -0.370577 -0.317011 -0.213022 0.048497 0.280117 0.252786 -0.022164 0.190112 -0.097888 -0.304828 -0.151692 0.263107 -0.117625 0.257569 -0.028313 0.263153 0.514678 -0.057090 0.183838 0.041143 0.166625 0.314418 -0.131744 0.001674 0.586849 -0.006244 -0.463248 -0.159250 0.481937 0.331521 0.125584 0.067428 
u@@ 0.271336 -0.076242 0.233704 -0.205859 -0.235385 0.581096 0.238562 0.449100 -0.059464 -0.149331 -0.236525 -0.304928 0.266773 0.020814 0.046449 -0.121927 -0.005201 0.143321 0.227985 -0.006836 -0.030763 -0.293642 0.304154 -0.090963 -0.009596 0.313054 -0.412392 -0.361377 0.169325 -0.154817 -0.370690 0.450430 -0.060683 -0.388811 0.173225 0.171434 -0.132333 0.037494 0.333285 0.183496 -0.361524 -0.522656 -0.087681 0.235649 -0.215298 -0.031820 0.280975 0.367198 0.036076 0.489786 0.406123 0.097816 -0.149434 0.269474 -0.018477 -0.118147 0.273891 0.138750 0.070955 -0.319993 0.027530 0.201344 0.193413 -0.273216 
T@@ 0.024198 -0.018824 0.163224 -0.435268 -0.067758 0.708464 0.282601 0.046396 0.067048 -0.064388 -0.017754 -0.278587 0.049619 -0.057642 -0.330810 -0.182535 -0.079548 0.123568 -0.051231 0.272646 0.115761 -0.495753 -0.008834 -0.225868 -0.093265 -0.070805 -0.279767 -0.313029 0.272588 -0.117192 0.056338 0.298569 -0.333811 -0.259977 -0.142034 0.285923 0.574874 0.270207 0.004402 -0.185269 -0.175255 -0.332508 0.057110 0.100961 -0.289725 -0.254778 0.437623 0.186182 0.272864 -0.116048 0.306875 -0.093043 0.231843 0.057671 -0.351433 0.046768 0.358069 0.158817 -0.008997 0.234797 0.178234 -0.272807 0.032024 0.309119 
st@@ 0.431182 -0.196362 0.027813 0.178719 0.095963 0.092407 -0.017659 -0.086495 -0.141962 0.011502 -0.078152 -0.135218 0.023560 -0.274858 0.086086 0.204534 0.092689 0.060691 -0.215959 0.151337 -0.094012 -0.453882 0.146248 0.374056 -0.075796 -0.036595 -0.146669 0.094737 0.329765 0.076066 0.064365 0.390715 -0.096049 0.282553 0.024510 0.414902 0.300794 -0.126544 0.422483 0.104337 -0.234298 -0.511957 -0.015771 0.144819 -0.149133 -0.170420 0.607859 0.111193 0.064409 -0.278846 0.403095 0.083232 -0.035612 0.225969 -0.033388 -0.259920 0.388891 0.216094 -0.091544 0.127335 0.313923 0.009428 -0.192238 0.569769 
H@@ 0.233731 -0.025333 0.222387 -0.270026 0.241149 0.530112 0.343004 0.505800 -0.305435 -0.217979 -0.038293 -0.303493 -0.003972 0.109556 0.005362 -0.001305 -0.196703 0.296937 0.121008 0.160144 -0.141302 -0.493938 0.118361 -0.143598 -0.065819 0.073004 -0.216212 -0.216347 0.299995 -0.047614 -0.072152 0.145984 -0.318099 -0.304088 -0.195513 0.274564 0.178526 0.282855 -0.076091 0.089035 -0.319587 -0.328821 0.048117 0.096372 -0.304706 -0.477526 0.325781 0.077902 0.330076 -0.298515 0.133566 -0.200866 -0.111266 0.215622 -0.279071 -0.061573 0.331844 0.390315 0.139128 -0.025679 0.246329 -0.130545 -0.015266 0.443089 
an@@ -0.000589 -0.111208 -0.213865 -0.316563 -0.082017 0.370726 0.047352 -0.012208 0.149470 -0.027228 0.005769 -0.130531 0.031049 0.225884 -0.082685 -0.268227 0.038763 0.364361 0.127858 -0.243012 0.509477 -0.348721 0.211200 -0.245320 0.147392 0.021461 -0.341648 -0.254413 0.439571 -0.231955 0.009640 0.362374 -0.289855 -0.016548 0.025165 0.471465 -0.268012 0.058094 -0.088210 0.522882 -0.045270 -0.540773 -0.248698 0.285873 -0.185041 -0.160197 0.145365 -0.165356 0.348180 0.229429 0.105807 0.065424 -0.093795 0.393806 -0.036204 -0.189997 0.232747 -0.072505 -0.433766 -0.043533 0.118613 0.221957 -0.058516 0.338739 
or 0.020141 -0.110844 -0.046440 -0.114183 0.007907 0.383938 -0.036911 0.278867 -0.137941 -0.302946 -0.105082 -0.190063 0.396932 -0.185296 -0.222712 -0.195767 0.122629 0.156311 -0.083418 0.111428 -0.020051 -0.061541 0.098413 -0.200563 0.096357 0.093093 -0.040123 0.063930 0.312100 0.152198 -0.028362 -0.020064 -0.150150 -0.196846 -0.055072 0.379921 0.163472 -0.150683 0.086946 0.082182 -0.089732 -0.544478 0.034552 0.419153 -0.216202 0.140625 0.141160 -0.093111 0.109195 -0.065847 0.164826 -0.230096 -0.048804 0.083045 -0.142008 -0.078364 0.410282 0.258441 -0.165168 -0.059410 0.289743 -0.171451 0.123227 0.165842 
ro@@ 0.059721 -0.186434 -0.055375 0.045382 0.286622 0.719044 0.336502 0.224358 0.335114 -0.272621 -0.210604 -0.224786 0.103419 0.422257 -0.211641 0.487814 0.446504 0.489354 -0.417633 0.105471 0.026885 0.008894 -0.160537 0.313340 0.009224 0.033718 -0.266115 -0.072096 0.149723 0.122124 0.061996 -0.018877 -0.100748 -0.458414 -0.021473 0.254809 0.202485 -0.041384 0.000703 0.414948 -0.019734 -0.394802 0.288748 0.480099 -0.312320 0.017737 0.254036 -0.028542 0.148729 0.016556 -0.044590 -0.132618 -0.096101 0.427071 0.002032 0.257804 0.538891 -0.268906 -0.175028 0.136604 0.043597 0.206987 -0.113249 0.132846 
at@@ 0.070668 0.070215 -0.253540 -0.483407 0.207426 0.505244 0.037208 0.326011 0.131777 -0.037020 -0.026017 0.041052 -0.120089 -0.365587 -0.246608 0.150675 0.095170 0.137451 -0.265360 0.080942 0.315006 -0.088910 0.496308 -0.207999 0.084012 -0.011705 -0.059773 0.152324 0.655882 0.028128 -0.124184 0.097854 -0.149096 0.027076 -0.253270 0.100546 -0.025913 -0.094632 -0.166080 0.082191 0.238932 -0.452310 0.064019 0.444500 -0.238108 -0.247703 -0.253546 -0.173176 0.328246 -0.123644 0.185356 -0.082626 -0.183418 -0.059844 -0.196343 -0.197446 0.475013 0.227002 -0.359728 -0.171271 -0.245111 -0.026774 -0.340401 0.585893 
co@@ 0.017747 -0.192977 -0.293679 0.030694 -0.197641 0.635038 0.169860 0.595917 -0.183030 0.004322 0.038564 0.127372 0.165977 -0.085501 -0.042064 -0.002585 0.482680 0.095477 -0.467585 -0.065185 -0.181088 -0.416266 0.204917 0.358395 -0.077584 0.124230 -0.259458 -0.431311 0.123523 0.178239 0.171125 0.340245 0.057573 0.008496 -0.269606 0.305143 -0.063057 -0.189804 -0.068142 0.132379 -0.141045 0.107277 0.074839 0.270171 -0.285652 0.033004 0.338375 0.155040 0.103107 0.093149 0.098408 -0.086608 0.358837 0.261387 0.296703 -0.138207 0.460325 0.230519 -0.310805 -0.193844 0.320888 -0.197157 -0.108098 0.400853 
F@@ 0.191443 0.149223 0.131734 -0.523683 0.039631 0.699026 0.429924 0.010140 0.008110 0.012493 -0.034230 -0.198857 0.009564 -0.052649 -0.176766 0.083952 0.009559 0.057142 -0.280226 0.382310 -0.106653 -0.494024 0.015590 -0.371177 0.045653 0.153643 -0.187651 0.071438 0.510518 0.236704 -0.029426 0.175543 -0.243063 -0.075987 -0.369733 0.302577 0.363263 0.206513 0.111033 -0.286941 -0.217401 -0.484689 0.094991 0.212493 -0.267840 -0.201567 0.452969 0.088771 0.213769 -0.212134 0.046153 -0.148580 0.061853 -0.032725 -0.165569 0.026311 0.338628 0.243779 -0.066019 0.080297 0.173842 -0.255479 0.174022 0.229071 
h@@ 0.170364 -0.054866 -0.079568 -0.154718 0.074302 0.502750 0.041652 0.253841 -0.161863 -0.056617 -0.141768 -0.242582 0.228991 0.111779 -0.308953 -0.063455 0.309515 0.135869 -0.119290 -0.204710 -0.251091 0.057437 -0.180206 0.044781 0.021916 0.233458 -0.350389 -0.274792 0.100621 -0.073470 -0.167572 0.411988 -0.279119 0.017932 0.056544 0.192741 0.216268 -0.060061 -0.280533 0.228824 -0.250752 -0.417584 0.116163 0.126368 -0.514887 -0.161412 0.061275 0.247009 0.432237 -0.027132 -0.010114 0.048047 -0.528819 0.071125 0.028718 -0.194685 0.406691 0.491353 -0.389352 0.559944 -0.007692 -0.018099 0.124048 0.330455 
N@@ -0.005588 0.003734 0.137302 -0.580277 -0.057754 0.588509 0.476007 0.212664 0.272167 -0.167828 0.121319 -0.149308 0.107479 0.044516 -0.161243 -0.096589 0.008419 0.146582 -0.167197 0.515486 0.050705 -0.516486 -0.062430 -0.409219 -0.045387 -0.014060 -0.306571 -0.168708 0.214599 -0.024116 -0.031675 0.262827 -0.297445 -0.340016 -0.171065 0.256861 0.389517 0.073600 -0.121262 -0.094075 -0.183792 -0.261517 -0.131810 -0.089159 -0.386735 -0.254462 0.486988 -0.119215 0.123117 -0.122084 0.229998 -0.086080 0.044752 0.253445 -0.125587 0.122450 0.597567 0.233185 0.070847 0.049053 0.218309 -0.097367 -0.007332 0.366628 
an 0.185484 -0.164642 -0.092088 0.035981 -0.081838 0.397199 0.023538 0.207481 0.125132 -0.190419 -0.164258 -0.332417 -0.099929 0.312323 -0.153123 -0.181223 0.280551 0.096510 0.109725 0.036746 0.095113 -0.497036 0.193043 -0.074948 0.097339 0.337279 -0.215450 -0.021203 0.272975 -0.166914 0.098270 0.144105 -0.325703 -0.162576 0.051633 0.189525 0.157230 0.307606 -0.167761 0.201256 -0.050409 -0.232981 0.110853 0.224372 -0.201983 -0.112361 0.109376 0.037848 -0.060477 -0.280887 0.232495 -0.042492 -0.123412 0.111520 0.083963 -0.302477 0.383241 0.133227 -0.290000 -0.012348 0.130208 0.141230 -0.213236 0.246867 
de@@ -0.183328 0.216402 0.214086 -0.014812 -0.014100 0.464389 0.215322 0.169299 0.106556 -0.307382 -0.442771 0.197244 0.170939 -0.023047 0.007856 -0.177547 0.150032 0.099172 -0.174584 0.031367 0.195285 -0.395792 -0.245495 0.228352 -0.106451 0.056999 -0.167878 0.351347 0.013379 0.381356 -0.074629 0.331036 -0.125657 0.085837 -0.541455 0.270280 0.224301 0.143105 0.041136 0.685791 -0.095014 0.045767 0.102923 0.428564 -0.573672 -0.080543 0.305592 -0.059556 0.160873 0.125853 -0.038248 -0.393396 -0.296878 0.051383 -0.074768 -0.542622 0.336370 0.311609 -0.253501 -0.328669 0.108722 -0.007868 -0.052931 0.245396 
di@@ 0.158491 0.081338 0.264460 0.110776 -0.000177 0.556591 0.308186 0.423396 0.271178 -0.180276 -0.972801 -0.371377 -0.058472 0.177479 0.187276 -0.059396 -0.031179 0.128754 -0.077002 0.232922 0.101428 -0.402421 -0.092496 -0.252282 0.278472 -0.106007 -0.416062 0.359565 0.385468 -0.364819 -0.272333 0.272621 0.180724 0.252704 0.068827 0.367237 0.062723 0.321016 -0.124069 0.230951 -0.425747 -0.019095 -0.067901 0.336635 -0.192848 0.016056 0.139307 -0.125300 0.132297 0.186818 0.305465 -0.180363 0.069906 0.404327 0.107940 -0.066262 0.335086 0.059500 0.202039 0.010430 0.097708 0.097599 0.178979 0.202415 
ic@@ 0.126931 0.123658 0.049397 -0.433958 -0.131461 0.209209 -0.031199 0.356025 -0.127082 -0.245103 -0.401640 0.090656 -0.231671 -0.069968 -0.016852 -0.007702 0.310889 0.273725 0.504033 -0.047192 0.238586 -0.038248 0.379954 -0.079800 -0.154977 0.453893 -0.203341 -0.062450 0.297588 -0.326836 0.294982 0.068161 -0.340511 -0.069065 -0.139567 0.448228 0.134385 -0.103333 0.057187 0.625432 -0.316387 -0.245958 -0.146442 0.336936 -0.652858 0.068504 -0.088074 -0.002959 0.189774 -0.251204 0.480842 0.202964 0.039753 -0.053609 0.186185 0.221591 0.371897 0.031611 -0.291216 0.086857 0.125411 -0.195377 -0.130224 0.189084 
on@@ -0.175931 0.076608 -0.214818 -0.276989 0.181194 0.151521 0.248893 0.403809 0.029572 -0.029102 -0.308289 -0.444003 0.318215 -0.188298 -0.140985 -0.036753 0.110949 0.272951 -0.140172 0.158245 -0.063317 -0.388259 -0.036519 0.103929 0.143937 -0.199702 -0.245430 -0.057988 0.250991 -0.258813 -0.201773 0.157861 -0.077313 0.108039 0.092508 0.043407 -0.115070 -0.042080 -0.169986 0.133659 0.011950 -0.723065 -0.137524 0.278398 -0.327014 -0.011252 0.191450 -0.004773 0.426398 0.003929 -0.142595 0.013325 -0.015389 0.450603 0.036650 0.361021 0.498136 0.108581 -0.198150 -0.078842 0.416172 -0.039917 -0.112284 0.205441 
y@@ 0.354183 0.114091 0.307115 -0.176058 0.273980 0.375814 0.036175 0.391078 0.099721 0.307844 -0.182763 -0.155446 0.117192 0.187010 -0.023098 0.402474 -0.111591 0.028730 0.003172 0.323585 0.278759 -0.305081 0.252736 0.220261 0.243836 0.291716 -0.072815 -0.341372 0.659523 -0.013784 0.376726 0.403256 -0.270464 0.136987 0.093168 0.240198 -0.013782 -0.147184 0.172159 0.442001 -0.277094 -0.292646 0.005301 0.292698 -0.554124 -0.068913 0.106923 0.052082 0.139910 0.082467 0.157413 0.123407 -0.018344 0.445258 -0.072782 0.036268 0.378775 -0.011930 -0.154960 0.051213 0.162819 -0.074645 -0.069290 0.238591 
as -0.024745 -0.009588 0.001828 -0.002182 -0.419741 0.077756 -0.179606 0.578053 0.067890 -0.090507 -0.137078 -0.463527 0.248170 -0.116055 -0.144124 -0.218545 0.289121 0.108192 -0.106419 0.151360 0.057254 -0.443282 0.168902 -0.199099 0.070522 0.375298 0.148585 -0.128755 0.584805 0.137857 -0.182763 0.017116 -0.037774 -0.253380 -0.075730 0.484640 0.303728 -0.196693 -0.272434 0.050976 -0.238123 -0.216664 0.078919 0.416679 -0.171404 -0.119960 -0.348418 -0.294615 0.163378 0.003568 0.115213 -0.238296 -0.332635 -0.112877 -0.237871 -0.052076 0.221690 0.108354 -0.270790 -0.288958 0.297259 -0.000303 -0.047468 0.193414 
le@@ -0.030796 -0.181248 0.102170 -0.183844 -0.297038 0.440049 -0.194834 0.246349 0.087473 -0.248901 -0.197161 -0.161452 0.479575 0.082166 0.229021 0.100568 -0.137509 0.234295 -0.177960 -0.047269 0.463504 -0.175366 -0.187464 -0.113354 -0.108684 -0.160926 -0.241760 -0.058640 0.189516 -0.126083 -0.009432 0.280376 -0.204863 -0.072861 -0.054036 0.119381 0.036292 -0.380281 0.167027 0.135810 -0.025867 -0.310553 0.113474 0.301632 -0.492319 -0.305744 0.440075 -0.120256 0.183415 0.026292 -0.123961 -0.032278 -0.385523 0.353240 0.129846 -0.378021 0.398842 0.021523 0.056001 0.400096 0.515040 0.057205 0.109385 0.018395 
ar@@ 0.037694 -0.002695 0.115226 -0.206516 -0.520537 0.601016 -0.025542 0.116577 -0.143236 -0.143549 -0.208110 -0.247773 0.271126 -0.154622 0.073045 -0.003348 -0.014714 0.197396 -0.223907 0.012678 0.493615 -0.166689 -0.162149 0.166650 -0.382833 -0.043200 -0.068426 -0.130150 0.158641 -0.458021 0.251214 0.095896 0.052993 -0.123287 -0.196193 -0.038844 -0.145253 -0.230415 0.117022 0.284476 -0.058634 -0.383685 -0.281968 0.272763 -0.584367 0.136697 -0.009204 0.325003 0.439496 0.104044 0.216007 -0.224558 -0.059663 -0.082480 0.136523 0.107708 0.444295 0.124975 -0.210204 0.063781 0.275884 0.116515 -0.153643 0.403400 
s, -0.318515 -0.280560 -0.187043 0.136354 -0.124387 0.465690 0.125135 0.278267 0.035868 0.199364 -0.035120 -0.145562 0.506059 0.004589 -0.066070 0.015193 0.331178 0.365216 0.003167 0.057181 -0.124355 -0.401447 0.061551 -0.330427 -0.074532 0.325736 0.521036 -0.069867 0.349689 -0.174427 -0.037999 0.075711 -0.117562 0.036045 -0.041283 0.485836 0.082322 0.095799 0.205869 -0.126546 -0.071613 -0.213020 -0.066823 0.357807 -0.519881 0.115786 -0.031796 -0.443214 0.115397 0.058111 0.184268 0.038611 -0.467264 0.103444 0.048396 -0.130369 0.434701 0.478384 -0.247842 -0.094883 0.242352 0.310472 0.157929 -0.074280 
B@@ 0.044505 0.088902 0.343159 -0.430890 -0.256895 0.619736 0.256012 0.165537 -0.046344 -0.092238 -0.046981 -0.197350 0.323639 0.182082 -0.271509 0.189177 -0.122969 -0.048555 -0.046132 0.049763 0.136983 -0.473598 -0.115528 -0.225099 -0.060989 0.045056 -0.253167 -0.169201 0.467884 -0.092096 -0.011341 0.018514 -0.303376 -0.069376 -0.209317 0.116763 0.284579 0.123041 -0.052115 0.028424 -0.245429 -0.333669 -0.124852 0.204135 -0.346386 -0.325128 0.459997 0.106466 0.145488 -0.141727 0.216657 -0.058642 0.128484 0.066023 -0.341346 0.062503 0.336358 0.165996 -0.250335 0.228985 0.149994 -0.203637 0.210596 0.226280 
ti@@ -0.052150 -0.395777 -0.005071 -0.066880 -0.051205 0.126748 -0.194267 0.283776 0.300954 -0.259460 0.019821 0.273845 0.115575 0.135124 -0.273761 0.127958 0.055663 0.387858 -0.266000 0.250421 0.013903 -0.952779 0.238078 0.009969 0.175801 0.000932 -0.473454 0.115505 0.210526 -0.291100 -0.066604 -0.071798 0.385376 -0.334125 -0.578986 0.545356 -0.482302 0.047486 -0.195694 0.528205 -0.098995 -0.263407 0.160098 0.424354 -0.367544 -0.022768 0.363335 0.086784 0.022240 0.050589 0.272905 -0.028780 -0.024470 0.145191 -0.114839 -0.093829 0.373075 0.057529 -0.041012 0.011719 0.145611 -0.174766 0.363397 -0.020816 
L@@ -0.028261 -0.101243 0.245662 -0.382124 -0.248166 0.648273 0.407471 0.254352 -0.153335 -0.147431 -0.088983 -0.206178 0.140303 0.131811 -0.146707 -0.019123 -0.132990 -0.000631 -0.039798 0.072669 -0.067005 -0.533256 0.163110 -0.147271 -0.053911 0.010592 -0.202113 -0.317675 0.416279 0.042286 0.018304 0.066194 -0.246390 -0.302876 -0.300779 0.260356 0.327415 0.043502 -0.043875 0.012026 -0.072495 -0.355808 -0.167846 0.240863 -0.210517 -0.353715 0.247031 0.321788 0.310132 -0.206749 0.052198 -0.237652 0.003067 0.298423 -0.410094 -0.013157 0.381063 0.226654 -0.060143 0.251540 0.057416 -0.198374 -0.012541 0.371617 
2@@ -0.010179 0.029986 0.217605 -0.326758 0.012775 0.768546 0.027523 0.352290 0.227498 -0.048648 0.111805 -0.438902 -0.019995 -0.090165 0.196291 -0.058193 -0.060490 0.328363 0.072094 0.324979 -0.042190 -0.405808 0.077887 -0.015017 -0.177010 -0.084727 -0.217896 -0.286555 0.516863 -0.183804 -0.243050 0.272402 0.129000 -0.238654 0.003522 0.337518 0.310406 0.214188 -0.004570 0.163222 -0.152973 -0.339046 -0.105103 0.367987 -0.460909 -0.102069 0.231988 -0.059702 0.139884 -0.109578 0.231994 -0.109569 -0.041266 0.291437 0.056982 -0.326867 0.452769 0.004386 -0.394205 0.257561 0.195869 -0.183965 0.071725 0.658668 
k@@ -0.086915 0.067810 0.041884 -0.265979 -0.201775 0.195290 0.283429 -0.085265 -0.016033 -0.146647 -0.004264 -0.195369 0.116344 0.007313 -0.128586 0.279777 -0.031472 0.207939 -0.140088 -0.303237 0.102631 0.162549 0.066384 -0.288705 -0.220285 0.186953 -0.434953 0.141497 0.616205 -0.196787 -0.070191 -0.201495 -0.386555 0.079701 0.005245 0.338580 0.226740 -0.082162 -0.101317 0.009902 -0.273035 -0.371151 0.034352 0.468959 -0.631076 -0.090991 0.106726 0.207149 -0.085361 0.251050 0.370604 0.024267 -0.052785 0.410034 -0.106014 -0.308275 0.427775 0.616269 -0.273899 0.178412 0.262359 -0.163755 0.248130 0.395175 
v@@ 0.165978 -0.167974 0.190717 -0.276701 -0.098520 0.004226 0.077281 0.270493 0.058417 -0.408604 -0.101925 -0.399023 0.107252 -0.064138 0.097829 -0.240717 0.324466 0.015223 -0.083056 0.229084 0.079343 -0.103864 0.194201 -0.188682 0.097415 0.601346 -0.316412 -0.096731 -0.035178 -0.206538 0.035685 0.269852 -0.031383 0.209031 -0.215002 0.538552 0.316098 0.247666 0.068556 0.672157 0.073106 -0.431709 -0.051738 0.573594 -0.331863 0.414135 0.360756 0.083090 0.356614 -0.023238 0.300335 0.082794 -0.288617 0.186356 0.048505 0.045659 -0.077053 0.555925 -0.320399 -0.012768 -0.066705 0.116583 -0.241793 0.297703 
w@@ 0.073107 -0.075777 0.204235 0.212239 -0.370613 0.421730 0.095628 -0.239993 0.298164 -0.218686 -0.305568 -0.065725 -0.032023 0.041554 -0.164682 -0.067358 -0.027773 0.212914 0.114041 -0.138517 -0.000040 -0.212993 0.122325 -0.003387 -0.485616 -0.079203 -0.415386 -0.120978 0.558156 0.128837 -0.111651 -0.078375 -0.199609 -0.162401 0.336043 0.127208 0.326744 -0.135389 0.146789 -0.167643 0.031684 -0.723421 0.369733 0.483873 -0.289601 0.023906 -0.091039 0.005059 0.204547 -0.377084 0.294670 -0.163901 -0.116981 0.411158 0.228204 -0.124401 0.538092 0.538548 -0.241853 0.269203 -0.130966 0.350590 0.085182 0.461040 
li@@ 0.118805 -0.220239 -0.072295 0.119864 -0.282702 0.183600 0.013598 0.475307 0.010129 0.046032 -0.256242 0.214688 0.305935 -0.308512 0.220844 0.233185 -0.139015 0.082999 0.048353 0.088783 -0.180503 -0.472164 0.232988 0.438862 0.091080 0.194610 -0.506419 -0.359249 0.351689 -0.102542 -0.101288 0.385581 -0.242136 -0.182444 -0.328347 0.350548 0.118063 -0.047604 -0.017314 0.317888 -0.141939 -0.015046 -0.180429 0.531049 -0.320068 -0.008107 -0.031625 -0.096943 0.116442 -0.420224 0.072272 -0.577985 -0.178415 0.176409 -0.055440 -0.251110 0.535051 0.193073 -0.019472 0.283292 0.010226 -0.017621 -0.218595 -0.075067 
G@@ 0.018145 -0.019479 0.156492 -0.435477 -0.293286 0.613017 0.331358 0.288646 0.114190 -0.041400 0.045462 -0.149262 0.138283 0.251652 -0.124816 -0.061705 0.114690 0.064251 -0.241436 0.478208 -0.073398 -0.525918 0.118485 -0.098664 -0.056136 0.018123 -0.239842 -0.231507 0.104347 0.041695 0.051986 0.204553 -0.330954 -0.347660 -0.206306 0.280867 0.384548 0.043407 -0.228815 -0.000741 -0.123506 -0.072797 -0.119767 -0.001950 -0.350371 -0.294959 0.571114 0.068543 0.179894 -0.179055 0.218398 -0.059648 0.085553 0.146141 -0.176796 0.094302 0.604431 0.248859 0.038572 0.290734 0.184813 -0.172295 -0.001241 0.442345 
er -0.187978 -0.168847 -0.006950 -0.061568 -0.418661 0.662516 -0.148451 0.170053 -0.063462 -0.502352 0.014464 -0.014886 0.150243 -0.005227 -0.037234 0.142435 -0.208431 0.040601 0.087974 -0.079370 0.124797 -0.405995 0.475703 0.071734 -0.060390 0.213984 0.017408 0.118520 0.367139 -0.135171 -0.038025 0.263777 -0.420732 -0.137914 0.188970 0.140533 -0.053013 0.236160 0.259790 -0.314424 -0.119030 -0.514770 0.236641 0.382138 0.029627 0.152590 0.118933 -0.116252 0.032428 -0.042579 0.464035 -0.103432 -0.036605 0.311810 0.064398 0.214368 0.789774 0.016483 -0.229080 0.037262 0.046248 0.063963 -0.099216 0.305105 
as@@ -0.067083 0.180669 0.422790 -0.236801 -0.155750 0.366008 0.185930 0.438115 0.228020 -0.141715 -0.200305 0.043343 0.160183 -0.085439 -0.580207 0.223131 0.065816 0.221488 0.041835 0.290342 0.004461 -0.306771 -0.008276 0.050836 0.163709 -0.206373 -0.036824 0.079556 0.385652 -0.101055 0.024064 0.256650 -0.173480 -0.037157 0.092097 -0.200391 -0.061032 -0.069406 0.044500 0.485320 0.191516 -0.257294 0.006277 0.469000 -0.584082 -0.201329 -0.304525 -0.212789 -0.075030 0.212600 0.223660 0.072074 0.119523 0.241863 -0.205152 0.196476 0.466877 0.177414 -0.369958 0.317211 -0.064596 -0.079315 0.013471 0.341428 
from 0.312236 -0.246402 0.306795 -0.214929 -0.231792 0.539586 0.288122 0.292778 -0.060266 -0.162026 -0.090830 -0.003469 0.304795 -0.261747 0.089036 -0.171233 0.179947 0.426199 -0.202221 0.164009 0.302927 -0.319726 0.025169 0.056529 -0.039089 0.286357 -0.028093 -0.175008 0.055418 -0.320501 -0.418668 0.169680 -0.301368 -0.012122 0.046249 0.318721 0.140456 0.218413 -0.017627 0.076548 -0.160335 -0.194476 -0.058974 0.674240 0.000380 -0.021257 0.024782 -0.120094 0.006724 -0.152474 -0.010664 0.186497 -0.133201 0.129598 0.114867 -0.027382 0.240018 0.060495 -0.421152 -0.009040 -0.020044 -0.015284 -0.055364 0.574787 
3@@ -0.061990 0.036654 0.206587 -0.306258 -0.000022 0.747914 0.001997 0.285486 0.229344 -0.145999 0.125236 -0.394531 0.027050 -0.106657 0.225228 -0.025259 -0.049842 0.319187 0.028468 0.288616 -0.069078 -0.435335 0.060175 -0.031555 -0.066263 -0.055310 -0.249860 -0.196408 0.540054 -0.101991 -0.244753 0.278911 0.064935 -0.284360 -0.094867 0.396884 0.354998 0.151748 0.029604 0.173388 -0.155375 -0.336701 -0.113310 0.378323 -0.424633 -0.111659 0.232905 0.013824 0.123401 -0.044433 0.288008 0.040892 -0.066805 0.290861 0.140734 -0.360527 0.452444 0.025056 -0.465196 0.209165 0.134975 -0.243699 0.085328 0.636209 
ic -0.040329 0.116323 -0.216863 -0.098329 0.282898 0.146709 0.410887 0.488900 -0.237463 0.239896 -0.593873 -0.023992 0.018286 0.210832 -0.083797 -0.047741 0.382436 0.318320 0.210498 0.438156 0.130650 -0.036850 0.447661 0.373276 0.175558 -0.005028 0.406634 0.218636 0.162988 0.097159 0.225300 0.309656 -0.345308 -0.126859 -0.301533 0.524050 -0.130632 0.157914 -0.268534 0.139475 -0.297719 -0.537479 -0.076436 0.552563 -0.525170 -0.004716 0.130995 0.077017 0.067677 -0.126238 0.250284 0.298229 0.147955 0.232216 -0.144809 0.179115 0.629393 -0.298272 -0.128818 0.001429 0.129875 0.089691 -0.137294 0.244574 
ul@@ 0.028945 0.181766 -0.074745 -0.216285 -0.150114 0.396465 0.304819 0.542957 0.491336 -0.628764 0.026633 0.000183 0.353321 -0.068146 0.117192 -0.175226 0.558566 0.138244 0.410216 0.282952 -0.161294 -0.283378 -0.276362 -0.114710 -0.438146 0.305753 -0.167079 0.103252 0.395485 -0.325352 0.085467 -0.178070 -0.085123 0.419208 -0.099801 0.373637 0.018781 -0.232038 0.350687 0.132484 0.187393 -0.485810 0.129058 0.185660 -0.060060 -0.384073 -0.133320 0.336200 0.480178 0.041238 0.279659 -0.165309 -0.064616 0.443039 -0.001309 -0.279289 0.404105 0.114358 -0.165503 -0.063826 0.065986 -0.222627 0.198244 0.203685 
1@@ 0.014965 0.068904 0.395096 -0.314067 -0.076649 0.787463 0.174430 0.356071 0.240135 -0.108283 0.295931 -0.379661 -0.044388 -0.016936 0.212788 -0.002755 -0.116719 0.302229 0.121796 0.402947 -0.051413 -0.513967 0.022950 0.095961 -0.036497 -0.052393 -0.234930 -0.342895 0.424221 -0.033728 -0.245948 0.205035 0.157658 -0.063073 0.008211 0.422772 0.265703 0.155356 -0.048028 0.091179 -0.306514 -0.335581 -0.088232 0.354665 -0.463476 -0.063350 0.154296 0.061217 0.190020 -0.151373 0.184651 0.072876 -0.017198 0.325215 0.124602 -0.446923 0.638294 -0.068655 -0.452100 0.252342 0.208916 -0.108323 0.003385 0.568115 
O@@ -0.192418 0.189549 0.070254 -0.382141 0.093863 0.810868 0.213828 0.324632 0.137770 -0.086883 -0.289638 -0.119197 -0.067930 -0.053047 -0.050408 -0.174809 -0.005591 0.195914 0.142426 0.059070 0.291468 -0.565126 0.130073 -0.169883 -0.028018 -0.093823 -0.273411 -0.251756 0.244769 0.012304 -0.061485 0.249224 -0.362872 -0.472665 -0.133772 0.298817 0.430234 0.225594 -0.049462 0.088749 -0.132135 -0.351032 -0.074814 0.111447 -0.154345 -0.252985 0.399826 0.172354 0.383124 -0.336595 0.115472 -0.347573 -0.112652 0.431731 -0.155786 0.100443 0.218590 0.399761 0.013866 0.005159 0.211179 -0.341180 -0.028276 0.321873 
ated 0.190774 -0.071988 -0.018892 -0.169332 -0.070717 0.695397 0.344636 0.113025 -0.071346 -0.297960 0.074926 -0.381881 0.333801 -0.219689 -0.094207 0.063151 0.298438 0.269506 -0.087768 0.446481 -0.192499 -0.020716 0.232069 -0.163167 0.027565 0.063712 -0.068394 -0.017584 0.083137 -0.213083 0.230945 -0.090112 -0.084097 0.019216 -0.400788 0.138439 0.049704 0.032601 -0.436236 0.039499 0.278188 -0.525557 -0.206179 0.316388 -0.028591 -0.562448 0.046677 -0.268560 0.019422 0.010924 0.346706 -0.374047 -0.096945 -0.123415 0.382786 -0.499681 0.503180 -0.030117 -0.245180 -0.361215 -0.182172 -0.252230 0.183468 0.485296 
es@@ 0.126865 0.013945 0.373876 -0.031525 -0.390863 0.461775 0.233957 0.542754 0.132389 0.030164 -0.434388 -0.091859 0.051658 -0.294464 0.249911 0.031417 -0.211873 0.724835 -0.063789 -0.272810 -0.352274 -0.486307 0.101975 -0.242900 0.255657 0.073976 0.125873 -0.355117 0.236065 -0.012038 0.451286 0.212481 -0.402627 -0.221228 -0.182018 -0.155466 0.038621 0.101014 -0.025500 0.161082 0.079357 -0.483889 -0.201384 0.263403 -0.329259 0.406388 -0.093377 0.202030 0.211887 0.093716 0.508249 0.424377 -0.056465 0.211466 0.205693 -0.163996 0.514591 0.080017 0.164423 0.239064 0.158532 -0.104790 0.042294 0.011659 
at -0.095498 -0.405603 0.178903 -0.264669 -0.081260 0.556611 0.013772 0.371520 -0.164947 -0.228303 0.003868 -0.181465 0.199355 -0.180000 0.000342 -0.046578 -0.049842 0.254590 0.069577 -0.012406 0.313496 -0.356968 0.246205 0.119500 0.056713 0.165051 -0.215614 0.048443 0.256147 0.088967 -0.376641 0.034910 -0.098475 0.101331 0.015598 0.294934 0.193876 -0.117133 0.017066 -0.118167 -0.015791 -0.097907 0.165572 0.729363 -0.258049 -0.038069 0.120547 0.005645 0.068475 -0.037488 -0.252530 0.060650 -0.306580 -0.090617 0.083030 -0.338443 0.435699 0.162930 -0.267005 0.150469 0.305449 -0.025529 0.150833 0.392935 
ex@@ -0.087874 -0.331764 0.201566 0.014551 0.188674 0.608988 -0.265265 0.638461 0.111479 -0.285416 -0.273286 -0.151522 -0.024835 0.058940 -0.275836 -0.049986 0.214847 0.778703 0.099058 0.238656 0.028990 -0.439165 -0.138681 0.104449 -0.423278 0.338617 -0.120773 -0.295669 0.474686 0.112837 0.288389 0.260442 0.070787 -0.127279 -0.059716 -0.203154 0.028048 0.086230 0.105202 0.053751 0.232613 -0.148461 0.111462 0.159839 -0.281434 0.148828 0.479536 -0.235601 -0.100247 0.080230 0.040763 0.071962 0.073404 0.344277 -0.546666 -0.336071 -0.052942 0.183890 -0.379157 -0.010535 -0.002024 -0.052520 0.270194 0.117756 
ch@@ -0.154414 -0.180661 -0.015544 -0.009416 -0.225824 0.286725 0.019055 0.305783 -0.116812 0.143621 -0.142823 0.170487 0.087036 -0.119100 -0.403912 0.067413 -0.151501 -0.031297 -0.153035 0.270390 -0.055326 -0.229610 0.021955 0.266091 -0.128339 0.008672 -0.070916 0.021575 0.456780 -0.271146 0.135909 0.209457 0.174518 0.273348 0.200592 0.218199 0.248424 -0.156070 -0.231979 0.425882 -0.533055 -0.551429 0.001092 0.241920 -0.281725 0.010623 0.100764 0.261854 0.345915 -0.189724 0.280101 0.130763 -0.023790 0.405853 -0.151482 0.088645 0.513161 0.412173 -0.270956 0.285919 -0.247712 0.241600 -0.319181 0.762225 
are 0.330747 -0.067355 0.356387 -0.016416 -0.375742 0.136978 -0.005053 0.105775 0.075450 0.073663 -0.221989 -0.049551 0.135297 -0.320828 -0.206676 -0.278146 0.004548 0.289410 -0.002773 0.139323 0.192583 -0.366173 -0.256487 -0.015840 -0.050518 0.158652 0.028041 0.020585 0.286876 -0.130283 0.148198 0.096877 -0.367245 -0.238528 -0.013804 0.179744 0.011583 -0.218349 -0.025779 0.166566 -0.045772 -0.200079 0.219844 0.268865 -0.104921 -0.233999 0.054513 -0.215740 0.149786 -0.334668 0.431573 0.175736 -0.316320 0.021906 0.033874 -0.058822 0.432246 0.208813 -0.151306 -0.225270 0.391656 -0.434956 0.194322 0.196983 
it@@ 0.429942 -0.004599 -0.116887 -0.130224 0.024060 0.317671 -0.411800 0.172211 -0.117676 -0.046314 -0.067246 -0.024062 -0.019720 -0.164983 -0.354671 -0.046201 0.317112 0.390487 -0.102380 0.158721 0.133003 -0.235078 0.065848 0.131569 0.418599 -0.069837 0.293979 -0.318688 0.285721 -0.226705 -0.067876 0.506520 -0.444027 -0.161429 -0.210351 0.092503 -0.063983 -0.062787 0.251135 0.203096 -0.399607 -0.328540 -0.341825 0.107970 0.105491 0.127086 0.211137 0.169354 0.623402 0.042195 0.302305 -0.155645 -0.124875 0.087381 -0.129576 -0.212824 0.291887 0.414785 -0.216140 0.362765 0.050330 -0.255660 -0.108086 0.337142 
per@@ -0.056385 -0.361907 -0.102150 -0.132074 0.343531 0.300033 -0.618237 0.110329 0.235927 -0.386599 -0.382506 -0.151340 0.365951 -0.483649 -0.116395 -0.015036 0.052970 0.288486 -0.236407 -0.040034 0.052627 -0.195700 0.160424 -0.055484 0.180824 0.068447 -0.331970 0.076795 0.333436 -0.120162 -0.165619 0.578886 0.029100 -0.269840 -0.591951 0.024726 -0.087534 0.154048 0.378253 -0.042702 -0.006574 -0.527884 -0.185140 0.497007 -0.302763 0.158410 -0.074471 -0.071971 0.307093 -0.360859 -0.026966 0.160686 0.048565 0.230316 -0.265734 -0.190643 0.303796 0.144802 0.139202 -0.031617 -0.050735 0.267665 -0.333967 0.497658 
ent 0.325304 -0.122464 -0.356977 0.214040 0.063760 0.424047 0.024456 0.238370 -0.187062 -0.023992 0.162236 -0.137309 0.305081 -0.237186 -0.005150 0.086833 0.190887 -0.022275 0.042592 0.127172 0.067718 -0.478507 0.113244 0.058820 0.108065 -0.292465 0.108694 -0.192704 0.100612 0.140506 -0.328811 0.439554 -0.394772 -0.020543 -0.048983 -0.213619 0.007080 0.355770 0.062428 -0.173087 0.304123 -0.502060 0.504954 0.389075 -0.422107 0.045675 0.536550 0.176081 0.309321 -0.090198 0.566539 -0.124527 -0.344976 0.352289 0.275064 -0.171278 0.223757 0.163610 -0.342947 -0.464420 0.115614 -0.089632 -0.041740 0.224444 
tion -0.011227 -0.063164 0.167679 0.094403 -0.406105 0.346173 0.130976 0.583699 0.020023 0.169460 -0.347774 -0.233975 0.134001 -0.394263 -0.109006 0.145837 0.175621 -0.262043 0.142681 0.060753 0.074977 -0.198845 0.303665 -0.413304 0.465659 0.054446 -0.192411 0.009651 0.095230 -0.062678 -0.460943 0.304469 0.144094 -0.182185 -0.099576 0.496541 -0.193219 0.234305 -0.335460 0.045021 0.084762 -0.423978 0.464246 0.082467 -0.140818 0.426083 0.882857 0.194595 0.001677 -0.036300 0.355267 -0.106729 -0.453579 -0.084700 0.047185 -0.385899 0.383116 -0.000102 -0.133840 0.095504 -0.046864 0.014279 0.030687 0.201183 
ate 0.004478 -0.017842 -0.049342 -0.142227 0.036428 0.493166 0.091341 0.342153 0.149030 -0.200546 -0.020796 -0.213993 0.137980 -0.140072 -0.106888 -0.343803 0.624044 0.118944 0.012311 -0.161725 0.172040 -0.160671 0.094345 0.104765 0.389630 0.246112 0.148528 0.267373 0.254698 -0.145630 0.350136 -0.005802 -0.151420 -0.085452 -0.449485 -0.187243 0.084561 0.081053 -0.383635 0.009212 0.021376 -0.574577 -0.180322 0.270040 -0.285813 -0.147167 0.199351 -0.039441 0.276351 0.027111 0.347543 -0.629326 -0.122290 0.259674 0.326943 -0.402245 0.379392 -0.151720 -0.215438 -0.159535 -0.297299 -0.311844 0.095377 0.240619 
pl@@ 0.134753 -0.446323 -0.480873 0.251795 -0.533531 0.480853 -0.152745 0.160031 -0.021308 -0.054962 -0.299839 -0.433746 0.173178 0.347776 -0.233826 -0.338394 0.165609 -0.010792 -0.056951 -0.015872 0.250689 -0.282945 0.180178 -0.208486 0.017478 0.291373 -0.337096 -0.045105 0.626599 0.094444 -0.309160 0.163128 -0.213740 0.071017 -0.324682 0.135675 0.260836 0.014325 0.024940 -0.095171 0.145890 -0.395058 -0.029562 0.142624 -0.175684 0.171429 0.066846 0.006900 -0.104311 -0.271887 0.053935 0.226902 0.025822 0.365520 -0.059660 -0.278563 -0.100333 0.021055 -0.268142 0.778865 -0.056167 0.075101 -0.135892 0.747654 
un@@ 0.190070 -0.333410 -0.055867 -0.249898 -0.106972 0.393198 0.070832 0.102519 0.089642 -0.335396 0.005040 -0.486465 0.040288 -0.043793 0.066291 0.119621 0.035278 0.563435 -0.174098 -0.014237 0.179696 -0.202808 -0.165746 -0.136580 0.143317 0.468049 0.032386 0.137721 0.558355 -0.278411 0.023580 0.249908 -0.230325 -0.220528 -0.126862 0.306594 0.015067 -0.378242 0.310652 0.269118 -0.223472 -0.050032 0.145872 0.285067 0.230462 0.046535 0.469544 -0.004907 0.173279 0.015328 0.121295 0.017140 -0.111330 0.348990 0.186302 0.048011 0.453464 -0.131954 -0.057562 0.207086 0.369998 -0.168168 -0.032718 0.134016 
con@@ -0.141009 0.026437 0.089359 0.039667 -0.340726 0.401784 0.143208 0.178244 0.340916 -0.196222 -0.166915 -0.289875 0.090256 -0.481394 0.161670 0.101218 0.213496 0.657580 -0.112889 0.416881 0.154860 -0.292805 -0.050693 -0.058915 0.065454 0.471944 -0.190320 -0.218530 0.029373 0.434936 -0.297505 0.580578 0.209441 -0.194626 -0.275977 0.150797 0.184785 -0.030418 0.084867 0.237895 -0.072937 -0.566663 0.098976 -0.136918 -0.185894 0.713932 0.198696 0.087098 -0.451546 -0.288568 0.363487 0.136523 -0.201607 0.006015 -0.001605 0.044018 0.153624 0.124766 -0.246677 -0.305659 0.122771 0.001726 0.172612 0.578098 
si@@ 0.124899 -0.021242 -0.231894 0.357476 -0.509313 0.230633 -0.069022 0.227460 0.043114 -0.026648 -0.320375 -0.280168 -0.222007 -0.327249 -0.016215 -0.004250 0.013291 0.284186 -0.081136 0.381049 0.143449 -0.788810 0.337811 0.293064 -0.057201 0.128703 -0.244925 -0.193471 -0.013372 -0.369213 -0.103670 0.071962 -0.060184 -0.139913 -0.348860 0.219187 -0.081411 0.216762 0.063287 0.673773 0.104565 -0.337870 -0.226114 0.031330 -0.481328 0.014001 0.062242 -0.011084 -0.170258 -0.246590 0.205315 -0.309548 -0.074923 0.381111 0.236671 0.167759 0.388823 0.089801 -0.124341 0.120803 0.074958 -0.162662 0.300649 0.248632 
th@@ 0.151905 0.049930 -0.060864 -0.252356 -0.162205 0.304443 0.001263 -0.173992 -0.061831 0.404487 -0.288554 -0.082072 -0.126594 -0.267930 -0.166405 -0.076071 0.028719 0.314164 -0.366039 -0.239922 -0.141319 -0.229886 -0.052853 -0.059962 0.344891 0.023472 -0.200102 0.260594 0.235776 -0.068623 -0.018460 0.054246 -0.457367 0.365710 -0.296836 0.218486 0.158973 0.104737 -0.065515 0.499116 -0.191375 -0.490324 0.004386 0.197326 -0.301524 -0.306009 -0.144331 0.058474 0.189588 0.110737 0.017984 0.038544 0.065982 0.025559 -0.068234 -0.210238 0.943768 0.299260 -0.212637 0.291910 0.089042 0.002032 -0.159920 0.413110 
4@@ -0.050194 -0.002089 0.174156 -0.300577 -0.021067 0.752211 -0.060217 0.344373 0.217492 -0.100812 0.128781 -0.355610 0.061764 -0.106464 0.314141 -0.019578 -0.065313 0.312188 -0.008941 0.269897 -0.124504 -0.463675 0.024762 0.018969 -0.071649 0.007650 -0.189912 -0.228093 0.487130 -0.158094 -0.223566 0.303557 0.109753 -0.301122 0.001212 0.355332 0.424190 0.143063 0.056207 0.201175 -0.171123 -0.402122 -0.137242 0.406257 -0.487111 -0.167956 0.244767 0.053148 0.227787 -0.016912 0.296129 0.038853 -0.047910 0.209960 0.071910 -0.337923 0.454369 -0.028993 -0.560969 0.235047 0.155133 -0.251003 0.071794 0.645202 
A -0.003191 -0.099022 0.202162 -0.062265 -0.170397 0.776519 0.159955 0.234762 0.066344 -0.222318 0.320077 -0.191818 0.121868 0.052143 -0.268971 -0.104724 0.241715 -0.004522 0.193850 0.189961 0.113072 -0.339428 0.074082 -0.197161 -0.069027 -0.191911 -0.257733 -0.018090 0.314907 -0.162170 -0.076128 0.486883 -0.143348 -0.098631 -0.160507 0.229900 0.056092 0.221914 -0.025468 0.016415 -0.044351 -0.239182 -0.106529 0.256043 -0.258837 0.123012 0.289793 0.224484 -0.048319 -0.263411 0.143442 -0.072663 0.012159 0.030853 -0.107514 0.143565 0.654554 0.036337 0.035740 0.022104 0.122451 -0.354479 -0.028397 0.364114 
patients 0.000910 0.136034 -0.041364 0.418335 -0.343747 0.670274 0.149578 0.225591 -0.405409 -0.153502 0.410738 -0.464766 0.312111 -0.120527 0.092818 -0.289245 -0.061841 0.276546 -0.047647 -0.002231 0.083310 -0.152870 -0.311196 -0.226417 0.364978 0.150958 0.132549 -0.361335 0.421031 0.017791 -0.241485 0.266875 0.031490 -0.079033 -0.092025 0.221169 0.497245 -0.034655 0.195846 0.514527 0.076378 -0.074215 0.677219 0.644435 -0.203173 0.134174 0.495457 -0.044130 0.223510 -0.485033 0.158138 0.344136 0.220545 -0.005298 -0.021120 0.076772 0.673384 0.299463 -0.102870 -0.073796 -0.128568 -0.147493 0.009883 0.087592 
es. -0.496303 -0.586225 0.582622 -0.206214 -0.057157 0.333467 0.221541 0.184238 -0.199856 0.041939 -0.110977 -0.313988 0.838370 -0.011498 0.076941 -0.530150 0.431127 0.781760 -0.605954 0.189406 0.388438 -0.095403 0.253874 0.104233 0.511425 -0.100770 0.234124 -0.152656 0.300325 -0.558750 0.112554 0.116496 -0.331005 0.081969 -0.188401 0.097737 0.381421 0.389737 0.138395 0.279868 -0.135509 0.259667 0.391000 -0.270715 -0.274160 -0.302016 -0.224270 0.154917 -0.113417 -0.371858 0.803821 0.010309 -0.212847 0.316023 -0.001308 -0.289523 0.388904 -0.042138 -0.377172 0.168659 0.157727 0.189027 0.017252 -0.077637 
be 0.201227 -0.075943 0.227857 0.056423 -0.406419 0.403167 -0.392201 0.121929 -0.037901 -0.141885 -0.336918 -0.280451 0.039018 -0.408131 -0.389988 -0.222888 0.037379 -0.199427 0.239159 -0.027442 0.207607 -0.361091 -0.400261 0.144296 0.306017 0.722696 -0.042065 -0.000400 0.263887 -0.167456 -0.179746 0.245895 0.128401 -0.293385 -0.312303 0.163126 0.501705 -0.187428 -0.075060 -0.156197 -0.064850 -0.096445 0.552527 0.111031 0.025663 -0.226949 0.006374 -0.193187 -0.057853 -0.093478 0.327406 0.069805 -0.117292 0.441680 -0.065626 -0.303750 0.501579 -0.063461 -0.127606 -0.230770 0.384490 -0.397651 -0.020292 0.064503 
ol@@ 0.130369 -0.117688 -0.002099 -0.075684 -0.082120 0.585265 0.241965 0.263099 -0.165181 -0.039502 -0.325765 -0.221894 -0.019471 0.267038 -0.055627 -0.212078 -0.149899 0.115190 -0.092559 -0.392561 -0.263156 -0.729172 0.133237 -0.060238 0.043490 -0.063224 -0.147675 -0.355227 0.050916 -0.028836 -0.106716 -0.067233 -0.267330 0.191547 -0.032145 0.107218 -0.300253 0.107186 0.208057 0.199560 -0.358948 -0.500899 -0.051476 0.195059 -0.703965 0.267568 0.025671 -0.119643 0.401620 0.000624 0.103407 -0.094050 -0.290132 0.355323 -0.052659 0.037509 0.747541 -0.180413 -0.271511 -0.219326 -0.079710 -0.122376 -0.075202 0.306899 
se@@ 0.033528 0.399429 0.219944 -0.008087 -0.448373 0.361200 0.214036 0.171084 -0.317240 0.024148 -0.223548 0.326437 0.028788 -0.387228 -0.299355 0.083239 0.072699 0.107812 -0.439778 0.047562 0.114723 -0.465147 -0.253820 0.080804 0.191731 0.175229 0.048038 0.155313 0.108295 -0.251577 -0.013478 0.494536 0.053628 -0.305323 -0.127774 -0.019689 0.002606 -0.176783 0.127874 0.201766 -0.318309 -0.251617 -0.199565 0.410176 -0.195318 -0.134023 -0.154964 0.117762 0.127271 0.149790 0.339378 -0.044259 0.022643 0.144225 0.087898 -0.269761 0.366583 0.463599 -0.593460 0.316028 0.114357 -0.135665 0.200950 0.289829 
ly 0.081560 -0.003617 0.109615 0.022831 -0.470766 0.465997 -0.020910 -0.153955 -0.330020 0.030586 -0.031590 -0.197008 0.215580 -0.243868 -0.310305 -0.004800 0.005367 -0.241411 0.226935 0.232408 -0.425584 -0.500075 -0.314913 -0.036127 0.093231 0.369753 -0.057792 0.545566 0.689480 -0.472909 0.202420 0.464974 -0.267378 -0.032624 -0.228518 0.107665 -0.047968 -0.101524 0.060421 0.292273 0.061024 0.230113 0.124748 0.526423 -0.147355 0.036253 0.190526 -0.550784 -0.070501 -0.158679 0.299487 -0.122599 -0.377587 0.184967 0.085761 0.079773 0.503626 0.041244 -0.336738 -0.195594 0.097347 -0.107277 0.199797 0.235012 
tic -0.182031 0.048388 -0.291284 0.512681 -0.274717 0.008150 0.262283 -0.205547 0.316380 0.519027 -0.219722 -0.408535 0.354280 0.126788 -0.254835 -0.006300 0.402712 -0.094762 -0.040304 0.092543 0.024231 -0.368345 0.004933 0.349037 0.233137 -0.253316 0.025437 -0.263102 0.120949 -0.358075 0.180169 -0.039379 -0.014811 -0.084000 -0.546405 0.275033 -0.123075 0.076127 -0.130421 0.095789 -0.350916 -0.724816 -0.110014 0.668853 -0.402803 -0.157435 0.017414 0.200883 -0.149597 -0.382515 0.284103 0.212164 0.058858 0.220362 -0.493189 -0.023769 0.473704 -0.076716 -0.002592 0.165084 0.540501 -0.293468 0.050839 0.355685 
gen@@ -0.103692 -0.157121 0.276421 -0.153841 0.181704 0.128438 0.158521 0.509488 -0.045184 -0.304891 -0.044341 -0.358174 -0.138784 0.006491 -0.419445 -0.392965 0.001808 0.073946 -0.156967 0.492332 0.214242 -0.345150 -0.383590 0.235390 -0.119852 0.252048 0.031386 -0.398839 0.594613 0.066130 0.139564 0.210423 -0.134559 0.219390 0.005209 0.332156 -0.008179 0.495184 -0.173195 0.270580 0.092724 0.021943 -0.272775 0.327580 -0.551929 -0.294862 0.236915 0.074365 0.296461 0.233642 0.466786 0.080762 0.018322 0.022928 -0.256089 -0.047595 0.307462 0.266946 -0.161384 0.037087 0.047383 0.162342 0.092116 0.553120 
is@@ -0.191816 0.176497 0.338968 -0.388351 -0.073056 0.427522 -0.074707 0.012588 -0.059785 0.076593 -0.476915 -0.051171 0.027843 -0.102152 0.174967 -0.291967 0.300275 0.317004 0.244871 -0.013099 0.435229 -0.325441 -0.103765 0.028384 0.155842 0.234013 0.135310 -0.234272 0.180494 -0.007462 0.210680 0.708413 -0.236819 -0.245123 -0.096389 0.374993 -0.311199 -0.195733 -0.014350 0.054509 -0.169483 -0.250995 -0.172436 0.418788 -0.269934 0.059282 0.056803 -0.007103 0.576439 0.364163 0.382777 0.161035 -0.064320 -0.238853 -0.295325 -0.044718 0.322804 0.112260 -0.040286 0.003117 0.247502 0.088145 0.093746 0.519606 
ph@@ 0.192691 -0.304478 -0.073407 -0.004284 0.052229 0.236309 0.216843 0.108607 -0.043931 0.352980 -0.167606 -0.420971 0.262976 0.079203 -0.180579 0.220394 0.225692 0.090128 -0.459212 0.497529 0.171276 0.263322 0.159075 0.177754 0.019467 0.106225 -0.048999 -0.427381 0.187726 0.302169 0.121200 -0.203231 -0.373794 0.117157 -0.312902 0.297442 -0.050560 0.327959 0.095474 0.292010 -0.251095 -0.554148 0.081329 0.563390 -0.473619 -0.279104 0.446327 0.168652 0.382281 0.273858 0.220787 0.192253 0.292077 0.453734 -0.240360 -0.025499 0.446650 0.147238 0.280875 0.206380 0.144371 0.221662 -0.075150 0.264997 
qu@@ -0.218591 -0.522752 0.286847 0.124769 -0.065013 0.466164 0.005830 0.022708 0.369185 0.073944 -0.264352 -0.117049 -0.080285 0.244935 -0.374616 -0.035723 -0.075978 0.385404 -0.381011 -0.108209 -0.058320 -0.390322 0.226026 -0.311716 0.187190 0.215365 0.073487 0.226575 0.534688 -0.045564 -0.275400 0.182521 -0.038634 0.115294 -0.060883 -0.124502 0.394628 0.160822 0.184426 0.551961 -0.117496 -0.359729 -0.052051 0.533900 -0.149039 -0.018162 -0.023383 0.969934 0.493461 0.078367 0.294991 -0.121663 -0.327599 0.303362 -0.052816 -0.230103 -0.004160 0.461048 0.164611 -0.136888 -0.171361 -0.274890 0.012891 0.270786 
9@@ -0.040970 0.021547 0.255356 -0.297282 -0.091063 0.738528 -0.009239 0.261842 0.229759 -0.085955 0.114340 -0.427956 -0.035921 0.004800 0.388482 0.020531 -0.038762 0.269201 -0.053483 0.072612 -0.087489 -0.463334 0.050543 0.017486 -0.079169 0.214709 -0.303463 -0.116226 0.487804 -0.102649 -0.290429 0.476875 -0.106345 -0.441847 -0.200623 0.392286 0.424738 0.187237 0.149172 0.191628 -0.224892 -0.425060 -0.226307 0.473577 -0.538725 -0.221569 0.313514 0.246769 0.249793 -0.006203 0.450527 0.154269 0.067622 0.240774 0.404144 -0.351196 0.271262 -0.042927 -0.805820 0.053377 0.061945 -0.166925 0.073860 0.522349 
ter@@ 0.334360 -0.217486 0.189238 0.108165 -0.276378 0.201166 0.174563 0.160954 0.131203 0.149100 -0.473205 0.125625 0.026291 0.288648 -0.292155 -0.085404 0.104113 -0.194590 0.092595 0.240608 0.311108 -0.120547 -0.057707 -0.174140 0.239401 -0.105335 -0.415941 -0.357987 0.380865 -0.357891 -0.495518 -0.182059 -0.207911 -0.279244 -0.440872 0.378054 -0.421898 0.024615 -0.099103 0.166906 -0.309671 -0.225035 -0.415810 0.330749 -0.321937 -0.047616 0.268660 0.108864 0.428641 -0.060046 0.223805 0.024478 0.295872 0.224363 0.175142 -0.249869 0.456211 0.315101 -0.512410 -0.084971 0.448225 0.470552 0.242281 0.217790 
ec@@ 0.061639 0.055446 0.337892 -0.176130 -0.010752 0.125834 0.418107 0.630650 -0.288993 -0.058661 0.185863 -0.503777 0.224864 -0.228620 -0.061826 0.139311 -0.047105 0.673182 0.253609 -0.170130 0.022769 -0.834578 0.057625 0.036879 -0.262368 0.275385 0.356141 0.135740 0.404716 -0.057452 -0.114231 -0.462695 -0.147536 0.089381 -0.333574 -0.047156 -0.574074 -0.176522 0.283303 0.055861 0.111120 -0.527498 -0.225040 0.335161 -0.211969 0.103611 0.176730 0.371718 0.432729 -0.104218 0.780725 0.083992 0.167825 0.126499 0.293686 0.312652 0.473319 -0.044710 -0.059399 0.004271 0.108343 0.031570 -0.406184 0.186438 
0@@ 0.092510 0.178801 0.478368 -0.452448 -0.076601 0.908102 -0.174271 0.303690 0.182440 -0.301974 0.145110 0.001138 0.095178 0.128187 0.286911 -0.010804 -0.214502 0.378804 0.003160 -0.015319 0.012938 -0.552515 0.118431 -0.039173 0.029903 0.232202 -0.415931 0.036764 0.476150 -0.005775 -0.230555 0.084401 -0.001501 -0.528913 -0.073120 0.462544 0.236022 0.103037 0.389378 0.092065 -0.336930 -0.547212 -0.054689 0.289327 0.009419 -0.398704 0.447997 0.119891 0.265104 0.123046 0.497707 0.152427 0.037182 0.250999 0.396079 -0.424204 0.865549 0.214365 -0.739926 0.189306 -0.229351 -0.226963 0.010076 0.333860 
ur@@ 0.212843 0.080928 -0.037847 -0.173123 0.053763 0.317779 0.038966 0.072952 0.164571 -0.083718 -0.245259 0.124386 0.058443 -0.041987 0.098424 -0.128675 -0.263348 0.518037 -0.312940 0.249726 0.131433 -0.191331 0.124260 -0.435412 0.131630 0.177997 -0.710211 0.111545 0.384264 0.070250 0.047785 0.053531 0.064887 0.038569 -0.164144 0.558214 0.275065 0.233811 0.231745 -0.228625 0.013292 -0.534933 0.008538 0.498107 -0.119936 0.198488 0.233610 0.227269 0.250314 -0.015258 0.071905 -0.096526 -0.068779 0.195651 0.112021 0.126959 0.310537 0.202271 -0.398243 -0.175178 0.787007 0.056144 0.263271 0.083481 
vi@@ 0.333949 -0.206448 0.340976 -0.381614 0.142122 -0.009610 -0.262032 0.248443 0.058532 -0.369461 -0.452965 0.159163 0.597784 -0.091746 0.144888 0.234001 0.490249 -0.061632 0.122504 -0.020630 -0.314922 -0.488832 -0.210510 0.290322 0.227324 0.250678 -0.271378 -0.081214 0.429742 0.247652 -0.033418 0.230869 -0.224192 0.074694 -0.375220 0.172365 0.050464 0.060757 -0.150976 0.465967 -0.231404 -0.563026 -0.203945 0.126528 -0.274469 -0.335747 0.335975 0.097459 -0.168640 -0.301905 0.551360 0.302309 -0.225977 -0.095258 0.167277 -0.249419 0.422050 0.079312 0.225808 0.328592 0.103150 -0.210902 -0.137781 0.238562 
mo@@ -0.008883 0.003557 -0.141208 -0.089527 -0.179526 0.410519 0.186458 0.257849 -0.390843 0.116471 -0.402496 0.013487 0.150254 -0.268798 0.218234 0.203994 -0.056613 0.130498 -0.364877 0.051546 0.602262 -0.488560 -0.048554 -0.086880 0.318407 0.053831 -0.220273 0.034312 0.504294 0.347097 -0.216857 0.266381 0.042607 0.042713 -0.703092 0.573166 0.049036 0.391934 0.318280 -0.054658 -0.608019 -0.219130 0.052842 0.400360 -0.402329 0.106920 0.326771 -0.083625 0.062814 0.032897 0.265111 -0.149993 0.293661 0.107110 0.147107 0.002347 -0.045192 0.189247 -0.023826 -0.220924 0.533444 -0.104290 -0.046889 -0.108133 
om@@ -0.145206 0.379932 -0.361571 -0.081259 -0.063487 0.212850 0.043322 0.552994 -0.198656 0.115347 -0.382652 -0.292255 0.499685 0.453597 -0.202354 -0.126923 -0.195106 0.671011 -0.331489 0.134011 0.283801 -0.113442 -0.247348 0.151066 0.074611 -0.094972 0.019352 -0.144753 0.136343 0.155460 -0.103027 -0.132284 -0.068039 0.062071 -0.168915 0.546969 0.154900 -0.074627 -0.102986 0.280943 -0.099197 -0.594551 0.205676 0.341480 -0.013327 0.003064 0.100734 0.052260 0.006489 0.031369 0.519647 0.026044 0.248194 0.436589 -0.201650 0.150320 0.459455 0.451651 -0.293664 -0.148043 -0.214080 -0.076472 -0.468133 0.445640 
8@@ -0.011819 -0.028279 0.170515 -0.248088 -0.040815 0.743670 0.002694 0.286200 0.229219 -0.032830 0.108087 -0.426942 0.005233 -0.069704 0.402913 -0.007275 -0.040363 0.298571 -0.056289 0.147011 -0.157282 -0.412783 0.083176 -0.016812 -0.053995 0.117423 -0.231940 -0.186684 0.497618 -0.138609 -0.295868 0.379614 0.009595 -0.375799 -0.123550 0.426223 0.460815 0.138402 0.122732 0.221317 -0.262006 -0.400736 -0.196274 0.452406 -0.566595 -0.191291 0.281309 0.162410 0.248459 -0.096181 0.390136 0.127215 -0.005341 0.207358 0.244634 -0.373141 0.311702 -0.049317 -0.632657 0.123138 0.138802 -0.255725 0.082697 0.571587 
2 0.002563 -0.125748 0.201669 -0.175822 -0.231913 0.730914 0.106905 -0.063554 0.129077 -0.424710 0.128445 -0.352952 0.029508 -0.057813 -0.110502 -0.138168 0.030526 0.171527 0.193689 0.304435 -0.108053 -0.499719 0.088191 0.074638 -0.201996 -0.140385 0.213391 -0.337992 0.382934 -0.038956 -0.336636 0.233783 -0.008816 -0.124382 -0.245837 0.296547 0.155735 0.380953 0.184185 0.007976 -0.154125 -0.152456 -0.148524 0.513407 -0.390074 -0.227118 0.180491 0.094368 0.060596 0.043998 0.220548 -0.009275 -0.023706 0.237569 -0.124582 -0.396650 0.524639 -0.093573 -0.211968 0.337888 0.440026 -0.189208 0.162539 0.472431 
lo@@ 0.324026 -0.150053 0.234796 0.047451 -0.130873 0.614472 -0.106756 0.507876 -0.336428 0.059402 -0.107176 -0.289312 -0.018694 -0.147840 -0.252237 -0.017350 0.043817 0.116492 -0.260941 -0.026262 0.060135 -0.279463 0.024687 0.114856 0.169177 -0.230643 -0.143610 -0.112827 0.684336 -0.111284 0.113835 0.044120 -0.162023 -0.025445 -0.128864 0.198256 -0.177575 -0.103826 -0.122773 0.343532 -0.101565 -0.090477 0.051197 0.305554 -0.393690 -0.302651 0.323346 0.250129 -0.035480 0.282747 -0.177523 -0.050261 0.348125 0.620185 0.055508 -0.434540 0.272837 -0.139493 -0.280021 0.049974 0.517647 -0.182754 -0.535034 0.059767 
5@@ -0.055205 0.005850 0.266839 -0.218304 -0.033987 0.777649 0.007826 0.253356 0.227635 -0.152585 0.157996 -0.362253 -0.025939 -0.028971 0.291157 -0.035493 -0.047461 0.293597 -0.021718 0.278511 -0.109558 -0.449939 -0.013891 0.009786 -0.061151 -0.078285 -0.212501 -0.231635 0.555397 -0.081393 -0.180374 0.226506 0.074628 -0.300999 -0.126488 0.396800 0.310597 0.121174 0.014467 0.186030 -0.155778 -0.349536 -0.146903 0.378179 -0.444544 -0.036694 0.285359 0.065322 0.174719 -0.014452 0.357711 0.118716 -0.059018 0.347117 0.204765 -0.383062 0.495314 0.031767 -0.495431 0.175082 0.217356 -0.289389 0.121428 0.651319 
/@@ -0.087736 -0.004421 0.216419 -0.495701 -0.092666 0.925152 0.289650 0.160631 -0.132476 -0.114270 0.071619 -0.280833 0.301476 -0.167807 -0.069185 0.198670 -0.023299 0.011337 0.049303 0.149371 0.059551 -0.381064 0.255077 -0.413806 -0.131560 0.050395 -0.000161 -0.352090 0.303641 -0.107628 -0.186662 -0.185181 -0.320680 -0.268445 -0.339838 0.417085 0.197391 0.169982 0.030295 -0.117242 -0.240136 -0.187975 -0.258201 0.323631 -0.412308 0.026126 -0.061620 0.220118 0.032099 -0.000921 0.339858 -0.210689 -0.220599 0.499908 -0.133982 -0.184124 0.453945 0.260211 -0.165433 0.207873 0.386412 -0.190425 -0.236334 0.458152 
ad@@ -0.012090 0.192617 -0.083435 0.146052 0.035717 0.371044 -0.018665 0.407745 -0.252542 -0.001724 -0.332830 -0.232572 0.003112 -0.463780 0.029142 0.173517 0.279044 0.713427 0.168195 -0.247524 -0.125139 -0.405426 -0.267496 -0.427525 0.068900 0.341049 -0.230293 -0.569106 0.103921 0.131251 0.092707 0.128199 -0.292058 0.093678 -0.101422 0.124955 -0.107110 0.052262 0.095732 0.032846 -0.075737 -0.294610 0.130580 0.395381 -0.279387 0.085454 0.101192 0.121000 -0.072871 -0.194280 -0.109554 0.361599 -0.056119 0.283036 0.104693 -0.354954 0.396135 0.011658 -0.383261 0.208158 0.070642 -0.365577 0.048339 0.330949 
: -0.074245 0.033366 0.397492 -0.059338 -0.055613 0.610471 0.129837 0.234510 0.269224 0.182999 0.190703 -0.134168 0.281338 0.250680 0.013895 -0.280763 0.578801 0.187023 -0.195515 0.431725 0.227211 -0.700431 0.523369 -0.239775 0.123698 -0.006534 0.041386 0.002167 -0.085111 -0.498949 0.243412 0.435563 -0.545720 -0.203305 -0.161838 0.058126 0.213081 0.228745 0.030964 0.099404 -0.533467 -0.231851 0.095651 0.269479 -0.455269 0.328633 0.237099 0.575506 -0.117181 -0.140044 -0.038052 0.127801 -0.259568 0.288144 0.009404 0.309293 0.520236 0.632482 -0.043060 0.289491 0.228485 0.172041 -0.427462 0.283641 
7@@ -0.064891 -0.002745 0.188138 -0.236535 -0.084667 0.775606 0.011496 0.270306 0.182442 -0.118827 0.120761 -0.436184 0.016621 -0.024882 0.361892 0.017371 -0.030459 0.309647 0.019855 0.153650 -0.128801 -0.416741 -0.004955 0.037102 -0.062620 0.107890 -0.230791 -0.228350 0.508924 -0.057021 -0.288290 0.287664 -0.007891 -0.385728 -0.152065 0.420407 0.382339 0.159103 0.080223 0.293508 -0.164891 -0.352197 -0.166103 0.435669 -0.551972 -0.191255 0.236588 0.176191 0.275925 -0.089000 0.354858 0.193613 -0.065232 0.211393 0.248859 -0.372201 0.366155 -0.007636 -0.667980 0.135653 0.173209 -0.259680 0.090726 0.532097 
ne@@ -0.264457 0.325280 -0.384982 -0.261479 0.073773 0.456775 0.490394 -0.062518 0.044944 0.087527 -0.215171 -0.322004 0.027600 -0.573544 -0.135206 0.358010 0.330798 0.127887 -0.169218 -0.027876 0.123211 -0.198967 -0.103776 0.222390 0.000899 0.133336 -0.128869 -0.041134 0.517700 -0.512797 -0.184268 0.005017 -0.275043 -0.128530 -0.397669 -0.202646 0.170814 -0.308593 0.072721 0.184033 -0.280128 -0.461756 0.296670 0.493332 -0.388022 0.097862 0.068866 -0.100094 0.101680 -0.175229 -0.079680 0.256796 0.082553 0.267350 -0.099231 -0.158100 0.129432 0.311436 -0.161719 -0.215061 0.485072 -0.186751 -0.045589 0.175961 
ri@@ -0.051486 0.204595 -0.142069 0.048694 -0.312960 0.282595 0.275519 0.685295 0.190404 -0.284256 -0.361287 0.111030 0.152171 -0.095886 0.266591 0.447809 -0.157477 0.442739 -0.156995 0.223310 0.303838 -0.357820 0.019844 -0.001342 0.013954 -0.031866 -0.408260 0.005899 0.096411 -0.291166 -0.120259 -0.009114 -0.005202 -0.030743 0.124487 -0.279044 0.357161 0.370545 -0.163654 0.006450 -0.429231 0.015076 0.379225 0.391359 -0.593061 0.322994 0.364369 -0.051351 0.300262 0.062828 0.110814 -0.579572 -0.204824 0.478487 -0.109018 0.011823 0.426457 0.092544 -0.286847 -0.156491 0.131183 -0.270319 -0.021209 0.158719 
ag@@ 0.405112 0.306379 -0.104599 0.271945 -0.127659 0.287965 0.334151 0.360145 0.261597 -0.251076 -0.121708 -0.351477 0.126944 -0.140142 -0.127869 -0.282300 0.371303 -0.161858 -0.615159 0.064494 -0.034651 -0.292872 0.306272 0.086599 0.044349 0.297776 0.103299 -0.104257 0.391100 -0.361060 0.455478 0.324356 -0.060281 0.046854 -0.118194 0.291231 0.166681 -0.137155 0.497746 0.047998 0.324780 -0.009057 0.164890 0.367563 -0.542871 0.162362 -0.054827 0.021239 0.375625 -0.144924 0.138305 0.314839 0.072590 0.081730 -0.129820 -0.079052 0.512625 0.054535 -0.035393 0.486034 0.184754 -0.178585 -0.022039 0.422915 
po@@ -0.177883 0.216346 -0.405903 0.147861 -0.102349 0.756184 0.328713 0.294336 -0.120353 -0.157567 0.250787 -0.077514 -0.247211 -0.164131 -0.003714 -0.046013 0.349149 0.161867 -0.150650 -0.072046 0.506311 -0.655331 0.178373 0.375164 0.110633 0.219543 -0.279983 -0.125811 0.307491 -0.003936 -0.214369 -0.178270 -0.010532 0.061961 -0.108506 0.221507 -0.188474 0.262308 0.089879 0.139190 -0.386841 -0.344741 -0.008924 0.317816 0.083647 -0.278226 0.105635 -0.141070 0.112789 0.133310 0.019859 0.114231 -0.272929 0.017029 -0.378392 -0.401226 0.619743 0.333823 -0.292505 0.122446 -0.088385 -0.198991 -0.166990 -0.013558 
x@@ 0.119125 0.197610 0.265948 0.020732 0.015724 0.362217 -0.130131 0.160688 -0.040204 0.289911 -0.349111 -0.043993 0.228694 0.008882 -0.237000 -0.344123 0.016223 0.069795 -0.230307 0.637122 0.174728 -0.141392 -0.099111 -0.429901 -0.176308 0.091839 -0.410932 -0.065710 0.427395 -0.003658 -0.162160 -0.182886 -0.150696 0.057071 -0.338116 0.105833 -0.014386 0.252773 0.099943 0.446478 0.014054 -0.343096 -0.361365 0.434683 -0.389713 0.179193 0.566870 -0.029980 -0.150487 -0.134904 -0.384899 -0.414700 0.079168 0.389042 -0.210482 -0.413183 0.304675 0.076021 -0.333612 0.175543 0.183338 -0.229857 -0.199174 0.612654 
). -0.607642 -0.136889 0.326775 -0.222009 0.089839 0.863123 0.085710 0.169599 -0.236128 -0.051018 -0.313858 -0.248531 0.494594 -0.054246 0.436226 -0.206211 0.598301 0.137147 -0.347552 0.322468 0.015202 -0.361951 0.466379 -0.134685 0.453816 -0.007836 0.001422 -0.011110 0.639136 -0.265281 -0.034390 0.021920 -0.127632 -0.210371 -0.172011 0.105377 0.453207 0.505383 0.561037 0.256136 -0.257250 -0.023285 0.194915 -0.355764 -0.205329 -0.443782 0.143455 0.593423 -0.009469 -0.178962 0.397646 0.010461 -0.202510 0.581724 -0.177951 -0.005594 0.592915 0.307760 -0.517211 0.297680 0.165076 0.233429 0.214883 0.256759 
V@@ 0.184956 -0.109069 0.397185 -0.385574 -0.061558 0.590036 0.310398 0.239367 -0.286678 -0.413853 -0.039911 -0.354825 0.117850 0.207040 -0.204248 0.011534 0.048702 -0.091715 0.112941 0.233561 -0.313348 -0.641824 -0.053373 -0.233274 0.169198 0.175317 -0.219418 -0.244508 0.340050 0.018649 -0.098824 0.020377 -0.369131 -0.328242 -0.422750 0.229061 0.314833 0.109027 0.005928 0.274936 -0.053159 -0.353869 -0.129730 0.065547 -0.274637 -0.296531 0.429648 0.218199 0.196589 -0.516791 0.274973 -0.119808 0.067407 -0.101491 -0.343755 0.008624 0.145226 0.292420 -0.068965 0.084995 0.112670 -0.204745 0.022256 0.318338 
n -0.106506 0.088227 -0.221877 -0.343661 -0.268328 0.963984 -0.089244 0.028876 -0.139535 -0.113561 -0.381805 -0.190798 0.083949 -0.157979 -0.161584 0.118410 0.249208 0.233867 0.132997 0.162303 0.200835 0.029394 -0.065277 0.205542 -0.129340 0.233431 0.019376 -0.113086 0.476075 0.205890 0.010861 0.143671 -0.150831 -0.195209 -0.534130 0.136481 0.241890 0.413412 -0.428966 -0.160237 -0.383308 -0.513787 -0.267211 0.439693 0.338839 0.062501 0.280361 -0.162059 0.166788 -0.113421 -0.011728 -0.150221 -0.269326 0.033610 0.324711 0.263617 0.516308 0.421559 -0.189895 0.169728 0.362201 0.559527 -0.003978 -0.027813 
anti@@ -0.216902 -0.521017 0.161624 -0.102859 -0.166496 0.047295 -0.074165 0.544479 0.193093 -0.193707 0.092760 -0.359464 0.540697 -0.059215 -0.244009 0.354807 0.436204 0.435560 -0.084557 0.025115 -0.033811 -0.284551 -0.387314 -0.463224 0.449029 -0.213434 -0.373734 -0.649007 0.617372 0.123545 0.014006 0.264710 0.573814 0.092094 -0.516143 0.243217 0.236446 0.034711 -0.473417 -0.089127 0.036917 0.198735 -0.432266 0.438742 0.048141 0.253498 -0.106970 0.156264 0.258502 -0.341021 0.579439 -0.421421 0.307127 0.177218 0.160455 -0.047352 0.265313 0.229630 0.277675 0.020550 0.502247 -0.337514 -0.023574 0.106175 
6@@ -0.028671 0.057213 0.249774 -0.229903 -0.055745 0.825294 -0.003741 0.253671 0.177901 -0.161945 0.201623 -0.399280 -0.043446 0.002830 0.366839 0.016186 -0.013669 0.340767 -0.038600 0.284146 -0.059745 -0.452733 -0.017589 0.037101 -0.068560 0.003195 -0.211063 -0.284187 0.545766 -0.043703 -0.205846 0.233414 0.024347 -0.310491 -0.119679 0.406074 0.375826 0.191788 0.058681 0.222107 -0.242494 -0.374672 -0.191754 0.366218 -0.436986 -0.136398 0.244646 0.112511 0.172596 -0.082945 0.322656 0.174879 -0.084167 0.239740 0.210425 -0.394947 0.501237 0.006893 -0.540960 0.134314 0.146909 -0.259163 0.086107 0.662306 
1 -0.028023 -0.155108 0.176975 -0.317132 -0.210633 0.720245 0.147519 0.020566 0.105624 -0.512755 0.159468 -0.233008 0.025778 -0.025293 -0.147675 -0.104836 0.017333 0.108245 0.263510 0.444366 -0.122858 -0.520238 0.040496 0.050044 -0.189690 -0.070290 0.182290 -0.307891 0.370171 0.020863 -0.203473 0.195916 -0.007006 -0.060214 -0.183664 0.349946 0.138138 0.331655 0.184862 0.009138 -0.120921 -0.163043 -0.116155 0.394826 -0.371781 -0.237797 0.250584 0.200602 -0.019308 0.081193 0.236789 -0.078022 -0.006092 0.297916 -0.072840 -0.386258 0.605239 -0.097673 -0.318080 0.340045 0.435626 -0.182491 0.157062 0.468368 
ent@@ 0.317578 0.136456 -0.486367 -0.005114 -0.109402 0.383869 -0.060009 0.131818 -0.054767 0.062942 0.206892 -0.079381 0.145815 -0.140965 0.278931 0.264053 0.312878 0.389742 -0.518750 0.251130 0.092157 -0.527042 0.326550 -0.099016 -0.116154 -0.052768 -0.167265 -0.025927 0.216778 -0.066180 -0.192011 0.491395 -0.576161 0.035474 -0.116674 -0.024823 0.107413 0.090209 0.181026 0.095474 0.431011 -0.373236 0.103620 0.078118 -0.547939 0.214654 0.571538 0.017195 0.596380 0.039569 0.400885 0.339025 -0.020085 0.011755 0.053755 -0.107681 0.247313 0.112911 -0.541796 -0.179457 0.012792 -0.228068 0.216712 0.158286 
this 0.145346 -0.230990 0.143562 0.069020 -0.241593 0.453660 -0.196970 0.043964 0.074044 0.066696 0.099619 -0.300424 -0.505069 0.148862 0.031934 0.007398 0.450726 0.469486 0.142776 -0.004337 0.318252 -0.262646 -0.454430 0.178602 0.006392 0.020681 -0.228527 0.513510 0.308944 -0.302431 -0.045606 0.378639 0.321724 -0.190604 -0.347212 -0.146508 -0.120362 0.038052 0.061041 -0.262664 0.025688 -0.507394 0.069112 0.119228 -0.538767 0.101682 0.036003 0.479856 -0.068874 -0.149816 0.289470 -0.213259 -0.213313 0.192366 -0.230936 -0.155039 0.784663 0.108526 -0.087751 0.218982 -0.007492 -0.123203 0.044426 0.107412 
In 0.380991 -0.451644 -0.116158 -0.239673 -0.270924 0.754665 -0.183721 0.396138 -0.028679 0.181074 0.359250 -0.321386 0.062005 0.201518 0.209382 0.120647 0.301160 0.371189 -0.043676 -0.145567 0.556759 -0.285944 -0.337664 -0.219358 -0.282158 0.072757 0.059052 0.202330 0.245543 -0.210058 -0.262570 0.343193 -0.254253 0.053414 -0.167252 0.246954 -0.134996 0.136998 0.003027 -0.255775 0.259129 -0.889196 -0.310633 0.407825 -0.741271 0.301820 -0.125222 0.194279 -0.118016 0.057425 0.121054 -0.268893 -0.173369 -0.276870 -0.364956 0.205730 0.693288 0.354875 0.183126 0.194074 -0.118422 -0.209124 0.197653 -0.276505 
ical -0.083257 0.249723 -0.000896 0.080676 0.142035 0.098657 0.303584 0.071577 0.340911 -0.136768 -0.518414 0.310989 0.300346 -0.121602 -0.213126 -0.239702 0.469132 0.430471 0.446268 0.195618 0.458437 -0.097139 0.342945 0.021098 -0.289152 -0.046737 0.218836 0.230537 0.279501 -0.066261 0.296726 0.412250 -0.106963 -0.107717 -0.709378 0.193700 0.323659 0.082150 0.228928 0.441666 0.068354 -0.542873 0.234167 0.379102 -0.305472 0.270997 0.238240 0.142374 0.259247 -0.146426 0.327489 0.276014 -0.118990 -0.218240 0.112086 0.119943 0.431258 -0.102054 -0.479459 0.043026 0.275540 -0.377216 -0.277556 0.055863 
