2679 128
</s> 0.003127 0.003453 -0.002992 -0.002561 0.001068 0.002360 0.000735 0.000165 -0.002815 0.001733 -0.003403 0.000976 -0.000587 -0.000748 -0.002590 -0.001470 0.002015 0.002364 0.002320 0.001248 0.001207 -0.002971 -0.003200 0.003883 0.002970 0.002414 -0.000472 0.003137 -0.000387 0.000574 -0.000117 -0.002331 0.001025 -0.001045 -0.002989 0.003714 0.003421 -0.000856 -0.000177 0.000398 -0.002842 -0.003131 0.003558 0.000049 -0.002017 -0.002377 -0.002403 0.001326 0.000157 0.001040 -0.003292 -0.002975 -0.000102 0.000893 0.001992 -0.002477 0.003187 0.000724 0.000875 -0.000475 0.002333 -0.001787 -0.001639 0.001686 -0.000588 0.000805 0.001410 -0.003194 -0.001549 0.002276 0.003306 0.003072 -0.002380 -0.001647 -0.000710 0.001564 -0.002960 0.002342 0.002178 -0.001249 -0.001212 -0.001749 0.003304 0.003056 -0.000922 0.003293 0.003766 0.001418 0.003893 -0.002431 -0.001197 -0.001646 -0.002271 0.002199 0.001234 0.000332 -0.001714 0.001191 0.002390 0.000151 0.001781 -0.003869 0.003371 0.000375 -0.001431 -0.001628 -0.000584 -0.002293 -0.003414 -0.002216 0.003341 -0.001383 -0.002093 0.001810 -0.001331 0.003716 -0.001254 -0.003585 0.002122 -0.000058 -0.002726 0.000762 0.001127 -0.000376 0.001425 -0.003092 0.000688 0.001419 
of -0.001701 -0.047436 -0.241169 0.175768 0.101667 -0.158497 0.097899 0.073746 -0.119231 -0.019647 0.073597 0.158033 -0.219894 -0.071290 0.020588 0.109153 0.023935 -0.151139 0.286116 0.104122 0.035974 -0.206041 0.056638 -0.028250 -0.112689 0.053343 -0.301263 0.136462 0.023960 0.143349 -0.083340 0.048647 0.080585 0.454408 -0.085846 -0.284536 -0.076297 -0.283136 0.044683 0.124355 0.107736 -0.204303 -0.023227 -0.016465 -0.221363 0.202397 0.110438 0.060409 0.221552 -0.204624 0.114485 -0.162099 0.041455 0.100354 0.062237 0.271241 0.170452 0.114597 0.157418 0.036958 -0.128185 -0.006880 -0.023849 -0.044541 0.101134 0.177218 0.033321 -0.213420 -0.073668 0.019581 -0.193439 0.131151 -0.074169 0.262785 -0.023967 0.125859 0.106679 0.113356 0.026049 -0.156926 0.018919 0.179354 -0.045027 0.068929 -0.117620 -0.034732 -0.031854 0.189753 -0.075390 0.077289 0.154930 -0.049217 -0.260707 0.321903 0.151345 0.031971 0.047687 -0.137499 0.079419 0.012381 0.180058 -0.073885 0.166726 0.007862 -0.206446 -0.095846 0.135625 0.199100 -0.305539 -0.226474 -0.231304 0.012620 -0.000757 0.159648 -0.126802 0.045516 -0.129834 0.034214 -0.023994 0.004904 -0.127462 0.061885 0.158536 0.005486 0.060470 0.055463 -0.158613 0.142903 
the -0.010505 -0.056538 -0.061508 0.217088 0.057402 -0.096590 0.123036 0.032301 -0.006143 0.017267 0.018056 0.057650 -0.211622 0.033281 0.139794 0.065763 0.106814 -0.115016 0.188189 0.065911 0.007602 -0.225325 0.133374 0.071193 -0.052597 -0.029924 -0.235660 0.264347 0.050201 -0.022835 -0.040866 0.003196 0.212408 0.378860 0.060436 -0.079403 -0.090572 -0.261000 0.061109 0.226043 0.064831 -0.168458 -0.103361 -0.011604 -0.066735 0.083187 -0.022284 0.003353 0.275186 -0.152325 0.110970 -0.234792 -0.004392 0.057209 -0.056916 0.187595 0.075748 -0.030214 0.190266 -0.007791 -0.203070 0.057252 -0.107672 0.014935 -0.173983 0.182589 0.015507 -0.246236 -0.048427 0.018311 -0.088649 0.058053 -0.083061 0.079664 -0.103853 -0.035472 0.189015 0.003439 -0.059319 -0.084421 -0.051995 0.137965 -0.034959 0.015790 -0.128561 -0.015471 -0.051484 0.164060 0.089422 0.148475 0.128546 -0.170799 -0.339240 0.312548 0.181236 -0.168379 -0.166905 -0.024300 0.071303 -0.007084 0.185512 -0.002531 0.110552 0.063069 -0.086752 -0.121326 0.140265 0.208070 -0.356753 -0.258523 -0.147765 0.056441 -0.063686 0.131665 -0.078441 0.054735 -0.006815 -0.090242 -0.100556 -0.012327 0.010823 0.050470 0.085851 0.160473 0.065739 0.073586 -0.094460 0.141923 
and 0.086669 -0.097240 -0.060967 0.164504 0.132373 -0.021228 -0.020326 -0.005097 -0.016821 -0.191423 0.079512 0.267798 -0.302652 -0.157057 0.075362 0.173228 0.044463 -0.226692 0.066295 0.138268 -0.032898 -0.095949 0.049519 0.049183 0.023574 0.053790 -0.367242 -0.010418 0.190448 0.071291 0.137374 0.105534 0.139507 0.490496 -0.058420 -0.115905 -0.082655 -0.201905 0.223002 0.204172 0.213210 -0.129123 -0.086531 -0.115956 -0.136922 0.109146 0.115209 -0.005590 0.183250 -0.060552 0.119522 -0.099399 -0.042657 0.153918 0.136208 0.234929 0.138634 -0.039734 0.084783 0.187015 -0.077702 0.050588 -0.071897 0.039119 -0.118512 0.119670 0.186156 -0.027718 -0.100684 0.020348 -0.252941 -0.026420 -0.011847 0.210232 0.012104 0.040415 0.168697 0.210075 -0.072754 -0.076354 0.137423 -0.005116 -0.038129 0.086607 -0.101071 -0.061586 -0.093837 0.274126 -0.104511 0.118349 0.102628 0.079346 -0.229328 0.238284 -0.079304 -0.056361 -0.037356 -0.085703 -0.009752 0.134095 0.123246 -0.018688 0.194290 0.051488 -0.189475 -0.087077 0.151492 0.121260 -0.266739 -0.228657 -0.076169 -0.034583 0.151603 0.224374 0.048409 0.161001 -0.139555 0.032469 0.023742 0.077768 -0.067068 0.025494 0.071906 0.030818 0.080004 0.005310 -0.035353 0.178673 
in 0.011111 -0.073015 0.012952 0.226588 0.053154 -0.076716 -0.084766 0.142971 0.016582 -0.060677 0.102212 0.083333 -0.095873 0.058150 -0.022760 0.110144 -0.004118 -0.165699 0.115292 0.165897 0.009896 -0.144370 0.131747 0.040153 -0.122625 0.035767 -0.350588 0.023736 0.023043 0.097814 0.136555 0.177889 0.117906 0.389163 -0.207083 -0.064126 -0.120244 -0.330348 0.085865 0.021666 0.068486 -0.281217 -0.166446 0.003816 -0.296958 0.217635 0.003281 0.141148 0.206224 -0.167401 0.102982 -0.145224 0.071428 0.327511 0.141896 0.203881 0.180107 -0.056030 0.167025 0.223276 -0.056201 -0.092525 0.047656 0.214441 0.111635 0.009732 0.072800 -0.094911 -0.157493 -0.082131 -0.130456 -0.023693 0.046260 0.122098 -0.172888 0.086496 0.139641 0.102507 -0.041071 -0.035414 0.014593 0.182344 -0.121097 0.165153 -0.001971 -0.075311 -0.029206 0.303598 -0.157619 0.008349 -0.031634 -0.047107 -0.254854 0.328409 0.230050 -0.131183 0.197457 0.003458 -0.036473 0.104467 0.078173 -0.082431 0.294207 0.063573 -0.249274 -0.063698 -0.001838 0.060120 -0.330422 -0.214067 -0.021864 -0.213433 0.176165 0.198142 -0.063937 0.135741 -0.009341 -0.076934 -0.086588 0.158433 -0.150043 0.123083 0.210625 -0.014665 0.121838 0.152819 -0.125301 0.090720 
a 0.134604 -0.092081 0.144317 0.224760 0.056505 -0.154462 0.053527 -0.067512 0.196104 -0.015126 0.066228 0.137110 -0.075693 0.074879 0.230823 0.115745 -0.032901 0.066417 0.078631 0.200506 -0.144462 -0.231042 0.134966 0.083809 -0.015598 0.006938 -0.227565 0.294065 -0.040104 0.226173 -0.108034 -0.075363 0.053467 0.456433 -0.017689 -0.179091 -0.082689 -0.283642 -0.014139 0.152246 0.034275 -0.114213 -0.117413 -0.068743 -0.238596 -0.017950 -0.058612 0.006149 0.201162 -0.166057 -0.002873 -0.126148 0.002219 0.203022 -0.134493 0.090573 0.007551 -0.087046 0.253593 0.013862 -0.049478 0.125573 -0.196288 0.112680 -0.300506 0.107861 0.167457 -0.158420 -0.164126 -0.054293 -0.221685 0.067511 0.084725 0.187655 -0.050065 -0.148457 0.144458 0.084750 -0.168188 -0.113288 0.016408 0.204064 -0.083296 -0.107873 -0.073823 -0.318174 -0.031389 0.091602 -0.033236 0.175499 0.105730 -0.108622 -0.264223 0.240861 -0.136509 -0.338020 -0.026968 -0.174813 -0.004907 0.042228 -0.002367 -0.001745 0.245376 0.109207 -0.007713 -0.023179 0.143657 0.142885 -0.117490 -0.284405 0.066505 0.088790 0.098706 -0.073851 -0.245611 -0.006368 0.281368 -0.227660 -0.083899 -0.106333 0.039024 -0.056612 0.001749 0.137907 0.115135 0.180626 -0.045274 0.133419 
-@@ 0.337821 -0.078463 0.134375 0.215089 0.030956 -0.000384 0.120629 0.157668 -0.015966 -0.189913 0.226487 0.316578 -0.387906 -0.025150 0.150485 0.013411 -0.307545 0.013393 0.007989 0.210728 -0.116079 -0.050555 0.180495 0.397779 0.335523 0.041653 -0.187387 -0.123910 -0.003477 0.202643 0.052701 0.055150 -0.195997 0.513552 -0.135106 -0.054737 -0.106143 -0.213331 0.084722 -0.009425 0.117924 -0.028353 0.183453 -0.078582 -0.019386 0.120146 0.383074 0.137187 0.147864 -0.181476 0.095405 -0.049504 0.062883 -0.137740 0.027663 0.419552 0.047553 -0.366957 0.107852 0.075665 -0.016029 0.002665 -0.028931 0.082369 -0.251202 0.329916 0.148803 -0.031342 -0.212133 -0.104240 -0.451455 0.051575 -0.043952 0.331693 -0.021379 0.038918 0.031581 0.045865 -0.106133 -0.075685 -0.060114 0.095693 -0.035368 -0.010418 0.008549 -0.069877 -0.009697 0.284961 -0.044295 0.013865 -0.204962 0.134340 -0.205426 0.285841 -0.214366 -0.100127 0.092397 -0.294244 -0.050841 0.333942 0.140557 0.118893 0.076837 0.103306 -0.163490 0.116014 0.090539 0.175325 -0.291856 -0.169479 -0.026676 0.050710 -0.028915 -0.122464 -0.046802 0.035123 0.167515 -0.149345 0.057229 0.014653 -0.019947 0.057218 0.028619 0.416245 -0.011151 0.046929 -0.162715 0.202626 
to -0.012807 -0.146586 -0.172509 0.351422 -0.088886 -0.042856 0.025299 0.111485 0.181387 -0.165132 0.265508 0.003724 -0.165785 -0.020091 0.082342 -0.052285 0.113277 -0.028722 0.103216 0.280507 -0.145342 -0.203800 0.224596 -0.010552 -0.048161 0.089134 -0.060217 0.042283 0.215757 0.176045 -0.056618 -0.148369 0.112196 0.397557 -0.092396 0.119103 -0.104571 -0.166247 0.069775 0.135417 0.221547 0.143450 -0.209756 0.007523 -0.432704 -0.029964 -0.017107 0.210819 0.328583 -0.347904 0.265917 -0.298500 0.073911 0.178410 0.062867 0.207025 0.058035 0.114147 0.222399 0.637086 -0.010419 0.026215 0.096850 0.034322 -0.252920 0.239675 0.078567 -0.053267 -0.098329 0.143320 0.140124 0.170595 -0.103630 0.103562 -0.032871 -0.037606 0.284455 -0.090774 -0.127882 0.133829 -0.230235 0.246566 0.086830 0.176230 -0.253241 -0.023920 -0.104209 0.358950 -0.069632 0.021703 0.145340 -0.153577 -0.164325 0.219556 -0.053497 -0.069722 -0.079173 -0.156576 -0.055770 0.053398 0.389663 0.020858 0.118534 0.088706 -0.096293 -0.032970 0.203852 0.383087 -0.387803 -0.505942 0.055393 -0.054777 0.012027 0.149175 -0.115535 0.201675 -0.076306 0.144227 0.025617 -0.077065 -0.247705 0.042676 0.205551 -0.082939 -0.057572 0.015320 -0.001215 -0.093222 
s 0.172035 -0.189145 -0.057819 0.352892 -0.062937 -0.221850 -0.027962 0.124718 0.029552 -0.096127 0.052777 0.350735 -0.309608 -0.184523 0.522862 0.055382 -0.220826 0.038072 0.159734 0.178189 -0.115407 0.191565 0.155313 0.309203 -0.046801 -0.075759 -0.071235 -0.146437 0.233354 -0.048594 0.146444 0.025089 -0.156578 0.382214 -0.113485 0.068621 -0.064302 -0.295718 -0.194784 0.332615 -0.016829 0.019866 -0.174234 -0.004325 -0.149192 -0.034392 0.049551 0.025169 0.283367 -0.141033 0.106597 -0.115866 -0.103223 0.060029 0.158606 -0.095266 -0.002293 -0.186849 0.250316 0.173442 -0.190927 0.189117 0.083859 0.398757 -0.158201 -0.024206 0.380170 -0.184958 0.022337 0.042673 -0.345508 0.000339 0.123451 0.077184 -0.161500 0.110513 0.189929 0.310010 0.313663 0.167840 -0.095702 -0.006769 0.109294 -0.312482 0.005806 -0.080647 -0.136066 0.192790 -0.000808 0.043891 -0.078407 -0.243722 -0.270805 -0.009036 0.120276 -0.154330 -0.108444 -0.080208 0.016686 0.096563 0.079870 0.037993 0.132993 0.124188 0.086085 -0.080142 0.336836 0.186066 -0.397629 -0.149402 -0.180002 -0.048741 0.058306 -0.026698 0.063732 0.100561 0.100812 0.135121 0.028117 -0.123643 -0.159605 0.147376 -0.071376 0.267734 0.257489 0.187827 -0.004398 -0.097483 
. -0.135711 -0.318702 0.062511 0.240560 0.303846 -0.217230 0.201120 0.219970 -0.301903 -0.376702 -0.110743 0.034347 -0.305650 -0.044788 0.450165 -0.154020 -0.110782 0.145315 -0.001605 0.076278 -0.030910 -0.242313 0.148723 0.516116 0.130194 0.025109 -0.099570 0.090650 0.164211 -0.027516 0.256016 -0.245913 -0.083605 0.242166 -0.037980 -0.020392 0.057525 -0.486219 -0.042687 0.179254 -0.202632 -0.304756 -0.117663 0.129132 -0.136678 0.301675 -0.076931 0.095018 0.201409 -0.163819 0.021052 -0.411689 0.108583 0.012498 0.020132 0.222539 0.004519 -0.070918 0.098973 0.037304 -0.236560 0.093102 -0.331234 -0.222275 0.013712 0.333194 0.134315 -0.314835 0.065151 -0.192244 -0.291125 -0.001135 -0.063139 0.127639 -0.041262 0.051290 0.347325 0.212484 -0.061911 0.282967 0.000302 0.250775 -0.016225 -0.248241 0.016443 -0.046307 -0.111812 -0.034133 -0.134555 0.006317 0.049850 -0.093381 -0.060268 -0.000160 -0.019856 -0.374091 0.418380 -0.182154 0.001691 0.140122 0.252872 0.334216 0.320310 -0.123021 -0.223820 0.143187 0.416864 0.255389 -0.165266 -0.249763 -0.121252 -0.148952 0.047549 0.125508 -0.227742 0.280130 0.139860 -0.216835 0.127716 0.142444 0.044688 0.228508 0.049344 0.118431 -0.044811 0.085871 -0.530787 0.242405 
o@@ 0.110692 -0.002594 0.192360 0.353565 -0.148186 -0.069268 -0.001443 -0.090082 0.169263 0.190068 -0.039909 0.249414 -0.175262 -0.348053 0.016219 0.021572 -0.225104 -0.205471 0.057426 0.280932 -0.176788 0.014494 0.265006 0.398542 0.145088 0.184042 -0.451855 -0.338299 0.192934 0.201258 0.369972 -0.027826 -0.110506 0.269533 -0.109399 -0.075177 -0.100526 -0.155799 -0.053082 0.160676 0.095208 -0.176868 -0.177548 -0.101174 -0.128886 -0.115808 -0.270890 -0.122227 0.142293 0.170394 0.321361 0.066475 0.012048 -0.104868 -0.212191 0.237776 0.039162 -0.008330 0.003052 -0.118816 0.145142 0.031392 -0.417137 0.109470 -0.078160 0.219535 -0.073189 -0.221554 -0.161512 0.107746 -0.188939 0.068244 0.186039 0.358503 -0.074508 -0.038536 0.165591 0.246078 -0.304138 -0.233902 -0.166469 -0.005865 -0.171499 0.021286 0.161966 -0.204285 0.144428 0.338145 -0.044764 0.226402 0.157642 0.082222 -0.363816 0.023055 0.083507 -0.090303 -0.134898 -0.031473 0.179502 0.113344 0.065560 0.064471 0.109328 -0.238204 -0.134386 0.028008 0.108258 0.285767 -0.439935 -0.130693 -0.229578 -0.284572 0.150021 -0.163517 -0.019211 0.234907 -0.005086 -0.057524 0.097222 -0.013212 -0.110196 0.226356 0.180526 0.049734 -0.072849 0.386762 -0.003814 0.095301 
, 0.406762 -0.286245 0.024840 0.272290 0.108250 -0.199271 -0.001768 0.092470 -0.004383 -0.204143 0.094902 0.177718 -0.619190 -0.247407 0.457022 -0.044143 -0.082363 -0.034614 0.006928 0.244096 -0.316027 -0.251094 -0.038447 0.476559 0.309846 -0.125801 -0.218335 -0.061122 0.133005 -0.089324 0.087705 0.006482 -0.079394 0.462712 0.177865 0.049538 -0.107544 -0.477308 0.071676 0.205624 0.050814 -0.167423 0.047733 0.158086 0.086049 0.227116 0.067030 0.189657 0.070856 -0.034706 0.093734 -0.164356 0.238082 0.178866 -0.005901 0.045205 0.003141 -0.203572 0.256556 0.273856 -0.032843 0.026451 -0.219002 0.049110 -0.303313 0.223534 0.115035 0.060869 0.036556 0.181059 -0.245896 0.003152 -0.034750 0.068948 -0.122923 0.086792 0.377776 0.245861 -0.010450 0.067817 0.233386 -0.144657 -0.012358 -0.009543 0.112501 -0.043777 0.018268 0.057548 -0.335890 -0.015428 -0.221013 0.002019 -0.188471 -0.061749 -0.145998 -0.258091 -0.036772 -0.073399 -0.061674 0.093188 0.068279 0.279702 0.320975 0.000042 -0.194029 -0.020633 0.189452 0.165498 -0.278429 -0.353075 -0.148297 0.108777 0.081666 0.130315 0.030602 0.277015 -0.050122 -0.199015 -0.007340 0.194201 -0.052305 0.023367 -0.071193 0.115888 0.071136 -0.059692 -0.153840 0.177009 
with 0.138047 -0.173809 -0.063900 0.215378 -0.058722 -0.045084 0.190939 0.293285 0.109342 -0.093678 0.161561 0.052684 -0.149362 0.037462 -0.044442 0.335094 0.123609 -0.295491 0.180963 0.149510 -0.079733 -0.069668 0.194102 0.130416 -0.061137 0.059195 -0.356107 -0.044700 0.128752 0.148068 0.334471 0.010869 0.091150 0.349540 -0.351611 -0.263161 -0.032561 -0.171746 0.012710 -0.123800 0.011893 -0.109429 -0.244372 0.034068 -0.380363 0.000494 0.230950 0.201724 0.133639 -0.274126 0.225446 -0.078124 0.044224 0.294397 0.167055 0.302489 0.292675 -0.181298 0.273152 0.204559 0.160302 0.095371 -0.006729 0.132232 0.062904 0.224401 0.370342 -0.094726 0.060967 0.066392 -0.335407 0.030045 -0.084643 0.161723 -0.101302 -0.074896 -0.025002 0.190287 -0.007096 -0.188110 -0.156070 0.319387 0.071780 0.202144 0.062780 0.016245 -0.041601 0.149303 -0.190674 -0.027299 0.007813 0.143781 -0.199993 0.071683 -0.096544 -0.133294 0.243735 -0.282883 0.012031 0.158225 -0.018320 -0.058293 0.212214 0.084907 -0.240716 0.083408 0.116046 0.161211 -0.175846 -0.265830 0.053074 -0.089276 0.162430 0.359762 0.011718 0.058507 -0.005836 -0.039345 -0.015974 0.145771 -0.100080 0.062617 0.207334 0.029775 0.153400 0.058241 0.122710 -0.056468 
ing 0.009258 -0.269206 0.089757 0.103982 0.190089 -0.090964 0.088541 0.063004 -0.059614 0.023619 0.192099 -0.009336 -0.354896 -0.223830 0.233350 -0.151477 -0.037267 -0.106881 0.219421 0.134943 -0.057233 -0.140161 -0.250222 -0.005077 -0.016565 0.185470 -0.173494 -0.059671 0.073137 0.039647 0.174229 0.241952 0.068398 0.314778 -0.265295 -0.149625 -0.010244 -0.222938 -0.259837 0.217170 0.210557 0.006338 0.020191 0.194271 0.001622 0.003639 0.154954 0.025305 0.540088 -0.213045 -0.015989 -0.017223 0.073991 0.077384 0.053052 0.309314 0.188352 0.105533 0.336622 0.113641 0.049958 0.022720 0.174342 -0.066634 -0.420848 -0.071784 0.271829 -0.220458 -0.214426 0.067416 -0.332834 -0.041193 0.074975 0.258975 -0.103672 0.109671 0.194533 0.047203 0.023915 0.130080 0.205125 -0.178146 -0.076653 -0.230604 -0.037334 0.080299 0.010237 0.336847 -0.143348 0.509953 -0.041656 -0.234800 -0.326737 0.064348 0.154638 -0.157692 0.189292 -0.135814 0.190789 0.124062 0.272550 -0.188248 0.027999 0.056658 -0.117626 -0.008487 -0.098352 0.045949 -0.221451 -0.094499 -0.282672 0.051972 -0.028426 -0.010702 -0.081716 0.148688 0.150811 -0.085906 -0.092628 0.002873 0.078224 -0.075582 -0.082673 0.151042 0.223043 -0.008971 0.057323 0.085893 
i@@ -0.073963 -0.116647 0.055738 0.427588 0.005149 -0.087603 0.088084 -0.115550 -0.034023 0.168600 -0.033704 0.128462 -0.078918 -0.124980 0.058545 0.035922 0.139872 0.027534 0.070030 0.140148 -0.253584 -0.086927 0.359082 0.170353 0.495029 0.173208 -0.089843 -0.058494 0.171380 0.307140 -0.186953 -0.156410 0.174460 0.555460 -0.072630 0.040278 0.149328 -0.306345 0.344210 0.210541 -0.107781 -0.251777 -0.102384 -0.102329 -0.356981 -0.014784 0.204177 0.006305 -0.014659 0.030028 -0.123571 -0.189212 0.252162 0.153004 -0.278713 0.515693 0.178277 0.035868 0.114432 0.127256 0.037505 -0.019872 -0.025549 0.139991 0.029565 -0.105298 -0.138194 0.004120 -0.014177 0.160109 -0.199846 -0.153455 0.032520 0.354486 0.072386 -0.085239 -0.065574 0.414100 0.026090 0.280736 0.116651 0.017274 -0.187894 0.126763 -0.111271 0.201776 0.107060 0.271241 -0.013956 0.143919 0.068902 -0.267689 -0.164394 -0.038834 -0.130657 -0.035320 0.100378 0.027189 -0.007039 0.196728 0.049245 -0.247153 -0.105092 0.029266 -0.230457 0.167904 -0.133145 0.443242 -0.315199 -0.073101 -0.247757 -0.133271 0.387716 0.012332 0.135688 0.291997 -0.041656 -0.051071 -0.254288 -0.302104 0.118389 -0.045152 -0.214404 0.260040 0.034313 0.007294 -0.032452 0.213469 
e 0.083679 -0.210292 0.009526 0.219812 0.070904 -0.162107 -0.076972 -0.115938 0.045046 0.118752 0.295007 0.314774 -0.295123 -0.200758 0.345846 0.014553 0.223313 0.372172 0.286852 0.223291 0.292018 -0.330950 -0.002479 0.192607 0.041629 0.007321 -0.319763 0.022615 0.214844 0.102477 -0.094427 -0.233642 0.122210 0.279100 -0.176293 -0.153865 -0.223361 -0.169566 0.106049 0.203708 0.017034 -0.241597 0.038369 -0.040848 0.081637 -0.128381 0.159662 -0.071517 0.066222 -0.266960 -0.016700 -0.125177 0.168864 0.089266 0.151877 0.246715 -0.063425 0.100455 -0.128822 -0.089912 0.119295 -0.103094 -0.153092 0.183140 -0.047383 -0.007843 0.203374 0.029236 -0.156116 0.088653 -0.180437 -0.115378 -0.198133 0.264570 -0.052882 0.247382 0.182008 0.246054 -0.176108 -0.003267 -0.127334 0.105786 0.077531 -0.207751 -0.099294 0.016135 0.024910 0.448195 -0.157741 0.184146 -0.008667 -0.040309 -0.224624 0.179080 0.097785 -0.087343 0.179815 -0.052279 -0.216394 0.199529 0.276739 -0.105231 0.287000 -0.120614 0.052051 -0.178271 -0.190357 0.217978 -0.230801 -0.478294 0.130766 -0.006355 -0.009057 0.216273 -0.157765 -0.051694 0.054555 -0.087290 -0.079386 -0.122136 0.087432 -0.593406 0.260938 0.361515 0.067747 0.166620 -0.051947 0.045350 
es 0.185985 -0.341272 -0.128371 0.384963 -0.085122 -0.010171 -0.246803 -0.075583 0.249991 0.019951 0.010903 0.235335 -0.119637 0.245386 0.260126 -0.080143 -0.213660 0.026496 0.042204 0.023480 0.021977 -0.168724 -0.001684 0.280364 -0.075171 0.389295 -0.323891 0.223594 0.260845 0.041146 -0.134187 -0.038591 0.102950 0.248015 -0.192913 -0.073660 -0.068107 -0.198175 0.188421 0.254188 0.123252 -0.105067 -0.008487 -0.246960 -0.283878 0.072988 0.230191 0.215324 0.243839 -0.073965 -0.053595 -0.109068 -0.044691 0.024631 -0.033143 0.196467 0.182860 -0.152801 0.068226 -0.065837 -0.002488 0.168035 -0.059965 0.282259 -0.092013 -0.253345 0.703520 -0.074694 0.012353 0.010003 -0.100942 0.182014 -0.190168 0.326109 0.055850 -0.016869 0.320559 0.014928 -0.090578 0.360288 -0.049174 -0.028309 0.107275 -0.180122 -0.176905 0.163874 0.072304 0.294794 -0.180631 0.458606 0.046596 -0.177121 -0.222837 0.071387 0.062434 -0.047572 -0.073597 0.044111 -0.068154 0.136693 0.087474 -0.065687 0.202656 0.104142 -0.050764 -0.065123 -0.261948 0.287863 -0.124757 -0.256155 -0.256842 0.095067 0.123156 0.267831 -0.084197 -0.301676 -0.236600 0.083333 -0.329738 -0.064235 0.112616 -0.198790 0.021705 0.154756 0.147929 0.057537 -0.066655 0.185020 
b@@ -0.158041 0.244304 -0.029594 0.185001 -0.058081 -0.104094 0.160041 -0.045392 0.106051 0.061074 -0.006803 0.097173 -0.276134 -0.095238 0.069173 0.290456 -0.115018 0.049995 0.283506 0.177078 0.028174 -0.044520 0.184207 0.158327 0.010171 -0.142684 -0.265274 0.026633 -0.092368 0.117270 0.255731 0.057907 0.195961 0.403864 0.091927 -0.171276 0.131406 -0.098698 0.151550 0.223603 0.015378 0.065020 0.278794 -0.130413 -0.233275 0.102185 0.049431 0.107246 0.002864 0.064211 0.047531 -0.067978 0.228342 0.136254 -0.422725 0.342570 -0.062157 0.061454 0.011384 0.301186 -0.035457 0.112597 0.111493 0.203698 -0.301587 -0.031918 0.446206 -0.148899 -0.139056 -0.167761 -0.292700 -0.127433 -0.037252 0.490845 0.205058 -0.174398 -0.059311 -0.174694 -0.135693 0.165696 0.146588 0.039480 -0.080971 -0.125922 -0.203858 0.067234 0.063546 0.217915 0.002826 0.022586 -0.127275 0.110332 -0.447130 -0.080240 0.231302 -0.345744 0.060670 -0.249824 -0.230021 0.451948 0.129705 0.129928 0.198396 0.184286 -0.107841 -0.283663 0.157944 0.250747 -0.165456 -0.095361 -0.307252 -0.085902 -0.088911 0.182357 -0.150747 0.320946 -0.039357 -0.045721 -0.252248 -0.014137 -0.051800 -0.024266 -0.073835 0.003774 -0.056064 -0.011133 -0.078648 0.295129 
al 0.137543 -0.060130 -0.096677 0.481773 0.202819 -0.155535 -0.082933 0.026840 -0.121459 0.073527 0.039673 0.268526 -0.236138 -0.389506 0.263743 0.159363 0.083910 -0.304576 -0.182563 -0.150388 -0.224142 -0.094113 0.143573 0.443559 -0.276075 -0.027336 -0.203768 0.067375 0.054910 0.318537 0.091310 0.022780 0.010194 0.363174 -0.041888 -0.072665 -0.365381 0.072698 -0.095041 -0.164131 0.015174 0.026671 -0.216726 0.183484 -0.114867 0.010599 0.136141 0.170860 0.244082 -0.181160 0.102374 -0.225566 -0.003171 -0.073820 0.141702 0.187296 0.277422 -0.243561 -0.174298 0.030434 0.031376 -0.105843 0.147466 0.361681 -0.389608 0.183157 0.088131 -0.196303 -0.064197 -0.171576 -0.265524 -0.177655 -0.018123 0.114957 0.219192 0.196209 0.180051 0.073746 -0.150728 -0.004886 0.072264 -0.020516 -0.262172 -0.103719 -0.056408 0.033563 -0.200194 0.208532 -0.031402 0.123799 0.059538 -0.179365 -0.367808 0.299595 0.163292 -0.033693 -0.163045 -0.205421 -0.061142 0.162687 -0.052670 -0.067393 0.218154 0.072540 -0.439235 -0.285208 -0.067577 -0.115986 -0.232257 -0.341345 -0.317474 -0.203075 0.245351 0.085098 -0.275816 -0.170554 0.018470 -0.046504 0.083021 -0.089084 0.524235 -0.057485 -0.004161 0.180082 -0.431496 -0.015824 0.054679 -0.044988 
S@@ -0.055274 -0.172724 -0.009642 0.256536 0.087213 -0.000585 0.009661 0.152976 0.006497 0.095460 0.137579 0.127563 -0.477338 -0.026984 0.169914 -0.023683 -0.001142 -0.068629 -0.090466 0.103249 0.174473 -0.194053 0.385457 0.272274 0.197000 0.091311 -0.222188 -0.067629 -0.052688 0.133306 0.360417 0.049758 0.233770 0.663386 -0.081650 -0.084032 -0.181442 -0.361627 -0.092199 0.090633 -0.092284 -0.233013 -0.087513 -0.114414 -0.017573 0.047096 0.178048 -0.156057 0.207359 0.163234 -0.042648 -0.142198 0.196059 0.020926 -0.134383 0.433886 -0.052489 -0.196232 0.014075 0.151132 -0.179701 0.121811 -0.157615 0.304999 -0.149285 0.127223 0.105048 -0.022686 -0.327970 -0.125527 -0.117855 0.134725 0.113267 0.092950 0.042315 0.181059 0.153693 0.363854 -0.055655 -0.071715 0.049197 0.263153 -0.200979 -0.092936 -0.051059 -0.049516 -0.129029 -0.109721 0.179537 -0.176925 0.072890 -0.204822 -0.219912 0.143710 -0.029236 0.099560 0.117520 -0.168898 -0.237169 0.033056 0.139625 0.042098 0.050768 0.168717 -0.026403 -0.208814 0.007936 0.433364 0.008379 -0.008392 -0.145084 0.028776 0.175916 0.178396 -0.114347 0.167933 0.049576 0.057258 -0.093210 0.146823 0.184013 -0.053852 0.298629 0.280937 0.322976 -0.030944 -0.046509 0.241629 
(@@ -0.247144 -0.085934 0.010933 0.153062 -0.177827 -0.256008 0.019182 0.216542 -0.157293 -0.314196 0.066360 0.349146 -0.422685 0.188530 0.188423 0.321132 -0.135279 -0.010296 -0.108790 0.125370 -0.249374 -0.339705 0.256165 0.044242 0.219568 0.140986 -0.319948 -0.131725 -0.094737 0.367957 0.183634 0.237207 -0.053948 0.617407 -0.041140 -0.295724 0.122948 -0.357662 0.256565 0.112171 0.228672 -0.279923 0.059412 -0.107681 -0.069699 0.041365 -0.127339 -0.058357 0.097877 -0.065503 0.173500 -0.068746 -0.168797 -0.065583 -0.008540 0.263705 -0.010075 -0.064515 0.086344 0.244287 -0.285968 0.317822 -0.235092 0.151783 -0.343826 0.217673 0.035882 0.152565 -0.203364 0.018428 -0.312264 0.022432 0.017023 0.390880 0.072066 -0.242085 -0.128361 0.311341 0.024568 -0.155047 -0.042135 -0.191642 0.013367 -0.006945 0.044293 -0.068192 -0.249856 0.174775 -0.218989 0.329041 -0.003366 0.220341 -0.274009 0.343435 -0.271825 -0.084088 -0.065195 -0.066025 -0.210168 0.233990 0.227466 -0.141028 0.263582 0.227908 -0.106659 -0.112362 0.273893 0.251820 -0.324390 -0.285413 -0.014311 0.112791 0.397933 0.274292 -0.308463 0.261572 -0.248305 -0.114011 0.094195 -0.030620 0.145340 0.102995 0.100996 0.321829 -0.036617 0.042978 -0.150650 -0.063455 
s@@ 0.109662 -0.410360 0.215932 0.488949 0.045496 -0.213956 0.057088 0.047796 0.138752 -0.008013 0.002942 0.184538 -0.412092 -0.299464 0.291245 0.097261 0.213855 0.116673 0.082889 0.161881 0.042313 0.130170 0.007783 -0.066858 0.012349 0.109022 -0.189109 -0.211628 -0.198234 0.111994 0.100063 -0.137467 0.563768 0.333364 0.013965 -0.413125 0.079531 -0.259575 0.154296 0.004490 -0.162452 -0.016977 -0.036257 -0.350083 0.139839 0.041921 -0.069158 -0.121030 0.207247 -0.017349 0.025278 -0.154345 0.154489 -0.109490 -0.186246 0.131466 0.270180 0.073987 -0.059247 0.329966 -0.253021 0.124748 -0.159892 0.217412 -0.126558 0.175712 0.242769 -0.040842 -0.368140 -0.012341 -0.350800 -0.005719 0.085563 0.080813 0.180629 0.180356 0.136074 0.193609 0.023476 0.140152 -0.061782 0.190669 -0.226835 -0.187562 -0.258285 0.111642 -0.112820 0.177398 0.132448 -0.156991 0.030357 -0.002448 -0.091295 0.104544 -0.041165 -0.141807 0.033769 -0.198467 0.108131 0.009290 0.204701 -0.143117 0.275324 0.062780 -0.419904 -0.215368 0.008553 0.104338 -0.354294 -0.027922 0.028717 -0.059138 0.212114 0.005913 -0.116965 0.117988 0.189907 0.008939 0.154950 0.024790 0.071384 -0.064918 -0.096365 0.301411 0.221070 -0.065074 0.060228 0.034821 
p@@ -0.162121 0.119039 -0.105636 0.228044 0.218247 -0.176981 -0.185832 0.360234 0.106105 -0.446388 -0.115673 0.207224 -0.333152 -0.002919 0.213183 -0.053871 -0.158322 -0.037281 0.545147 0.165809 0.134429 0.011833 0.413740 0.327408 0.097545 0.027635 -0.213518 -0.008794 0.068281 0.180226 -0.083357 -0.099491 0.208854 0.238543 -0.156391 -0.297599 0.017652 -0.023095 0.227629 0.466985 -0.091670 -0.176370 -0.057170 0.101067 0.111325 -0.023442 0.356525 -0.073189 0.309802 -0.046485 -0.133997 -0.230186 0.067996 0.096128 -0.222458 0.004643 0.172670 0.056442 -0.109310 0.223137 0.198267 0.005131 -0.096746 -0.070881 -0.231949 -0.098989 0.113830 0.142709 -0.302817 0.049949 -0.279353 0.088041 0.028589 0.465034 -0.023051 0.212856 0.345912 0.020485 0.031361 -0.287069 0.039738 0.056170 -0.322787 -0.060075 0.074140 0.145970 0.030805 0.187264 0.012214 -0.080342 0.076678 -0.301885 -0.382568 0.221033 -0.186587 -0.289638 -0.045414 -0.021710 -0.306590 0.408063 0.194117 0.236995 -0.029997 0.145766 -0.014353 -0.055497 0.160205 -0.002836 0.004164 -0.484600 -0.111829 -0.303341 0.016114 0.089874 0.130571 0.037796 -0.083641 -0.133588 -0.227505 0.117793 0.223797 0.249681 0.069116 -0.209441 -0.024224 0.243243 0.110117 0.029946 
t@@ 0.009441 -0.173481 -0.061039 0.401807 0.027537 0.036415 0.094918 0.247897 0.029085 0.157153 -0.041800 0.301930 -0.421602 -0.044335 0.119475 -0.053365 0.007847 -0.181035 0.350933 0.005302 0.129012 0.082183 0.274042 0.139326 0.267036 0.066622 -0.141571 -0.103150 0.072321 0.264429 0.132010 -0.028106 0.090227 0.267133 -0.082282 -0.213178 -0.009039 -0.191952 0.268593 -0.257764 0.002304 -0.407655 -0.255378 0.134192 -0.270412 -0.107530 0.077722 -0.040633 0.182218 -0.029640 -0.077611 -0.039377 0.257146 0.236804 0.226173 0.065705 -0.110702 0.154060 -0.180083 0.053963 0.085203 -0.240085 -0.003144 0.194617 -0.443666 -0.023240 0.372363 -0.135698 -0.165128 0.172340 -0.411541 0.201334 0.193216 0.202988 0.082024 -0.225843 0.439360 0.216843 0.218065 0.008318 -0.073249 0.086399 -0.264809 -0.043282 -0.313252 -0.129261 -0.256680 0.099693 0.118986 0.067725 0.327705 0.050868 -0.128733 0.034366 -0.270863 0.000444 0.007889 0.004764 -0.428859 0.485257 -0.053748 0.053207 0.070514 0.027934 -0.326127 -0.093757 0.076337 0.304025 -0.263746 -0.093946 -0.152362 0.117927 -0.354079 0.117757 -0.055020 0.074893 0.172903 0.203815 -0.114797 -0.236623 -0.111842 0.174144 0.029694 0.190139 -0.193568 -0.260397 -0.162742 0.059763 
ed 0.060808 -0.220726 -0.241241 -0.053746 0.211184 -0.226913 -0.030121 0.320071 0.141020 0.196581 0.124258 -0.125968 -0.241600 -0.174537 0.198065 -0.079544 -0.201437 0.254892 0.246306 0.083295 -0.052501 -0.168095 -0.061545 0.224577 0.074123 0.268820 -0.057144 -0.203469 0.195711 -0.035142 0.000100 0.109245 -0.074103 0.437192 -0.325388 -0.105074 0.129540 -0.468476 -0.234794 0.096691 0.284974 -0.121450 -0.200176 0.133358 -0.043004 -0.246681 0.245519 0.031998 0.377505 -0.177415 -0.107608 -0.222920 0.094374 -0.072629 -0.115428 0.265022 0.155610 -0.203577 0.471977 0.017686 -0.031301 0.137665 0.062441 0.147635 -0.508939 -0.098578 0.072074 0.081791 -0.136601 -0.245962 -0.300271 0.132083 -0.001521 0.322722 -0.174449 0.251562 0.252495 0.231736 -0.105862 0.006084 -0.104223 -0.176991 0.289502 0.048105 -0.032063 -0.104755 0.000048 -0.015123 0.034900 0.469249 0.040766 -0.185877 0.055660 0.431714 -0.186597 -0.183128 0.174360 -0.118287 0.195269 0.328810 0.332872 0.025115 0.292311 -0.075339 -0.060354 -0.198604 0.064082 -0.028939 -0.327073 -0.265183 -0.048096 0.051561 -0.121314 -0.109110 0.136169 0.087356 -0.149796 -0.056163 -0.111610 -0.006725 0.070951 -0.045631 0.008501 0.192433 -0.268565 -0.257796 0.044801 -0.052975 
g@@ -0.080846 -0.291825 -0.119387 0.293759 0.313178 -0.202903 0.155947 0.282833 0.266925 -0.048004 0.207847 0.034567 -0.341846 -0.148918 0.059614 -0.127025 -0.076550 -0.091301 -0.203698 0.180737 0.033652 -0.322836 0.204868 0.061441 0.087821 -0.275221 -0.251339 -0.227904 0.121268 0.191358 0.186092 0.243047 0.033328 0.129534 -0.115445 -0.111197 0.227373 -0.205221 0.141027 0.073675 0.157144 -0.134458 -0.094617 -0.292118 -0.375568 0.125971 0.420174 0.187143 0.417847 0.129889 0.021225 -0.175893 0.093583 0.069454 -0.192652 -0.182779 -0.011031 0.097342 0.032387 0.039972 -0.114858 0.223259 -0.165106 0.327008 -0.122903 0.094661 0.315757 -0.135527 -0.196156 0.013334 -0.229382 0.159025 -0.085293 0.340500 0.033940 -0.008599 -0.032061 -0.105890 -0.131897 -0.234173 0.285200 -0.050777 -0.201662 -0.160104 -0.323236 0.142322 0.062338 0.153772 -0.137820 -0.103232 -0.033807 -0.000264 -0.130806 -0.035610 -0.014236 -0.007338 -0.265016 0.088603 0.024300 0.030521 0.100801 -0.134202 0.216987 0.161863 -0.103453 -0.079935 0.035545 0.395702 -0.274803 -0.226468 -0.002956 -0.106501 0.180830 0.041580 0.012130 0.223479 0.140797 -0.138669 -0.098378 0.109511 -0.048971 -0.002372 -0.020455 0.185901 -0.328896 -0.065851 -0.128303 0.352540 
for 0.031016 -0.078051 -0.173813 0.212899 -0.145814 -0.043326 -0.237272 0.026062 0.152822 0.034482 0.081573 -0.015805 -0.150400 -0.014212 0.132167 0.067595 0.043262 -0.254490 0.175386 0.312832 -0.089533 -0.141965 0.058954 -0.059734 -0.107864 0.034102 -0.325979 -0.123347 -0.009040 0.259183 -0.123111 0.142720 0.097716 0.421667 -0.079632 -0.095266 -0.154137 -0.053489 0.094279 0.096284 0.189361 -0.171449 -0.080380 0.083050 -0.243324 0.104200 0.024338 -0.066934 0.460482 -0.275783 0.305740 -0.099721 0.097282 0.212318 0.013542 0.426464 0.153623 0.101296 0.250651 0.291970 0.006932 0.012216 -0.015161 -0.074400 -0.192289 0.061239 0.061500 0.009493 -0.065092 0.128635 -0.360065 0.065132 -0.082082 0.353920 0.165292 0.082017 0.021778 0.097145 0.083856 0.109432 0.085253 0.125522 -0.029575 0.005234 -0.082067 -0.145444 -0.166913 0.234891 -0.209893 -0.032252 0.234273 0.073525 -0.122309 0.178190 -0.057657 -0.149353 0.181127 -0.311457 0.003643 0.007162 0.040673 -0.053945 0.247754 -0.032061 -0.195876 0.087764 0.041151 0.114750 -0.326406 -0.365091 -0.055578 -0.086629 0.234268 0.285578 -0.066604 0.111740 0.051646 0.191307 0.013176 0.018937 -0.139713 -0.034753 0.180714 -0.001207 0.113000 0.229866 -0.164467 0.274697 
C@@ 0.006564 -0.030310 -0.069901 0.273922 0.047270 -0.107607 0.134313 0.069347 -0.132539 0.023244 0.126887 0.245134 -0.334551 -0.100359 0.219672 -0.090635 -0.181770 -0.023174 0.094800 0.265773 0.114289 -0.255222 0.450515 0.208656 0.232310 0.066712 -0.158599 -0.070808 0.221147 0.037646 0.322961 0.191754 0.170104 0.599241 -0.092005 0.039812 -0.097380 -0.343500 -0.155152 0.093031 0.113431 -0.492687 -0.178916 -0.367604 -0.151333 0.061199 0.051669 -0.055371 0.191732 0.005403 0.176129 -0.067964 0.218460 -0.179212 -0.032540 0.427637 0.074111 -0.336403 0.016182 0.146733 -0.307112 0.003171 -0.248606 0.046614 -0.173316 -0.136202 0.141606 0.023706 -0.202429 -0.049709 -0.150920 0.072742 -0.030316 0.144196 0.078704 0.084205 0.175011 -0.007754 -0.244069 -0.070029 0.022573 0.217220 -0.042251 0.132519 0.090634 0.030098 -0.168578 -0.035535 0.060914 -0.136084 -0.045543 -0.075287 -0.483238 0.038988 -0.142340 -0.050420 0.223695 -0.104100 -0.196772 0.090515 0.017899 -0.076498 0.024334 0.151560 -0.098131 -0.138593 -0.031261 0.236693 -0.157446 -0.216208 0.016929 0.056212 0.056028 0.123653 0.040241 0.061792 -0.174975 0.108626 -0.003281 0.074060 0.368596 0.011975 -0.003151 0.114377 0.100516 0.101167 -0.019328 0.327588 
was -0.075170 -0.182153 -0.166688 0.124470 -0.004135 -0.142823 0.282541 0.068664 0.065980 -0.027581 -0.211576 -0.095326 -0.596317 0.143506 -0.166503 0.285721 0.170525 0.288999 0.267107 -0.026450 -0.213810 -0.146100 0.282319 0.147927 0.369267 -0.122440 -0.063810 0.039349 -0.146758 0.077051 -0.126871 -0.251731 0.185448 0.216419 -0.481076 -0.142145 0.049263 -0.289702 -0.003931 -0.171340 0.351943 -0.257753 -0.137734 -0.131900 -0.289859 0.219847 0.105080 0.098519 0.372060 -0.238104 0.177992 -0.563281 -0.233083 -0.007292 -0.025636 -0.000160 -0.131196 -0.010852 0.031296 0.184149 -0.220635 0.133990 -0.174347 -0.088791 -0.173577 0.221793 0.277951 -0.481098 0.095676 -0.150313 -0.196179 -0.137823 0.117928 0.013251 -0.045674 0.344664 0.129193 0.075150 -0.044221 -0.251766 0.022269 0.034198 0.148555 0.156676 -0.011832 0.041798 -0.033292 0.427648 0.237974 0.181257 0.067529 -0.292287 -0.852651 0.645329 -0.138339 0.119140 -0.154896 -0.302889 0.009007 0.115986 -0.077638 0.340264 0.172389 -0.048203 0.002981 -0.076671 -0.480227 0.396488 -0.185918 -0.078133 -0.010274 0.178753 -0.090101 0.097330 -0.097065 0.205874 0.021846 -0.147020 0.024945 0.109984 -0.162633 0.068588 0.310141 0.071737 0.129463 0.251630 0.127403 0.173048 
re@@ -0.053696 -0.226441 0.020801 0.137666 0.037590 -0.405007 0.026371 0.129808 0.371150 -0.055627 -0.084164 0.273377 -0.155081 -0.102236 0.030650 0.194433 -0.152362 0.068318 0.154927 0.087257 0.059780 -0.429510 0.075979 0.167270 0.307049 0.183466 -0.221166 0.246964 0.366210 0.076401 0.181659 -0.099957 0.194261 0.313417 -0.150404 0.096322 -0.261990 -0.213179 0.107544 -0.044618 0.130244 0.016033 0.067355 0.058952 -0.152417 -0.136621 -0.048479 0.111139 0.243679 -0.095821 -0.221734 -0.208609 0.303735 0.003951 -0.049861 0.186987 0.057618 0.042437 0.250157 0.285379 0.031441 0.091126 0.015355 -0.242966 -0.231666 0.013511 0.297834 0.003453 -0.111357 -0.100236 -0.516018 -0.003402 0.094670 0.154601 0.189029 -0.026690 0.269007 0.090240 -0.168507 0.001328 0.069142 -0.136354 -0.308614 0.230646 -0.298610 -0.195186 -0.144610 0.210786 -0.119422 0.076306 0.011383 0.080148 -0.178264 0.305016 0.371538 -0.022341 -0.093012 0.290851 0.293345 0.120415 0.011762 -0.172828 -0.023745 -0.176844 -0.132085 0.040768 -0.015925 0.097835 -0.092734 -0.136803 -0.091772 -0.110741 -0.135806 0.034109 -0.125937 0.127481 0.299461 0.195363 0.020935 0.209071 0.150511 0.206418 0.237451 0.152469 -0.195352 0.294323 0.139525 0.287330 
P@@ -0.059049 -0.056295 -0.005143 0.310563 0.105307 -0.068749 0.212489 0.093618 -0.118888 -0.001934 -0.016620 0.200603 -0.408535 -0.043136 0.145128 -0.009467 -0.158733 -0.165600 0.089010 0.170076 0.158221 -0.192004 0.388044 0.241142 0.273530 -0.097632 -0.319925 -0.131404 0.134923 0.006463 0.152786 -0.024263 0.283706 0.449328 -0.107804 -0.043948 -0.164475 -0.252817 -0.177544 0.151224 0.066738 -0.369189 -0.054993 -0.136004 0.044086 -0.076406 0.281327 0.012133 0.225248 0.076274 0.047372 -0.068306 0.295978 -0.087931 -0.064012 0.484728 -0.012686 -0.209342 0.067311 0.111377 -0.195187 0.075730 -0.336859 0.096911 -0.140904 0.016130 0.274640 0.068669 -0.277537 -0.136831 -0.164833 0.082193 0.014524 0.072748 0.072613 0.156939 0.170824 0.130940 -0.054216 -0.096357 -0.064187 0.122137 0.046956 0.098824 0.091750 -0.120838 -0.130305 -0.076207 0.128226 -0.205054 -0.149998 -0.102082 -0.240921 0.206938 0.017080 -0.210390 0.299717 -0.096048 -0.115901 0.088808 0.102837 0.036207 -0.096387 0.222363 0.107803 -0.180331 0.117206 0.283975 -0.118438 -0.176182 -0.159902 0.205323 0.001829 0.314216 -0.122228 0.177835 0.013362 0.104551 -0.124015 0.091479 0.180188 0.158058 0.167163 0.343139 0.218633 0.238024 -0.005268 0.166845 
a@@ 0.036100 -0.112145 0.000212 0.305494 0.368186 -0.044239 0.031956 -0.056970 0.101894 0.093683 0.045248 0.444949 -0.290841 -0.062562 -0.068878 0.075562 -0.050143 0.147852 0.231674 0.051990 0.041674 0.013743 0.459573 0.209430 -0.071292 0.006495 -0.281268 0.261046 0.008016 0.227884 0.040771 0.089318 -0.052621 0.390658 -0.172791 -0.010016 0.008464 0.120801 -0.070397 0.184373 0.059200 -0.091993 -0.196393 -0.120606 -0.496822 -0.124254 -0.016033 0.111959 -0.033750 0.134064 -0.090436 0.077636 0.281308 -0.155722 -0.105993 -0.013133 0.245400 0.252833 -0.136500 0.410937 -0.016636 0.276184 -0.028236 0.056049 -0.314274 0.319627 0.009032 -0.163826 -0.245795 0.079123 -0.237537 0.157425 -0.035974 0.249820 -0.079845 0.211544 0.112494 0.268575 -0.385677 0.072600 0.026877 0.125220 -0.055409 0.043476 -0.091292 0.059462 -0.244911 0.054351 -0.015944 0.261299 -0.264373 -0.082786 -0.378801 0.315222 0.044725 -0.209891 0.295810 -0.041832 -0.248330 -0.006243 0.372348 0.333224 -0.013522 -0.114136 0.040640 0.055322 -0.042625 0.505884 -0.239018 -0.146590 -0.135250 -0.096959 0.134966 -0.141307 0.130834 0.334415 0.154874 -0.044846 -0.010801 -0.210104 0.091056 0.168937 0.084661 -0.046974 0.026277 -0.014302 0.229013 0.118324 
The -0.135421 0.131538 0.103250 0.351363 -0.195654 -0.058043 -0.245272 -0.020792 0.150933 -0.026949 0.043307 0.195421 -0.380960 -0.170751 0.263045 0.049655 -0.003131 -0.205406 0.195479 0.066776 -0.007838 -0.501376 0.335349 0.239477 -0.046120 0.143405 -0.372735 0.282804 0.063493 -0.129947 -0.389766 0.183070 0.030455 0.361549 -0.106321 -0.486084 -0.169684 -0.231480 0.180327 -0.155258 -0.294326 -0.194990 -0.098273 -0.195239 -0.095457 0.170645 0.227652 0.063520 0.455311 0.233292 0.178309 -0.133828 0.067492 0.034706 0.039006 0.046989 0.157579 0.213492 0.553781 0.343015 -0.349800 0.091767 0.186834 0.269238 0.153474 0.254633 0.062173 -0.161099 -0.252493 -0.063666 -0.520402 0.399319 -0.187314 -0.076794 -0.073534 0.091950 0.223333 0.021125 -0.094202 -0.214197 0.059981 0.081702 0.233155 -0.118386 0.255014 -0.062329 0.094658 0.255507 -0.044127 0.118825 0.111323 -0.448190 -0.620050 0.288797 -0.029743 0.078005 0.032723 -0.375455 0.115427 -0.001868 0.278255 -0.098532 -0.120599 -0.142593 0.196812 -0.156990 -0.128738 0.092279 -0.251020 -0.165190 -0.039000 -0.013950 -0.005634 0.063319 -0.307736 0.154026 -0.080592 0.129287 -0.228591 -0.112808 -0.306939 0.068065 0.280563 0.068495 0.000135 0.165134 -0.107160 0.085266 
in@@ -0.130483 -0.132294 -0.118832 0.246096 0.398994 -0.297265 0.003935 0.009410 0.205263 -0.032257 0.136547 0.253109 0.001437 -0.139110 -0.000084 -0.022677 0.068325 0.091516 0.204263 0.216093 -0.121143 -0.038438 -0.028811 0.109332 0.409389 -0.019862 -0.344977 -0.064936 0.057638 0.198038 -0.023129 -0.031568 -0.278819 0.350869 -0.097568 0.038342 0.250907 -0.155333 0.106891 0.153912 0.103610 -0.131153 -0.170467 -0.088963 -0.317338 -0.098579 0.151738 -0.113615 0.176101 -0.098050 -0.155409 -0.270572 -0.050638 -0.107803 0.047759 0.085451 0.207421 -0.180984 -0.081321 0.186331 -0.015236 0.150037 -0.050646 0.191149 -0.365881 -0.023542 -0.180368 -0.102498 -0.083509 0.241112 -0.473449 0.261516 0.117897 0.047157 0.207172 -0.253591 0.188179 0.091443 -0.126146 -0.026234 -0.037501 0.352657 -0.243052 -0.099836 0.037810 -0.081823 0.123559 0.100191 -0.094697 0.232258 0.027019 -0.017079 -0.413201 -0.100762 0.381493 -0.220792 0.007135 -0.138438 0.003435 0.027767 0.149628 0.156864 0.177930 0.173964 -0.177860 -0.147007 -0.101252 0.050441 -0.223308 -0.106698 0.011202 -0.094914 0.076559 0.360184 -0.335212 0.139487 0.036082 -0.081479 -0.133823 0.465106 -0.294550 0.173288 -0.225848 0.099597 0.203024 0.028739 -0.036949 0.085607 
) -0.104453 -0.044458 0.011599 0.080204 -0.185246 -0.154425 -0.255491 0.101847 0.077907 -0.333808 0.001222 0.370082 -0.615096 0.199622 0.366228 -0.186865 -0.040292 0.062150 0.117139 0.056906 -0.130434 -0.208666 0.355102 0.056099 0.060960 0.156124 -0.227917 0.024917 0.081930 0.116687 0.066037 0.090668 -0.128980 0.402622 0.117171 0.101829 0.160044 -0.344143 -0.031821 0.186948 0.228172 -0.433183 0.121971 -0.070432 -0.145529 -0.008316 0.230958 0.098258 0.099515 0.091274 0.162211 -0.120144 0.180969 0.090793 0.161809 0.324512 0.027713 -0.202582 0.114222 0.194180 -0.090898 0.240083 -0.138717 0.293174 -0.247183 0.122322 0.275278 -0.011529 -0.161737 0.037668 -0.448621 -0.080161 -0.029308 0.051562 0.146436 0.071398 0.098833 0.162430 -0.145983 0.002911 0.042139 -0.096044 0.057756 -0.201746 0.090331 -0.038307 -0.029471 0.205643 -0.258642 0.014742 -0.133784 0.183291 -0.212340 0.144524 0.080822 0.052014 0.096311 -0.155256 -0.084196 0.260141 -0.073622 -0.129836 0.309599 0.282793 -0.205655 -0.008421 -0.012659 0.259213 -0.375903 -0.334046 0.228543 -0.158656 0.251756 0.093275 -0.022100 0.357437 0.049647 -0.150659 -0.197309 0.016462 0.271801 0.190568 -0.074732 0.358991 -0.125694 0.183459 -0.046904 -0.069196 
l@@ -0.022931 -0.396138 -0.051874 0.116098 -0.024331 -0.080968 0.121467 -0.268578 0.011286 0.006588 0.099551 0.106269 -0.356094 0.042747 0.072652 -0.153158 -0.058848 0.276328 -0.061335 0.052564 -0.141123 0.045363 0.297666 0.204399 0.287266 -0.175407 -0.482234 0.171597 -0.135164 0.015982 0.150484 0.048891 0.286682 0.374398 -0.178814 -0.070076 0.082027 0.089007 0.193229 0.068734 0.117193 0.080167 -0.212730 -0.088906 -0.095165 -0.015169 0.449755 0.102019 0.383806 -0.096395 -0.144870 0.040498 -0.043167 0.083365 -0.107875 -0.040534 -0.003980 0.053628 0.098827 0.209354 -0.107677 0.037895 -0.153487 0.185602 -0.245870 0.224955 0.228171 -0.033222 -0.304053 -0.224098 -0.452172 0.224506 -0.122915 0.326573 0.073173 0.038468 0.251864 -0.121482 -0.170458 -0.359590 -0.045975 0.327910 0.009327 0.019480 0.158315 -0.211393 -0.150462 0.060467 -0.162680 0.055150 -0.080882 0.111322 -0.041707 0.147234 0.160258 -0.067380 -0.174632 0.276712 -0.360107 0.080736 0.034573 -0.127960 0.287646 -0.193190 -0.212859 -0.051034 0.182791 0.075418 -0.393365 -0.069263 -0.309776 -0.212353 0.238446 -0.104395 0.192104 0.324370 -0.046678 -0.073095 0.025214 0.014869 0.165032 0.280969 -0.069867 0.207717 0.129882 0.122687 0.007620 0.186410 
ation 0.005760 0.040798 -0.106251 0.422460 -0.008424 -0.107803 0.039015 0.295680 -0.058185 0.115089 -0.192487 0.337085 -0.635048 -0.148632 0.091390 -0.040114 0.227751 -0.188814 0.080559 0.233311 0.036085 -0.361497 -0.098106 0.100848 0.258611 0.136147 -0.142845 -0.065594 -0.274610 -0.087588 0.039496 -0.067660 0.009149 0.522748 -0.037945 -0.295931 -0.261044 0.056263 -0.156885 0.297824 0.393040 0.046741 -0.417695 -0.119299 -0.034807 0.060656 -0.082719 0.042644 0.400733 -0.184651 0.025390 -0.061407 -0.104007 -0.091792 -0.122169 0.245505 -0.030799 0.208442 0.183152 0.095669 0.066933 0.387469 -0.087634 0.216816 -0.116152 0.264024 0.238382 -0.129271 -0.078660 -0.017359 -0.151447 0.024787 0.006334 0.058423 0.033095 0.144360 0.307280 0.144515 -0.099400 0.042322 0.048376 0.126035 0.129981 -0.210993 -0.054317 -0.140302 0.011747 0.242374 0.037126 0.059986 -0.020218 0.061085 -0.055435 0.208354 0.107782 -0.020319 0.080754 -0.050646 0.253059 0.384521 -0.066704 -0.009090 -0.138334 0.073283 -0.155803 -0.185359 -0.116842 0.078996 -0.262179 -0.004834 0.237741 -0.080211 0.009798 0.236586 0.154420 -0.205921 0.006390 -0.245211 -0.331328 -0.347588 0.209061 0.039593 -0.156320 -0.012983 -0.119754 0.203280 0.035781 0.353686 
al@@ 0.079762 -0.244537 0.180889 0.337183 0.115157 -0.012079 -0.074508 -0.024285 -0.147157 0.014062 0.185508 0.232795 -0.377690 -0.164253 0.086625 0.081342 0.234177 -0.281650 0.290076 0.094663 -0.101979 -0.100442 0.142367 0.469893 0.190679 -0.129743 -0.124748 0.367725 0.088795 0.091618 0.222448 -0.013532 0.071552 0.459687 -0.427784 0.184451 0.300760 0.020068 -0.005842 -0.012048 0.288919 0.026358 -0.100744 -0.086724 -0.093540 0.007939 0.156634 0.090122 -0.056992 0.161956 -0.297262 0.029483 0.064913 -0.219844 -0.061259 0.226415 0.192966 -0.174492 0.081177 0.113900 0.093522 0.026919 -0.139336 0.217760 -0.032996 -0.137578 0.393413 -0.290700 -0.218839 -0.118154 -0.129944 0.113339 0.179273 0.184789 0.083253 -0.068613 -0.004786 -0.018656 0.026583 -0.011562 0.167217 0.138598 -0.201114 -0.094317 -0.181465 0.019755 -0.185640 0.215899 0.055476 -0.016261 0.108101 -0.022973 -0.188476 0.074577 -0.030382 -0.168946 0.077993 -0.158411 -0.195027 0.172295 -0.029594 -0.118688 0.164869 0.262040 -0.234050 0.105263 -0.024710 0.007804 -0.537928 -0.383086 -0.200383 0.108220 0.246301 -0.078774 -0.411896 0.190606 -0.103391 0.022628 0.209560 -0.319710 0.035167 0.159343 0.386153 -0.044091 -0.153553 0.062614 0.057543 -0.005697 
f@@ 0.351408 -0.260855 -0.073252 0.077595 0.004825 -0.000432 -0.164686 -0.005331 0.007150 -0.122464 0.362068 0.196147 -0.243828 -0.095993 0.237617 -0.076229 -0.169804 0.023981 -0.022628 0.181253 0.426309 0.015570 0.087447 -0.287413 0.280628 0.166560 -0.147473 -0.060780 0.013125 0.015286 0.044013 -0.105534 0.199714 0.508129 -0.099484 -0.188838 0.015253 -0.159994 0.150559 0.175672 0.004672 -0.141552 0.026030 0.068892 -0.142369 -0.026760 0.083692 -0.195218 0.198186 -0.361589 -0.057571 -0.132491 -0.114522 0.096326 -0.116396 0.061939 0.222832 0.093826 0.033409 0.033179 -0.066344 0.299642 -0.002312 0.274649 -0.313584 0.091242 0.159920 -0.188856 -0.043434 -0.175330 -0.269530 0.093155 -0.117515 0.221626 0.284061 0.143577 0.030997 0.136169 -0.053704 -0.075189 -0.148370 0.089928 -0.145853 0.090760 -0.429340 0.026582 -0.042489 0.144570 0.041229 -0.085125 -0.114471 -0.283791 -0.196313 0.058790 0.019192 -0.089991 -0.288742 0.017114 -0.088136 0.282563 -0.167948 0.006056 0.216288 -0.114892 -0.148746 0.009683 0.098697 -0.035361 0.081174 -0.369353 0.025163 -0.192879 -0.159411 0.212447 -0.097954 0.608896 0.068506 -0.134381 -0.355355 -0.131585 -0.031259 0.300388 0.239973 0.079003 0.160045 0.096508 0.059984 0.339396 
A@@ 0.041294 0.072219 -0.088939 0.102235 0.206788 -0.130328 0.035761 0.162987 -0.149969 -0.038094 -0.033013 0.287995 -0.450293 -0.121943 0.181814 0.044714 -0.101573 -0.195604 -0.080203 0.160321 0.117553 -0.276476 0.102374 0.263156 0.030639 -0.168726 -0.384461 0.001550 -0.055826 0.044641 0.156514 -0.015360 0.207680 0.606311 -0.183431 0.133806 -0.065386 -0.248242 -0.225919 -0.091428 0.057963 -0.429045 -0.091176 -0.265158 0.085810 -0.034423 0.254173 -0.072911 0.245023 -0.042600 0.098719 0.055486 0.173742 0.155488 -0.109166 0.310145 0.031606 -0.094603 0.061025 0.332340 -0.056229 0.159001 -0.311795 0.225181 -0.176447 0.062983 0.150917 0.001298 -0.342246 -0.164735 -0.003146 0.204107 -0.016719 0.113061 -0.015535 -0.073511 0.184053 0.324932 0.035013 0.020160 -0.028201 0.236583 -0.034896 -0.144805 0.098503 0.024494 -0.116317 0.124705 -0.005403 -0.085954 -0.144292 -0.021454 -0.176022 0.219913 0.013177 -0.120819 0.169242 -0.094391 -0.203225 -0.023212 0.017268 -0.192895 0.020485 0.030307 -0.106501 -0.240600 -0.039800 0.363633 -0.076263 -0.179595 -0.191245 0.314582 0.211584 0.179609 -0.164939 0.226410 0.061018 -0.059285 -0.046838 0.257068 0.020294 0.213371 0.077296 0.213544 0.137793 0.202981 0.054667 0.071818 
were 0.062995 -0.186250 -0.107510 0.152555 -0.029286 -0.086477 0.088887 0.133738 0.075173 -0.003504 0.013754 -0.251856 -0.613353 0.109314 -0.012522 0.367531 0.030788 -0.003717 0.065900 0.042508 -0.160969 -0.096259 0.062723 0.146360 0.040559 0.115851 -0.186947 -0.375427 0.089138 -0.274301 0.096567 -0.207753 0.001399 0.177047 -0.520988 -0.061926 -0.051528 -0.077390 0.314574 0.213160 0.226942 -0.297344 -0.264860 -0.320850 -0.264211 0.050939 0.217587 0.057926 0.188086 -0.223375 0.033025 -0.337671 -0.258294 -0.118453 -0.063413 0.304920 -0.181184 -0.075779 -0.001591 0.065449 -0.063155 0.088855 -0.133976 0.071871 -0.214434 -0.001387 0.503027 -0.376974 0.190402 -0.129495 -0.446759 -0.269367 0.150364 -0.111409 -0.131331 0.211934 -0.135664 0.246098 0.299759 -0.204074 -0.168164 -0.039013 0.312169 0.310926 -0.163348 0.250354 -0.292674 0.350724 0.282571 0.280677 -0.011460 -0.278815 -0.738409 0.476138 -0.120707 0.132998 0.086939 -0.205772 -0.081637 0.087173 -0.176684 0.313376 0.216530 -0.079930 -0.170745 -0.074310 -0.385542 0.301317 -0.081035 -0.236966 -0.235799 -0.237438 0.308818 0.190308 0.292043 0.362430 -0.090379 0.039361 0.070227 0.362641 -0.181593 0.260019 0.133471 0.327970 0.216899 0.020205 -0.002051 0.299533 
c@@ -0.093783 -0.190136 -0.106955 0.342369 0.201056 -0.425346 0.223953 0.133479 -0.006768 -0.036120 0.289077 0.098619 -0.167537 -0.135287 0.462163 0.002461 -0.089859 -0.116053 0.163963 0.049324 0.033600 0.097467 0.454148 0.335274 -0.005663 -0.226877 -0.314010 -0.176061 0.019687 0.219247 -0.061106 0.158538 0.233636 0.517507 0.075279 -0.178827 0.057519 -0.132080 0.216875 0.299709 -0.053454 -0.482440 -0.112534 -0.213822 0.001204 0.270225 -0.014505 0.042292 0.265839 -0.101862 -0.076161 0.128166 -0.147870 0.002686 0.035948 -0.028482 -0.072459 -0.173860 0.056660 -0.008527 0.025938 0.094608 0.105589 -0.030035 -0.404896 0.075790 0.279447 -0.190502 -0.275579 -0.068716 -0.218907 0.300829 -0.212143 0.009074 0.198185 0.303615 0.038619 0.111257 -0.195858 0.088225 0.136117 0.141660 0.113335 0.021433 -0.067396 0.103502 -0.004329 0.289894 0.009074 -0.038943 -0.122607 -0.061036 0.071568 0.097591 -0.250666 0.079900 -0.066015 0.079218 0.216738 0.288519 -0.306374 0.014658 0.322743 0.199809 -0.148945 -0.113389 -0.080017 0.239647 -0.213341 -0.009378 0.213059 -0.421862 -0.024349 0.140999 -0.413606 0.546907 -0.060373 0.110684 0.093233 -0.133974 0.228116 0.032960 0.115684 0.158906 0.129607 -0.234774 0.120175 0.208426 
M@@ -0.192921 -0.033481 0.017532 -0.022771 -0.024788 0.055096 0.020636 0.072520 -0.026234 -0.094724 -0.097292 0.285425 -0.417970 0.013959 0.229278 -0.081285 -0.155616 -0.048086 -0.111979 0.155980 -0.161342 -0.091041 0.491997 0.210938 0.347148 0.130786 -0.280507 -0.167487 0.078453 0.130048 0.311287 0.149503 0.202982 0.576253 -0.113278 0.120448 -0.086293 -0.313644 -0.069716 -0.014674 0.138897 -0.320892 -0.242436 -0.207734 -0.161927 -0.087010 0.110378 -0.039668 0.378331 0.079914 0.175970 -0.093656 0.195275 -0.070992 -0.083659 0.579305 0.180692 -0.066975 -0.050852 -0.058674 -0.142466 0.087230 -0.214399 0.231367 -0.224124 0.125493 0.279074 0.128593 -0.372499 -0.103408 0.025633 0.068677 -0.099865 0.142767 0.034728 0.033635 -0.000213 0.190590 -0.001507 -0.144298 -0.005695 0.257441 -0.120123 0.045149 0.154961 0.014526 -0.201491 -0.013622 -0.137447 -0.029696 -0.056073 -0.198601 -0.272517 -0.031721 -0.075112 0.138581 0.074877 -0.073768 -0.113208 0.194295 0.200123 0.175307 0.087232 0.015162 -0.030042 -0.319886 -0.002695 0.257387 -0.124101 -0.067511 -0.175042 0.036650 -0.059981 0.244605 -0.194520 0.173882 0.038964 0.017470 -0.274836 0.177093 0.007193 0.103599 0.344890 0.052362 0.120895 0.107163 0.099150 0.235497 
e@@ -0.075866 0.004430 -0.067346 0.271033 -0.106769 0.019258 0.019888 0.031666 -0.144966 -0.122800 -0.282700 0.533473 -0.288965 -0.208478 0.238100 -0.261259 -0.044012 -0.041093 -0.151681 0.201412 0.005529 -0.086487 0.477876 0.061182 0.045852 0.109397 -0.355106 -0.139213 -0.003081 0.087777 0.282188 -0.175761 0.105072 0.779707 -0.413682 0.177741 0.019129 -0.223203 0.114754 -0.017965 0.065478 -0.150685 -0.152169 0.001624 -0.352600 0.284688 0.284965 -0.237481 0.117337 0.063931 -0.260846 0.100235 -0.068543 0.087705 -0.123985 0.000481 0.041186 0.236205 0.054322 -0.228804 -0.038068 0.320091 -0.263044 0.035615 -0.393532 -0.110148 0.096889 -0.121299 0.045501 0.118136 -0.310333 0.017682 -0.057022 0.161266 0.107262 -0.226827 -0.049503 0.043300 -0.266203 0.040954 -0.154739 -0.040560 -0.082629 0.082993 -0.264922 -0.064910 -0.139511 0.129510 -0.394720 0.319318 -0.049825 -0.020452 0.015388 -0.089529 -0.091568 -0.376649 -0.172382 -0.273058 0.034792 0.012366 0.176154 0.068328 0.122980 -0.110149 -0.225300 0.007943 -0.170717 0.154944 -0.414016 -0.143365 0.096907 -0.056135 0.207968 0.113169 0.103555 0.121209 0.092564 0.321736 -0.074313 0.009576 -0.163419 0.096612 0.132046 0.197026 0.015152 -0.019153 0.053318 0.206418 
is -0.007546 -0.139068 -0.140687 0.007375 -0.135948 -0.160891 0.365280 0.161914 -0.002090 0.129117 -0.120603 0.061954 -0.315560 0.160796 0.014744 0.300342 -0.025398 0.303708 0.312592 0.185693 -0.290372 -0.175384 -0.093471 0.026473 0.394804 -0.127542 0.074176 0.022162 -0.271802 0.291929 -0.109777 -0.190220 0.358171 0.376290 -0.500459 0.062333 -0.133264 -0.054678 -0.137553 0.051442 0.139839 -0.377775 0.320393 0.124927 -0.301791 0.232419 -0.023994 0.194418 0.609315 -0.181555 0.182181 -0.319153 0.077539 0.097414 -0.038681 0.078146 0.118848 -0.011649 -0.127127 0.125358 -0.236360 -0.134286 -0.447264 0.105880 -0.155144 0.030028 0.207911 -0.338782 -0.012193 0.002350 -0.505123 0.042727 0.190128 0.129582 -0.052248 -0.084679 0.210948 0.213808 -0.226132 -0.105045 0.185408 -0.004877 -0.178502 -0.213142 -0.008594 0.275256 -0.190509 0.324402 -0.161585 0.169058 -0.094506 0.000490 -0.419066 0.350200 -0.052610 -0.010455 -0.264738 -0.115411 0.043103 -0.033208 -0.209358 0.264556 0.138388 0.045870 0.191794 0.057175 -0.262521 0.413613 -0.125966 -0.114687 -0.059680 0.096278 -0.025181 0.089609 -0.151112 0.090459 0.105320 -0.104212 -0.013442 -0.161927 -0.025087 -0.003360 0.180129 -0.224249 0.176452 0.163739 0.114708 -0.024077 
d@@ -0.140354 -0.321453 0.025212 0.302881 -0.114650 -0.339966 0.021593 -0.020343 0.122235 0.103916 0.023688 0.385460 -0.310509 -0.308639 0.278166 0.087268 0.081891 0.068335 0.173309 0.194961 -0.277896 -0.213854 0.153982 -0.187833 0.167382 0.048931 -0.146388 -0.234043 0.136452 0.109339 0.216775 0.027824 0.582389 0.243665 -0.248508 0.004070 0.062666 -0.242414 -0.006780 0.236737 -0.127746 -0.213112 -0.126707 -0.001152 -0.018855 -0.033088 0.042392 -0.045048 0.231711 0.112465 0.273254 -0.207828 -0.041359 -0.040797 -0.035312 0.021700 -0.150454 0.099757 -0.000978 -0.157721 0.080550 -0.013150 0.200562 0.066799 -0.040837 0.104583 0.100921 -0.107315 -0.404930 0.094576 -0.337126 0.175268 -0.150415 0.206006 0.347394 -0.224217 0.120984 -0.164987 -0.130764 -0.162479 -0.226946 0.111311 0.045161 0.226976 -0.135916 0.247058 0.007387 -0.015244 0.045963 0.181782 -0.296962 0.020408 0.011587 0.165470 -0.024288 -0.106671 0.018921 -0.101756 -0.097342 0.367033 0.122429 0.159765 0.218837 0.116896 -0.134031 -0.061166 0.110901 0.146803 -0.411057 -0.383660 -0.107009 -0.166179 -0.021385 0.175866 -0.263397 0.178133 0.015885 -0.027574 0.230413 -0.018791 -0.013935 0.126923 -0.401932 0.042608 -0.032588 0.078252 0.071661 0.687150 
or@@ -0.008587 0.222343 -0.101763 -0.022847 -0.121897 0.045259 0.108869 -0.035221 0.257607 -0.388631 0.375260 0.199256 -0.354489 -0.441039 -0.225647 0.372969 -0.068631 0.021381 0.098856 0.010436 -0.111027 -0.093632 0.016532 0.014550 0.182648 -0.059565 -0.233613 0.130482 0.034570 -0.195317 0.061935 0.042531 0.127403 0.562948 -0.222184 -0.027670 0.179113 -0.192459 -0.026983 0.058138 -0.096891 0.038807 -0.120030 -0.414036 0.108648 0.138120 0.029673 -0.167197 0.339407 -0.009712 -0.178402 -0.095320 0.161687 0.008565 -0.208848 0.162645 -0.092234 -0.081802 -0.135340 0.082415 -0.047802 0.073316 -0.210732 -0.027218 -0.255425 0.327199 0.072834 -0.130356 -0.002222 0.136184 -0.438345 0.176496 -0.019028 0.153856 0.068446 -0.043366 0.303004 0.245321 -0.153873 0.114643 0.072026 0.241000 -0.202596 -0.067319 0.003958 -0.018841 0.187733 0.111017 -0.013800 0.154737 0.502694 -0.060376 -0.092680 -0.010724 0.261376 0.016846 0.041512 0.141147 0.339248 0.097268 0.019716 0.142299 -0.025470 0.060627 -0.287217 0.065392 -0.231023 0.348969 -0.480863 -0.652675 -0.025325 0.030671 0.260683 0.094962 -0.191800 0.179691 0.084548 -0.070796 -0.122262 0.004725 0.135687 -0.052454 -0.097792 0.111496 0.157281 0.055270 -0.039546 0.023634 
n@@ -0.176507 -0.013962 0.141798 0.324202 -0.068563 0.175560 0.091199 -0.074569 -0.108348 0.129160 -0.025822 0.090370 -0.451248 0.058354 0.198489 -0.004819 0.121865 0.174157 0.249719 0.356245 0.092717 0.112465 0.111054 -0.087261 0.170501 0.209967 -0.256747 -0.313903 -0.018233 0.235147 0.041202 -0.214381 0.306105 0.380907 -0.092861 -0.119077 0.113721 -0.253311 0.307531 0.166737 -0.224789 -0.316066 -0.394612 -0.052278 0.023956 -0.054921 0.243415 0.076177 0.252258 -0.040220 -0.390314 -0.163294 0.168529 0.039394 -0.221366 -0.046045 0.222001 -0.323928 0.006333 0.174695 -0.045811 -0.095517 -0.065672 0.106046 0.116133 0.137041 0.379362 -0.010927 -0.417627 0.179204 -0.073241 -0.062456 -0.092259 0.138926 0.015648 -0.061688 0.343181 0.052058 0.145221 -0.148048 0.375652 0.060598 -0.340154 0.039605 0.041379 -0.156347 -0.054781 0.146598 0.103163 0.437113 0.134375 0.035885 0.043012 -0.002217 -0.130868 -0.079952 0.046633 -0.162348 0.065244 0.315804 0.102879 -0.087662 0.269964 0.290032 -0.122313 -0.244020 -0.006890 0.239105 -0.426801 -0.338536 -0.222157 0.092886 0.097481 -0.154586 -0.048034 0.338449 0.006295 0.122422 -0.111694 -0.009417 0.091091 0.272687 0.203807 0.226779 -0.089194 0.138762 -0.184318 0.148219 
en@@ -0.434382 -0.233452 0.077254 0.581716 0.318499 -0.236451 -0.126873 0.166145 0.287850 -0.237865 -0.108923 0.079793 -0.511576 -0.055903 -0.100185 0.204118 -0.120794 0.204452 -0.017274 0.098409 0.229610 -0.014167 -0.124608 0.065509 -0.100317 0.109062 -0.461498 -0.004051 0.019309 0.133305 0.054125 0.165511 -0.047980 0.253691 -0.128311 -0.204844 -0.383822 -0.201090 -0.117206 0.352100 0.288123 -0.418984 0.020865 -0.144741 -0.069604 -0.182089 -0.010292 -0.013982 0.125882 -0.071632 0.130758 -0.121074 0.116529 -0.346250 -0.286140 0.125227 -0.029468 -0.104788 0.319039 0.020536 -0.243587 -0.135080 0.013187 0.103031 -0.244613 0.088360 0.247483 -0.094165 -0.137928 0.205059 -0.409715 0.053530 -0.167555 0.199072 0.125599 -0.098654 -0.074126 0.204046 -0.246353 0.055757 0.207337 0.346240 -0.044371 0.053277 -0.334629 0.089394 0.075881 0.130143 -0.029798 -0.003170 0.019939 0.109390 0.009303 -0.076624 0.027571 -0.054480 -0.158557 -0.152574 -0.262349 0.031835 0.093793 0.267749 0.228375 0.208432 -0.281170 0.300943 0.006357 -0.051086 -0.177060 -0.294473 -0.235101 0.079157 0.206698 -0.136045 0.144825 0.294220 0.071222 -0.001693 -0.285272 -0.110806 -0.294259 -0.175201 0.101091 0.150191 -0.141039 0.247133 0.218852 0.072387 
r@@ -0.031499 -0.023627 -0.172226 0.432853 0.277462 -0.242145 -0.043121 0.069981 0.308713 -0.323117 0.125624 0.426397 -0.514885 -0.052832 0.277294 -0.010480 -0.167941 0.033711 0.313694 0.183527 -0.117215 0.376759 0.217720 -0.011093 0.258382 -0.060524 -0.340175 -0.132609 -0.081696 0.145136 0.251347 0.010150 0.038759 0.444705 0.023045 0.021783 0.209539 0.000443 0.104769 0.043012 -0.111914 -0.125997 0.034930 -0.389491 -0.180338 0.208891 -0.059780 -0.053174 0.395129 0.040249 0.136756 0.199104 -0.074644 -0.001068 0.052626 0.156895 0.070483 -0.456740 0.056121 -0.128317 -0.189512 0.053534 0.180521 0.255707 -0.257069 0.038723 0.119811 -0.204110 -0.257833 -0.463059 -0.014371 0.085922 0.401123 -0.048509 0.010688 0.126879 0.295675 0.027141 -0.026093 -0.226717 -0.024858 0.016192 -0.331581 0.097587 0.129509 -0.025321 0.072885 0.279923 -0.174801 0.051163 -0.201758 0.035314 0.116158 -0.040744 -0.050438 -0.105506 0.185759 0.120908 -0.108763 0.013151 0.136444 0.181150 0.401261 0.009855 -0.190569 -0.114635 0.127995 0.337828 -0.073389 -0.680562 -0.152559 -0.111623 0.171502 0.068712 0.021916 0.272652 0.172762 0.077582 -0.237616 -0.089376 0.042838 -0.374801 0.164377 0.060047 -0.067688 0.111929 -0.113250 0.201334 
m@@ -0.166666 -0.286649 -0.273497 -0.015934 0.188081 -0.216452 0.246377 -0.060458 -0.079779 -0.036262 0.290158 0.190742 -0.363844 -0.151557 0.190337 0.009842 0.089854 0.220222 0.357255 0.109726 -0.283320 -0.130120 0.031927 0.090791 -0.132688 -0.081726 -0.145576 -0.163920 0.323391 0.027413 0.073685 0.009614 0.387237 0.369366 -0.047131 -0.225855 -0.263671 -0.192948 0.231822 -0.086432 0.010063 -0.140420 0.002511 -0.088164 -0.561266 0.062302 0.306803 -0.168818 0.305936 0.002088 -0.306719 0.093019 -0.224405 0.177921 -0.683631 0.005062 0.270613 -0.374466 0.148055 0.103989 -0.033814 0.095620 0.041970 0.255679 -0.318332 0.024047 -0.030974 0.138627 -0.323852 -0.034061 -0.274715 -0.012876 -0.139640 0.031379 0.136837 0.362154 0.303169 0.291328 -0.110386 -0.046017 -0.010633 0.138729 -0.023501 -0.074154 -0.017265 -0.304667 -0.031910 0.409584 -0.228464 0.017830 0.105343 0.196206 -0.177754 -0.061997 0.050069 -0.201561 -0.064516 0.127095 -0.051756 0.352735 -0.034869 0.291595 0.162305 0.249875 0.004480 -0.158813 0.210454 0.255977 -0.316321 -0.076524 0.159490 -0.017105 -0.142370 0.202631 0.130449 0.294665 -0.103328 0.267050 0.028658 0.004891 0.215773 0.021421 -0.182351 0.099955 0.026792 0.355902 -0.008978 0.032018 
on 0.002206 -0.191422 -0.157537 0.191543 0.062084 -0.277428 0.116121 0.256550 -0.197931 -0.110197 0.135605 -0.042061 -0.107815 0.056896 -0.025308 0.183730 -0.250043 -0.227040 0.049484 0.226476 0.084131 0.033264 0.124168 -0.016686 -0.039550 0.082788 -0.260749 0.129702 -0.014683 -0.168391 0.010278 0.079129 0.188304 0.245190 0.163121 -0.348378 -0.046384 -0.217226 0.185344 0.100908 0.141293 -0.003191 -0.143871 0.199180 -0.185233 0.105504 0.149471 -0.002074 0.263194 -0.266871 -0.054692 -0.109709 0.160886 -0.002933 0.092947 0.408282 0.140934 -0.273821 0.112396 0.158518 -0.106952 0.090059 -0.055552 0.085741 -0.145292 0.134494 0.020585 -0.120630 -0.090099 0.045713 -0.398088 0.096726 -0.117007 0.189680 -0.078706 0.183837 0.283765 0.305628 -0.227623 -0.139791 -0.205324 0.190056 -0.023482 0.153223 -0.020369 -0.008385 -0.137085 0.150599 -0.151603 0.178583 -0.121781 0.232570 -0.195922 0.261425 0.073699 -0.148784 -0.115497 -0.485423 0.091160 0.157322 0.241094 0.052543 0.298446 0.039661 -0.185263 -0.311510 -0.033930 0.116532 -0.332643 -0.152571 -0.031630 -0.092473 0.082780 0.147154 -0.216622 -0.143456 -0.183216 -0.012455 -0.064070 -0.061001 -0.244731 0.092313 0.100607 0.069670 -0.175131 -0.013483 -0.150917 0.008228 
D@@ 0.169586 -0.044823 -0.133590 0.137237 0.116383 -0.284897 0.170609 -0.022043 -0.077245 -0.059439 0.011545 0.179354 -0.439071 0.002633 0.248507 -0.176442 -0.097543 0.042432 0.043222 0.062313 0.309691 -0.176758 0.228175 0.207183 0.183205 0.182529 -0.203844 -0.077524 -0.010747 0.222877 0.054978 0.103710 0.203065 0.651344 -0.182316 0.014560 -0.243277 -0.454872 -0.012947 0.187322 0.071131 -0.164650 -0.016177 -0.134354 -0.058908 0.014110 0.219253 -0.092939 0.291743 0.121178 0.208177 -0.032032 0.189837 -0.023182 -0.107168 0.488940 0.255763 -0.161550 0.259131 0.088741 -0.117851 0.099168 -0.250521 0.180016 0.158781 -0.008462 0.194978 -0.062772 -0.381246 0.123849 -0.002305 0.062233 -0.016244 -0.128349 0.091767 -0.048105 0.276908 0.452932 0.024419 -0.213344 -0.149903 0.245463 0.095917 -0.129698 0.155165 0.136658 -0.217476 -0.204873 0.127024 -0.094373 -0.109359 0.012101 -0.519936 0.125308 -0.113848 -0.074628 0.046861 0.158870 -0.315355 0.119598 -0.034572 -0.152123 0.056045 0.137251 -0.209053 -0.068222 -0.005428 0.195460 -0.047486 -0.375507 0.197086 0.175750 -0.022622 0.037129 -0.059094 0.254647 -0.033024 -0.062450 0.118330 0.212825 0.106195 -0.035273 0.223406 0.332004 0.247444 0.133810 -0.001358 0.367899 
E@@ -0.152614 -0.160493 -0.072731 0.084425 -0.057034 -0.291921 0.072946 0.261649 -0.197096 -0.198568 -0.044190 0.160136 -0.517701 -0.035580 0.071526 -0.053057 -0.051025 -0.083133 -0.008841 0.091194 0.084878 -0.325941 0.335602 0.418418 0.341037 0.125189 -0.471208 -0.029078 0.353808 0.059750 0.357458 0.016187 0.070784 0.555849 -0.231124 0.245350 -0.333781 -0.162106 -0.120259 -0.029629 -0.002560 -0.381952 0.150614 -0.215009 0.010363 -0.358654 0.303007 -0.148312 0.155700 0.004923 0.208264 -0.059299 0.046703 0.182845 -0.294533 0.263351 0.104675 -0.144031 -0.121499 0.028378 -0.320999 0.065326 -0.036323 0.006667 -0.150218 -0.073427 0.123951 -0.031945 -0.421259 -0.070471 -0.134953 0.204833 0.069235 0.260110 -0.058565 0.047280 0.190436 0.510821 -0.033342 -0.087342 0.039161 0.095578 -0.032912 -0.008415 0.081642 -0.070585 -0.298188 0.049299 -0.106775 -0.185522 -0.015857 -0.198661 -0.175581 0.089358 0.082112 0.137989 0.126422 -0.264463 0.036242 0.021363 0.076965 0.021799 0.083897 0.013894 -0.084607 -0.288926 0.013225 0.292052 -0.196915 -0.016765 -0.137968 0.388164 0.101650 0.146762 -0.312964 0.090434 0.151862 -0.145372 -0.305622 -0.058415 0.070558 0.287677 0.187574 0.188808 0.104963 0.154473 0.020413 0.085013 
by 0.080707 -0.039362 -0.067043 0.010926 -0.203782 -0.037636 0.092446 -0.023914 0.331062 -0.324064 0.234471 -0.038656 -0.122113 0.124478 0.127967 -0.133056 0.073677 -0.407498 -0.018992 0.171006 0.005833 0.159645 0.044557 0.219739 0.123842 -0.096909 -0.318526 -0.127726 -0.013685 0.169921 0.054926 0.135507 0.047359 0.359402 0.001949 -0.061709 0.139732 -0.295682 -0.062735 0.004905 0.286844 -0.110895 -0.066404 -0.093683 -0.232459 0.017233 0.257978 0.086872 0.239936 -0.063752 -0.077679 -0.277009 0.034192 0.128916 0.107933 0.438616 0.211765 -0.144795 0.370841 0.218051 0.006714 -0.116047 0.138070 0.200330 -0.087377 0.151756 0.059306 -0.232885 -0.333896 0.110859 -0.283479 -0.171985 -0.055844 0.190414 0.071106 0.317536 0.376515 0.097933 -0.210303 0.113078 -0.109043 0.394793 0.116338 0.342539 -0.244427 -0.074946 -0.182809 0.508270 0.037575 -0.105912 -0.215348 0.235166 -0.282516 0.361195 -0.151275 -0.038866 0.468658 -0.073445 0.230434 0.034220 0.072938 0.003195 0.304107 0.007380 -0.064515 0.124169 0.084740 0.235731 -0.127256 -0.338128 0.183263 0.064772 0.231820 0.107695 -0.016070 -0.086855 -0.045898 0.122521 -0.016857 0.109877 -0.154717 0.058889 0.081654 0.022599 -0.067220 0.255276 -0.054771 0.101771 
that 0.014211 -0.074451 0.105249 0.106777 0.015486 -0.218780 -0.002881 -0.020550 0.110530 0.012913 0.104423 0.048698 -0.315219 0.093093 0.100569 -0.111349 0.036018 -0.236697 -0.162135 0.274619 -0.074755 -0.088094 -0.024908 0.330677 -0.044650 -0.132392 -0.229260 0.110414 0.161159 -0.098474 -0.034091 0.131208 0.343031 0.354628 -0.094260 -0.138649 -0.051098 0.013072 -0.219260 0.132307 -0.311747 -0.220854 -0.132128 0.207456 -0.400500 -0.095292 -0.032664 0.070798 0.518427 -0.305496 0.118269 0.096494 0.231172 0.138753 -0.250217 0.446614 0.121750 -0.126714 0.095098 0.310508 0.012414 -0.246067 0.214165 0.018717 0.045988 0.268241 0.147008 -0.295900 -0.204059 0.154057 0.104314 0.290221 -0.018066 0.090874 -0.114367 -0.140560 0.183539 0.016854 -0.151249 0.225359 -0.508928 0.211361 -0.171508 -0.060985 -0.143599 -0.175460 -0.113718 0.257842 -0.073157 0.030797 -0.249635 -0.154515 -0.158110 0.273080 -0.097527 -0.302413 -0.019692 -0.072519 0.240315 0.001654 0.123953 -0.084185 0.124732 0.080451 0.282654 0.065725 0.150218 0.214294 -0.202027 -0.341545 0.115352 -0.102124 0.274787 0.193785 -0.058661 0.233510 0.190564 0.169030 -0.278551 0.201427 0.046464 0.109964 0.139171 -0.035999 0.011813 0.016962 -0.325595 0.120717 
t 0.223611 0.021821 -0.087075 0.277835 -0.166950 -0.248073 0.083664 0.111722 0.153178 0.096813 0.016316 0.150315 -0.223727 -0.282340 0.660508 0.186934 -0.025002 0.159036 0.313803 -0.126686 0.075877 -0.207200 0.319912 0.231887 -0.097998 -0.206702 -0.366799 0.228262 -0.008654 -0.261749 0.127684 -0.062007 0.075094 0.255048 0.270450 -0.084366 -0.088414 0.020121 -0.386950 0.116766 0.309974 -0.400179 -0.178304 -0.166016 -0.177657 0.021610 0.210077 -0.137900 0.251582 -0.069656 0.032699 -0.282796 0.107704 0.151490 0.033603 0.378731 0.031599 0.046045 -0.042724 0.124143 0.073924 -0.032797 0.070344 0.019171 -0.137415 -0.149310 0.042595 -0.051858 0.073671 0.020605 -0.357199 -0.224630 -0.127809 0.098618 0.191223 0.212561 0.159933 0.304520 0.065936 -0.322845 -0.285722 0.132561 -0.096446 -0.286560 -0.196234 -0.045600 -0.021307 0.099854 -0.011016 0.163292 -0.027340 0.049725 -0.175554 0.264627 0.135542 -0.213363 -0.022635 -0.001111 0.094804 0.120536 0.253516 0.090978 0.070812 0.045165 -0.156963 -0.135869 -0.139494 0.147698 -0.461926 -0.062256 -0.182575 0.044395 0.195182 -0.100398 -0.127609 0.255119 0.009306 -0.105018 -0.064007 -0.137376 -0.162075 -0.100595 -0.140749 -0.149903 0.028248 -0.319471 -0.341430 0.105933 
R@@ 0.124386 0.077426 -0.098896 0.221103 0.138556 -0.386778 0.179836 0.294498 -0.053798 -0.044829 -0.054033 0.118588 -0.424676 0.118248 0.177633 -0.119698 -0.138604 -0.048192 0.172706 0.078939 0.046990 -0.032131 0.434701 0.344939 0.308076 -0.112905 -0.295857 -0.146596 0.178244 0.211234 0.030517 0.226074 0.242585 0.541823 -0.258809 -0.011042 -0.150604 -0.097472 -0.140072 -0.092522 -0.006505 -0.254204 0.021649 -0.163951 -0.084775 -0.098459 0.223458 -0.139356 0.412043 0.199247 0.170321 0.022391 0.038588 0.040754 0.051598 0.483665 0.074955 -0.272934 -0.175681 0.207713 -0.219923 0.259170 -0.248264 0.318035 -0.101082 -0.003430 0.240749 0.092852 -0.562518 0.098796 0.000212 0.088222 -0.088876 0.199598 0.032025 0.057704 0.127267 0.105949 0.142597 -0.262255 0.064892 0.090607 0.151837 -0.166782 0.038341 -0.014034 -0.202580 -0.025864 -0.067380 -0.086564 -0.187003 -0.109105 -0.192767 0.185818 0.065277 -0.199015 -0.006522 -0.119262 -0.094167 0.014242 0.104734 -0.002940 -0.071713 0.011379 -0.383010 -0.280799 0.247242 0.413607 -0.119204 -0.191437 -0.009136 0.259427 0.083686 0.097854 -0.068263 0.212130 -0.019542 -0.010582 -0.073954 0.126160 0.298830 0.101793 0.192485 0.432298 0.219068 0.278170 -0.214936 0.224699 
y 0.180920 -0.383619 -0.077238 0.280957 0.020753 -0.281407 -0.211846 -0.048850 -0.019555 -0.331720 0.059871 0.022726 -0.344295 -0.205575 0.396459 -0.120964 -0.133912 -0.063987 0.216883 0.265034 0.052424 -0.169247 0.109955 0.296153 -0.243123 0.398458 -0.101531 0.027928 -0.034977 0.357104 0.149059 0.037114 0.094361 0.253681 -0.153595 0.043757 -0.044749 0.096228 0.339867 -0.009350 -0.081502 -0.474799 -0.535048 -0.327623 -0.088142 0.109301 0.177980 -0.069793 0.090481 0.133843 0.030709 -0.090339 0.005619 0.076100 -0.070355 0.328402 -0.125721 -0.001884 0.055029 0.429152 -0.118524 -0.118021 -0.107788 0.155523 -0.426178 -0.039465 0.071984 -0.491132 0.004136 0.054301 -0.530636 -0.203387 0.050810 0.365992 -0.162397 0.236113 0.210137 -0.098492 -0.087257 0.106096 -0.109912 -0.102158 -0.202781 -0.167221 0.041242 0.046691 -0.100823 0.177658 -0.054647 0.189095 -0.186837 0.050467 0.235320 0.087001 0.378900 0.183274 -0.144597 -0.146696 -0.145597 0.372057 -0.015958 -0.192315 0.107536 -0.089602 0.174022 -0.218210 0.028228 -0.134806 -0.079475 -0.219636 -0.018337 0.300568 0.187762 0.142830 -0.039665 0.155093 0.087558 -0.096534 -0.135448 -0.185951 0.081015 -0.100372 0.309855 0.198419 0.126850 0.131672 0.125417 0.178093 
s. -0.276054 -0.619228 0.030014 -0.011030 0.227429 -0.062474 0.125321 0.208550 -0.376817 -0.427029 -0.250423 -0.021553 -0.258686 -0.095453 0.490255 0.026271 -0.278924 0.042429 0.065549 -0.028269 -0.167574 -0.300076 0.012014 0.087810 -0.073068 -0.123871 0.243838 -0.304005 0.298885 -0.021282 -0.018197 -0.041007 -0.176611 0.465572 -0.169165 -0.007569 0.274367 -0.465615 -0.167500 0.070681 0.091496 0.085732 -0.054375 -0.158483 0.016287 0.189764 -0.335566 0.189972 0.197658 -0.273837 0.193132 -0.178338 0.124146 0.044201 -0.012018 0.171292 0.172742 -0.389374 0.035400 0.137932 -0.158026 0.084489 0.016422 -0.225521 0.104856 0.627436 0.116948 -0.562029 -0.015983 -0.177044 -0.370997 -0.274962 -0.240568 0.308633 -0.273613 -0.016921 0.029725 0.411250 0.102843 0.289408 0.016446 0.496417 0.021612 -0.256457 -0.204000 -0.367952 -0.164354 0.028930 0.128148 0.091890 0.279882 -0.150673 -0.334226 0.214997 0.031227 -0.296994 0.181300 0.120495 0.032035 0.149958 0.166008 0.125806 0.210507 0.058543 -0.270958 0.137404 0.588183 0.021509 -0.327145 -0.017672 -0.254925 -0.186953 0.113295 0.338220 -0.129845 0.145169 0.235468 -0.119969 -0.044718 -0.097901 0.264239 0.314757 0.303651 0.105102 0.059496 0.131417 -0.670948 0.258557 
I@@ 0.052026 0.046807 -0.150596 -0.014324 0.023312 -0.004931 0.221215 0.343887 -0.263510 -0.048598 -0.046933 0.380509 -0.425836 0.110509 0.139961 0.126820 0.025981 -0.174575 0.068057 0.050760 0.106198 -0.421540 0.127102 0.289169 0.178671 0.119711 -0.178318 0.181949 0.241358 -0.026549 0.205902 0.188275 0.163017 0.777410 -0.167764 0.298502 -0.079228 -0.027860 -0.179999 0.190898 0.032848 -0.512165 -0.005148 -0.257778 -0.059015 -0.142606 0.351255 -0.131650 0.262084 0.189564 0.184729 0.075680 -0.125993 0.149497 -0.097545 0.479293 0.077293 -0.172485 -0.090620 -0.002531 -0.186730 0.151508 -0.191967 0.296980 -0.256583 0.048625 0.034958 -0.011722 -0.352873 -0.019924 -0.091658 0.198135 -0.036385 0.147260 0.079329 0.164026 -0.051474 0.265247 -0.060369 -0.144169 -0.064593 0.208015 -0.052090 -0.044563 0.215094 0.169470 0.010391 -0.073972 -0.114192 -0.075944 0.017497 0.046798 -0.416601 0.205047 -0.052236 -0.150331 0.184307 -0.339090 -0.128795 0.013652 0.151976 0.077637 0.134659 0.151508 -0.152071 -0.048765 0.030334 0.302234 -0.024586 -0.311607 0.133875 0.501132 0.097082 0.168356 -0.335145 0.195895 0.219727 -0.183108 0.026551 0.320941 0.122374 0.096513 0.154932 0.326155 0.157075 0.117518 -0.129433 0.320171 
pro@@ -0.039966 0.098549 -0.073939 0.119468 0.302848 -0.510097 -0.203727 0.258654 0.180589 -0.311732 -0.137051 -0.095024 -0.174400 -0.264779 0.014819 -0.249108 0.182791 -0.052046 0.084669 0.150748 -0.095768 -0.530769 -0.206574 0.252669 0.048455 -0.077570 -0.441576 -0.084477 -0.015877 0.031737 0.178353 -0.022148 0.431848 0.359992 -0.285151 -0.202348 -0.204417 -0.173290 0.154380 0.491608 0.216514 -0.066711 -0.007356 -0.088377 -0.402420 0.219054 -0.170512 0.002254 0.295387 -0.152455 0.240412 0.182355 0.147977 0.234222 -0.005640 0.155692 0.315776 -0.059229 -0.448082 -0.010017 0.044841 -0.105841 0.176274 0.170165 -0.218879 0.006986 -0.104996 0.007048 -0.321384 -0.187702 -0.303014 -0.076464 0.008463 0.298516 0.184762 0.369583 -0.007237 0.145746 -0.167880 -0.202819 -0.318561 0.265949 -0.220904 -0.020200 -0.128022 -0.262099 0.043326 0.227506 0.039373 0.240440 0.114948 -0.119077 -0.265859 -0.040519 -0.073741 -0.245549 -0.029328 -0.272149 0.190893 -0.020302 -0.148848 -0.013154 -0.028218 0.092881 0.085801 0.202179 0.076867 0.273053 -0.516738 0.093400 0.207903 0.264543 0.076010 -0.230660 0.042985 -0.136140 -0.036787 0.022459 -0.105841 -0.078488 -0.020104 0.045719 0.160358 0.146595 -0.142108 -0.027755 0.004317 0.165254 
ac@@ -0.057127 -0.000452 -0.090512 0.581545 0.096198 -0.005391 -0.194788 0.011883 0.299934 -0.219016 -0.184053 0.083730 -0.225041 -0.148755 0.082051 0.179755 0.188267 0.133003 0.383843 -0.141951 0.014565 -0.434314 0.263822 0.045055 0.131422 -0.044529 -0.428691 0.122393 0.170526 -0.042337 0.341842 -0.189842 -0.135810 0.606097 -0.023569 0.073956 0.129321 0.220909 0.257644 0.126706 0.227597 -0.178270 0.116377 -0.019641 -0.218865 0.122609 -0.099463 -0.055975 0.351363 -0.159159 -0.057096 -0.201082 -0.112574 -0.177724 0.162565 0.274371 0.315561 -0.097891 0.163539 0.154922 -0.333418 0.171448 -0.087347 -0.068931 -0.379951 0.178716 0.036395 -0.095890 -0.478570 0.286427 -0.111134 0.091305 -0.018343 -0.010449 0.050355 -0.113453 -0.077872 0.241320 0.013122 0.336638 -0.351943 0.262511 -0.065528 0.131716 0.291962 0.119332 -0.230591 0.233902 0.205178 0.178000 0.007317 0.157984 0.091348 0.066167 -0.092017 -0.260604 0.062953 -0.164048 0.036078 0.143839 -0.146850 0.037215 0.291143 0.198084 0.229471 0.074661 0.013619 -0.058866 -0.338461 -0.349122 -0.393870 0.167961 -0.188525 -0.089073 0.280788 0.092400 0.002143 -0.046447 -0.115734 0.013022 0.004073 0.136858 -0.011385 0.013836 0.057939 -0.207387 0.150296 0.090310 
er@@ -0.012917 0.092471 0.023743 0.344681 0.124040 -0.389545 -0.047055 0.125780 0.146091 -0.158302 0.145470 -0.029242 -0.219103 -0.013704 0.070515 0.240110 0.052008 -0.098344 0.045219 0.142772 -0.164522 0.212561 0.547441 0.077985 0.351799 -0.072160 -0.105551 0.037049 0.348346 0.194588 0.258203 0.003825 0.249020 0.540799 -0.221056 0.009341 -0.040565 0.008243 -0.002045 0.043438 0.315680 -0.271888 -0.016868 -0.195177 0.235037 0.046412 0.144279 0.030084 0.054370 -0.096631 -0.309291 0.125190 -0.201186 0.076292 -0.161638 0.242794 0.272029 0.110445 -0.020009 0.058653 -0.131332 0.037804 -0.173894 0.108814 -0.350947 -0.127386 0.171409 0.030381 -0.266716 0.097669 -0.441680 0.144496 -0.271947 0.237984 -0.073556 -0.301937 0.520469 0.446640 0.045893 -0.193197 0.012095 -0.073475 0.073429 -0.223311 -0.009896 -0.258210 0.123567 -0.036139 0.036156 0.147194 0.043914 -0.269191 -0.042184 0.073249 -0.050048 -0.022150 0.414639 -0.131076 -0.026176 -0.006881 -0.009958 0.000997 0.305002 -0.058597 0.096214 -0.010508 -0.250670 0.111570 -0.321261 -0.116128 -0.125321 -0.374454 -0.022653 0.208788 -0.051865 0.377897 -0.007063 -0.217907 0.049540 -0.287879 -0.136803 -0.187539 0.111352 0.159700 -0.232675 0.047141 -0.227716 0.155343 
u@@ 0.077202 -0.284139 0.031768 0.194935 0.006750 -0.257367 0.116058 -0.071894 0.170616 -0.001553 -0.220168 0.326130 -0.310996 -0.089690 -0.257576 -0.136799 0.039369 0.012984 0.305322 0.329169 0.100945 -0.200170 -0.126660 0.304620 -0.145163 -0.440273 -0.043673 -0.225132 0.360389 0.384192 0.437172 -0.110330 0.002787 0.673569 0.258427 -0.021570 0.206154 -0.083080 0.206631 0.336410 -0.002309 -0.378352 -0.152735 0.012855 -0.079062 0.153206 0.003092 0.070619 0.454408 0.404337 -0.114547 0.051770 -0.044550 0.048881 -0.144954 0.328366 0.347016 0.148884 0.056219 0.118879 -0.059352 -0.119713 -0.037337 0.050641 -0.364363 0.205736 0.108691 0.185109 0.185003 -0.324421 -0.190093 0.107418 -0.195238 0.023811 -0.265842 -0.219398 0.201361 0.312019 -0.290355 -0.053836 -0.163309 0.123648 -0.131457 -0.019384 0.077047 -0.143769 0.015282 0.209221 0.109642 -0.135417 -0.158750 -0.093140 -0.399130 0.124976 0.126877 -0.028657 -0.089695 -0.097759 0.157899 0.458034 0.134439 -0.147620 0.303754 0.083895 -0.162009 0.289762 -0.433691 0.026547 -0.176936 -0.315058 -0.072381 0.097129 -0.075658 0.090319 -0.062684 0.139485 0.168844 0.234369 0.168695 -0.019032 0.103286 0.095058 -0.035270 0.419649 -0.003948 -0.135830 -0.148024 -0.210737 
T@@ 0.029627 -0.150690 0.072334 0.201990 0.081701 -0.023523 0.328078 0.154472 -0.009633 -0.003386 0.065687 0.125391 -0.460662 -0.031626 0.139828 -0.007647 -0.181291 -0.137886 0.202401 0.125657 0.143608 -0.181082 0.349024 0.174404 0.211271 0.083356 -0.143596 -0.005528 0.163538 -0.021706 0.317899 0.128371 0.238067 0.578638 -0.202105 0.041682 -0.251667 -0.311505 -0.117185 0.053532 -0.051399 -0.372882 -0.038646 -0.228150 -0.068309 -0.036524 0.284212 -0.177089 0.163576 0.061514 0.253495 -0.022735 0.336171 0.012423 -0.198943 0.474299 0.189713 -0.148944 0.125499 0.141960 -0.087070 0.108809 -0.317932 0.068959 -0.059125 0.036764 0.198180 -0.081317 -0.343071 -0.031450 -0.011169 -0.020550 -0.072205 0.253807 0.031404 0.112189 0.262107 0.127806 -0.168359 -0.081906 -0.082220 0.056078 -0.054393 0.031611 0.163163 -0.027695 -0.194367 -0.101154 0.036103 0.062770 -0.017328 -0.104242 -0.473633 0.015347 -0.264854 -0.038627 0.250922 -0.047660 -0.210980 0.056441 -0.004064 -0.112087 -0.070250 0.162550 -0.046867 -0.191752 -0.171797 0.226471 -0.123574 -0.096823 -0.003802 0.137608 0.008254 0.068999 -0.325238 0.131562 -0.006772 -0.082746 -0.069298 0.111896 0.159806 0.063003 0.097072 0.418235 0.127258 0.025107 -0.266971 0.202240 
st@@ -0.353343 -0.179413 -0.169767 0.325574 0.051417 -0.150684 0.245290 0.136752 0.024785 0.252330 -0.162461 0.050433 -0.451546 -0.132894 0.187877 -0.054085 -0.147969 -0.174033 -0.251682 -0.100777 0.166139 -0.047137 0.136953 -0.010570 0.123328 -0.102243 -0.259174 -0.051599 0.343023 0.095845 0.138481 0.336174 0.404193 0.325295 -0.080457 -0.202412 -0.082265 -0.158387 -0.003383 0.107212 0.259901 -0.322152 0.001654 -0.113866 -0.081865 -0.194753 0.190559 -0.322366 0.257629 -0.129275 -0.046884 -0.125647 0.096579 0.090003 -0.070030 0.048401 0.171817 -0.052622 0.340423 0.041128 0.228423 0.025886 0.269327 0.179571 -0.272233 0.207424 0.231152 -0.203716 0.131853 -0.026985 -0.619391 0.199814 0.177841 0.092957 0.056988 -0.204362 0.086694 -0.133758 0.063192 0.072375 0.042257 0.198900 -0.225563 0.087570 -0.255892 -0.021039 -0.031243 0.306450 -0.339614 -0.122287 0.022459 0.094718 -0.468238 0.013523 -0.144543 -0.006256 -0.269829 0.143722 0.030310 -0.102738 0.069762 -0.015743 -0.030647 0.244716 0.138257 0.132391 0.105548 0.100482 -0.213518 -0.487386 -0.077075 -0.147968 -0.102982 0.042268 -0.139051 0.162075 0.109892 -0.347617 -0.025759 0.002820 0.234798 -0.280438 0.138928 0.077124 0.024791 0.089026 0.044590 0.134844 
H@@ -0.013492 -0.094576 -0.190613 0.246310 0.077524 -0.179446 0.085731 0.157338 -0.253450 0.003093 0.039153 0.166071 -0.448530 -0.002260 -0.028493 -0.067479 0.053473 -0.198651 0.158152 0.001718 0.007909 0.111064 0.280331 0.183534 0.224036 0.078180 -0.274100 -0.149846 0.045147 -0.020201 0.226335 0.127532 0.110052 0.758598 0.083708 0.129407 -0.068184 -0.486112 -0.266589 0.214344 0.089355 -0.220897 -0.056617 -0.168232 -0.024842 -0.115565 -0.056038 -0.136367 0.206284 -0.035195 -0.078024 -0.104386 0.065927 0.205514 -0.150999 0.365695 0.020985 -0.159857 0.104642 0.104419 -0.185784 0.069980 -0.324534 0.286836 0.071001 -0.127228 0.221184 0.022905 -0.204685 -0.260282 -0.140554 0.309886 0.173697 0.101627 0.063915 -0.031668 0.179446 0.208727 -0.200105 -0.238178 -0.144022 0.100852 0.055605 0.002334 0.067240 0.093057 0.023567 0.086167 -0.222844 -0.016906 -0.086106 0.142723 -0.378691 -0.076196 0.036761 -0.072270 0.044304 -0.391380 -0.249818 0.129436 0.289245 -0.084353 -0.141756 0.344453 -0.109531 0.122547 0.113850 0.350603 -0.261325 -0.235898 -0.026519 0.097398 0.172351 0.267732 -0.073607 0.241610 0.129444 -0.080786 -0.240872 -0.024126 0.241269 0.105190 0.018738 0.212022 0.242441 0.070291 0.068233 0.051738 
an@@ 0.117203 -0.338548 0.198589 0.313998 0.157992 -0.082848 -0.221594 -0.277768 0.138036 -0.306331 -0.073072 0.362385 -0.161210 -0.170506 0.268833 0.132651 0.106789 0.422779 -0.160017 0.369554 -0.001745 0.013204 0.216788 0.249049 0.037638 0.025943 -0.364220 0.084057 -0.004641 0.104544 0.132126 -0.026509 0.054754 0.442878 -0.142284 -0.152743 0.141192 -0.142139 0.009027 -0.158707 0.139385 -0.327251 0.182587 -0.042224 -0.015911 -0.322713 -0.042985 0.011912 0.141310 0.088534 -0.152212 -0.053792 -0.196700 0.061183 -0.160573 0.487244 0.188937 -0.071978 -0.034935 0.056181 0.002843 -0.203533 -0.202209 0.449332 -0.111283 -0.201492 -0.043912 -0.059562 0.069755 -0.121557 -0.308408 0.079786 0.019344 0.229233 -0.311654 0.026476 0.144062 0.238304 -0.027689 0.010797 0.169623 0.559978 -0.014187 0.166460 -0.066441 -0.133192 -0.024692 -0.019646 0.080633 0.113699 0.000714 0.058468 -0.245262 0.033756 -0.171391 0.167219 -0.041059 0.079758 0.082344 0.294254 -0.000722 0.081419 0.111642 0.158470 -0.209402 -0.087811 0.000781 0.270315 -0.502956 -0.218082 -0.333838 -0.233124 -0.060764 0.046492 -0.186313 0.208390 -0.297770 -0.108314 -0.054891 0.021934 -0.275359 0.087415 0.023281 0.045331 -0.105912 -0.066500 0.087484 0.179410 
or 0.196818 0.040815 0.021287 -0.037002 0.069726 -0.055235 0.158757 0.083820 0.094494 -0.132288 0.081581 0.004323 -0.223582 -0.265750 0.052426 0.283670 0.063541 -0.007414 0.102612 0.159905 0.007488 -0.097461 0.068999 -0.029453 0.194860 0.192443 -0.200664 0.088603 0.146168 0.160267 0.161104 -0.066656 0.117818 0.400156 -0.339129 -0.120176 -0.027564 -0.178998 -0.060712 0.042576 0.107381 -0.199456 -0.260042 -0.038299 0.036354 0.089079 0.128341 0.225720 0.244687 0.154769 0.198354 -0.104055 0.056254 0.049289 0.134929 0.131259 0.179850 -0.154315 0.063071 0.268955 0.098962 0.218774 -0.243447 0.087511 -0.189684 -0.007136 0.265786 0.029010 0.021524 0.200192 -0.434590 0.107992 0.011384 0.242347 0.012818 0.070647 0.156294 0.219220 -0.006823 -0.164917 -0.136384 0.101078 -0.008880 0.107030 0.049182 0.016071 -0.170268 0.290733 -0.192700 0.257622 0.026917 -0.015678 -0.159779 -0.020990 -0.032453 -0.024687 -0.237022 -0.160462 0.168423 0.219002 0.085331 0.153249 0.170252 0.123269 -0.111893 0.009277 0.091148 0.108875 -0.328438 -0.237799 0.074486 0.006843 0.283409 0.098221 -0.138893 0.225266 0.043933 -0.020329 -0.201343 -0.030586 0.109630 0.008238 -0.175814 0.103039 -0.069737 0.152926 -0.204519 0.047850 
ro@@ -0.039163 -0.016590 -0.037261 0.193086 -0.025823 -0.442976 0.105962 0.243851 0.194948 -0.275849 0.137185 0.014067 -0.499591 -0.028312 0.466989 0.323218 -0.074936 -0.038808 0.010948 0.081535 -0.301723 0.075575 0.349965 -0.060361 0.017379 0.124756 -0.241316 0.168524 0.111906 -0.003702 0.175667 0.004373 -0.227588 0.345585 -0.189257 0.120543 0.221298 -0.104504 0.109312 0.259967 0.036213 -0.030923 -0.207727 0.000658 -0.139152 -0.012009 0.201452 -0.034189 0.106341 -0.176093 0.322373 0.201037 -0.155464 -0.016355 -0.253694 -0.199428 0.345948 -0.016209 -0.372035 0.043259 -0.039874 -0.117103 -0.350049 0.133504 -0.250693 0.117014 -0.062357 -0.166418 -0.010920 0.032625 -0.461769 -0.085529 -0.000215 0.367023 0.097797 0.161476 0.239663 0.081677 -0.280562 -0.054531 -0.199044 0.199737 -0.046176 0.007228 0.174636 -0.312513 0.000520 0.173037 -0.115859 0.102431 0.174157 -0.137149 -0.149725 0.324112 0.083667 0.065037 0.182363 0.192619 -0.169120 -0.001488 0.102495 -0.395038 0.242612 0.003038 -0.240560 -0.315101 0.236795 0.311763 -0.034663 -0.337420 -0.244775 0.032372 0.042571 -0.415737 -0.154950 0.228065 0.041502 0.336538 -0.442147 0.150723 -0.273958 -0.194600 -0.057609 0.114678 0.035211 0.043373 0.523760 0.414804 
at@@ 0.095472 0.212896 -0.054751 0.188133 0.260083 -0.189648 -0.045139 -0.309299 -0.023622 -0.047715 0.191902 0.076227 -0.445250 -0.106634 0.422039 -0.018032 0.022451 0.001609 0.181209 0.306328 -0.020795 -0.088667 0.496569 -0.079396 0.096490 0.382190 -0.231584 -0.098440 0.103018 0.089953 0.369254 -0.399644 0.161885 0.387008 0.055068 -0.170641 -0.049158 -0.012083 0.064249 0.266715 -0.061935 -0.075616 0.112821 -0.099497 -0.487268 -0.361748 0.043776 0.307569 -0.024869 -0.195066 -0.184827 0.116674 0.231407 -0.156925 0.016446 0.060146 -0.011073 0.151981 0.151986 0.065328 -0.023637 -0.063481 -0.172385 0.151617 0.082522 0.312124 0.083486 -0.212575 -0.046565 0.144030 -0.477191 0.278910 0.637581 0.168662 -0.071105 0.043604 0.344283 0.098615 0.002500 0.195267 0.138261 0.082792 -0.271760 -0.034536 -0.004982 -0.081939 0.062774 -0.060450 0.260357 0.091806 -0.107094 0.008145 -0.238186 0.033409 -0.431036 -0.045408 -0.149844 -0.040107 0.153551 -0.039636 0.075418 0.058950 0.239969 0.054561 -0.185525 -0.363196 -0.156978 0.228791 -0.292856 -0.238305 0.021382 0.162958 0.111358 0.291970 -0.141659 0.151473 -0.098263 -0.121585 -0.046727 0.042729 0.014543 0.164514 -0.083356 0.180664 -0.316026 0.060551 -0.170310 0.105688 
co@@ 0.068514 -0.219566 0.003689 0.612294 0.174370 -0.009286 0.140451 -0.031666 -0.112308 -0.628534 -0.103291 -0.246840 -0.271733 -0.302601 0.123439 -0.074515 -0.235052 0.032815 0.000717 -0.074741 0.135270 -0.182776 0.115446 0.300642 0.006344 0.074176 -0.026610 0.252056 0.072265 0.312848 0.335759 -0.148298 0.040131 0.197463 -0.029954 -0.230698 -0.030372 -0.268591 0.259586 -0.009806 0.086710 -0.412293 0.060746 -0.032284 -0.012063 0.028948 0.015926 0.187594 0.231496 -0.551222 0.112768 0.028813 -0.005660 -0.169124 -0.366392 -0.102694 0.268888 0.048943 0.231641 -0.219815 0.080113 0.165998 0.005972 0.350353 -0.392686 0.035125 0.012026 -0.012299 -0.379287 -0.058172 -0.234283 0.218962 0.072029 0.245829 0.235332 -0.062809 0.036987 0.089953 -0.026593 -0.497073 0.309280 0.171913 0.254621 0.015620 0.144987 -0.312606 0.139156 0.435106 0.116282 -0.124712 0.166564 0.024363 -0.162671 0.364852 0.049676 -0.162220 -0.004885 -0.125680 -0.211818 -0.007873 0.066900 -0.212405 0.229452 -0.049335 -0.148357 -0.155665 0.002358 0.405494 -0.302176 -0.202070 0.041273 0.011989 0.224970 0.103757 0.252593 0.149634 -0.048610 0.090469 -0.087875 0.058895 0.203697 0.022751 0.098960 0.090273 0.199749 -0.139527 0.184402 -0.060603 
F@@ 0.213778 0.133986 0.144455 -0.115422 0.072015 -0.106329 0.079956 0.272764 -0.038587 0.063583 0.196051 0.210973 -0.446596 -0.094064 0.011657 0.061911 -0.089111 -0.138244 0.212384 0.072823 0.116754 -0.196115 0.245209 0.357848 0.169156 0.206026 -0.055538 -0.237089 0.169918 0.080615 0.286106 0.161616 0.184001 0.522500 0.048347 0.159426 -0.206779 -0.467424 -0.004083 -0.012885 -0.051558 -0.336080 -0.122006 0.033190 -0.091157 -0.098594 0.247964 -0.037694 0.278881 -0.074277 -0.006851 -0.003587 0.166956 -0.093372 -0.055226 0.251581 0.305930 0.077642 -0.023635 0.214809 -0.107018 0.415818 -0.171111 0.254638 -0.052425 0.163759 0.239706 -0.316034 -0.146157 -0.019418 -0.067752 0.119425 0.198063 0.246948 0.217800 0.057215 0.024739 0.144251 -0.167500 0.015444 -0.108513 0.001890 -0.173882 -0.023435 0.170531 -0.150493 -0.263400 0.017421 -0.144588 -0.346228 -0.210112 -0.106141 -0.290975 0.028442 -0.104452 0.113948 -0.007386 -0.116435 -0.161332 0.121034 0.196648 0.018626 -0.054945 -0.041706 -0.041351 -0.335444 -0.094362 0.308915 -0.238990 -0.310875 -0.034131 0.105531 -0.024783 0.195117 -0.189526 0.506610 0.136015 -0.080288 -0.207281 0.116117 -0.018969 0.107977 0.063940 0.394244 0.213583 0.017604 -0.156688 0.249522 
h@@ 0.077581 -0.362893 -0.185437 0.204139 0.269917 -0.248887 -0.183978 0.063979 0.022357 0.106236 0.314261 -0.110929 -0.485474 -0.046154 0.274604 -0.070486 0.067265 0.335215 0.013162 0.164937 -0.413742 0.001055 0.347963 0.004078 0.000986 -0.305490 -0.019926 0.014776 -0.052811 -0.199651 0.303728 0.076954 0.092354 0.609007 0.346055 0.083312 -0.241760 -0.220198 0.074564 0.096753 0.063375 -0.117753 -0.166892 -0.211135 -0.218789 0.030543 -0.094474 0.144892 0.183092 0.218128 0.098748 0.066355 -0.019358 -0.232730 -0.312959 0.154433 0.165462 0.207270 0.008627 0.066498 0.207433 -0.019349 -0.283361 0.235768 -0.142776 -0.101472 0.320164 -0.081765 -0.247845 0.106644 -0.490477 0.118441 0.080450 0.490112 0.256279 -0.249006 0.140086 -0.128062 -0.299412 -0.046587 0.077235 0.330210 -0.099639 0.189395 0.016566 -0.082091 -0.229613 0.124387 -0.219233 0.012115 0.148806 -0.256296 -0.018162 0.163494 0.230695 -0.014275 -0.041350 -0.176917 -0.064924 0.369442 0.214088 0.132546 0.234022 -0.115143 -0.071438 0.136428 -0.012658 0.180631 -0.096769 -0.083724 -0.047650 0.048202 0.131260 0.318387 -0.027299 0.072748 -0.094350 -0.103558 -0.003374 -0.140765 -0.212512 0.144798 0.040167 0.191351 0.182009 -0.104248 -0.261664 -0.092078 
N@@ 0.063964 0.302347 0.025506 0.217978 0.259478 -0.048124 0.019856 0.255146 0.141183 -0.017231 0.124494 0.271691 -0.315462 0.093961 0.170124 -0.102029 -0.236391 -0.119541 -0.001494 0.044998 0.077551 -0.262816 0.099420 0.336084 0.154210 0.086043 -0.096734 -0.028173 0.026610 0.080226 0.278882 0.115833 0.246772 0.616721 -0.152788 0.130078 -0.260682 -0.299130 -0.250380 0.056461 0.113837 -0.325529 -0.088271 -0.118774 0.066328 0.143440 0.331535 -0.035809 0.325580 0.138461 0.005478 0.116644 0.119886 0.070204 -0.233489 0.417323 0.096492 -0.342017 -0.196090 0.182034 -0.277325 0.107047 -0.233729 0.405058 0.071784 0.124272 0.402328 -0.114254 -0.353611 -0.109776 -0.028848 0.107022 0.000652 0.349492 0.007114 -0.074550 0.197897 0.217192 -0.149817 -0.066729 -0.076328 0.318774 -0.000534 0.081367 0.156386 -0.105174 -0.213541 -0.026921 0.048049 -0.053004 0.098676 -0.005475 -0.301695 -0.032673 -0.057817 -0.057928 -0.009744 -0.101175 -0.301163 0.124637 -0.048448 0.073212 -0.020907 0.180032 -0.198142 -0.138538 0.186232 0.406157 -0.169431 -0.096255 -0.083169 0.155847 0.165684 -0.099411 -0.127888 0.153279 0.021292 -0.041293 -0.012093 0.139120 0.061680 0.203997 0.019341 0.393490 0.173709 0.117624 -0.049174 0.203238 
an 0.042280 -0.280141 0.072308 0.124194 0.009885 -0.339999 -0.063753 0.007169 0.108862 -0.032905 0.002037 0.335351 0.029527 -0.096706 0.459467 0.130959 0.041196 0.002195 -0.036061 -0.029465 -0.210991 -0.043011 0.299705 0.122380 0.066003 -0.045161 -0.255462 0.289834 -0.258269 0.298871 0.083378 -0.098200 -0.184264 0.452929 -0.098958 0.080162 -0.247553 -0.180098 0.005467 0.057530 0.111114 -0.141672 -0.075404 -0.109381 -0.235435 -0.058514 0.050122 0.055638 0.441758 -0.025112 -0.029582 -0.229362 -0.020318 0.338468 -0.137534 0.164397 0.039795 -0.018256 0.116494 0.122363 -0.122051 0.137278 -0.157102 0.187623 -0.478767 0.118378 0.052906 -0.149802 -0.252431 -0.200813 0.007120 0.105659 -0.189945 0.099999 -0.177532 -0.029564 0.050721 0.107908 -0.032685 -0.140367 0.219386 0.372692 -0.271439 -0.243254 0.033125 -0.169833 -0.142322 0.067704 0.035578 0.110031 0.044154 0.154450 -0.197072 0.215226 -0.195449 -0.416829 0.027489 0.055435 0.120562 0.183688 0.104467 -0.127012 0.012551 0.206554 0.002617 -0.063974 0.049205 0.086914 -0.142501 -0.256298 -0.216468 0.041260 0.106623 0.227041 -0.211100 0.075143 0.184882 -0.238565 -0.315756 -0.003974 -0.119981 -0.183466 0.210848 -0.035343 0.037062 0.271435 -0.133233 0.020987 
de@@ 0.329514 -0.347931 -0.221803 0.201116 -0.198554 -0.610162 -0.147011 -0.015684 0.328062 -0.142782 -0.092908 0.378060 -0.221673 -0.199525 0.033293 0.041334 -0.160771 -0.184650 0.218195 0.381545 0.013343 -0.367901 -0.075061 0.082430 0.055349 -0.098526 -0.087801 0.008325 0.123970 0.312208 0.321239 -0.223183 0.239079 0.454376 -0.303703 -0.075346 0.253090 -0.568933 0.007893 0.350425 0.102248 0.140598 0.000592 -0.077335 -0.147206 -0.439700 0.243311 -0.155089 -0.038871 -0.204935 0.201878 0.042153 0.295741 -0.129459 -0.349513 -0.092871 0.155801 -0.042101 -0.044091 -0.257285 -0.172430 0.313164 -0.067919 0.338212 -0.061082 -0.152979 0.127295 -0.099988 0.097696 0.075504 -0.314734 0.183413 -0.040105 -0.255778 0.115064 0.054431 0.234514 -0.066079 0.083072 -0.153796 0.177353 0.056724 -0.329623 -0.006229 -0.030235 -0.011490 -0.128711 0.353312 -0.025162 0.044105 0.185939 0.002994 -0.110923 0.422731 0.029616 0.046080 0.025200 -0.059310 0.028160 0.023760 0.035913 0.126120 0.233560 0.186465 0.058833 -0.165405 0.270561 0.037883 -0.147510 -0.082115 -0.089429 0.080859 0.337763 0.133190 -0.045652 -0.049154 0.145248 -0.049174 -0.185280 -0.026115 -0.156713 0.130253 0.516229 0.159082 -0.250496 0.140004 0.020389 0.010121 
di@@ -0.070259 -0.230388 -0.185638 0.488995 -0.158768 -0.406033 -0.093280 -0.063143 0.267894 -0.178951 -0.261114 0.243454 -0.042355 -0.334411 0.083292 0.218593 -0.287562 -0.334520 0.278701 0.283453 -0.176072 0.047613 0.125744 0.062988 0.077514 0.102237 -0.257286 0.096020 0.179846 0.042771 -0.317646 0.080354 0.040332 0.534126 -0.082273 0.081586 -0.050785 -0.685811 0.085523 -0.047411 0.157984 -0.214986 0.109161 -0.235877 0.152721 0.101407 0.298711 -0.074988 -0.087275 -0.303306 0.079984 -0.288504 -0.045035 -0.036279 -0.237059 0.209555 0.199257 0.269280 -0.122427 -0.194335 0.016473 -0.006574 -0.264218 0.489377 0.100398 0.407720 0.314033 -0.192764 -0.072560 -0.472640 -0.137163 -0.146365 -0.093432 -0.010330 0.076568 -0.071440 -0.084406 0.031716 -0.227851 -0.050479 -0.053845 0.095141 -0.273695 0.027060 0.022382 -0.056997 -0.067904 0.195060 0.185405 0.170614 -0.116304 0.228912 -0.235804 -0.070176 -0.003780 -0.042339 0.030740 -0.159951 0.066219 0.534236 0.100180 -0.140265 -0.125871 -0.054718 -0.181057 0.158917 -0.132468 -0.019808 -0.171207 -0.269298 -0.233928 0.188248 -0.009635 0.158578 0.027144 0.343636 0.087365 0.283830 -0.095535 0.010098 0.150485 0.386721 -0.232829 0.147657 -0.409986 -0.064829 0.265911 0.267509 
ic@@ -0.150330 -0.192332 0.051869 0.147708 0.119885 -0.178520 -0.127855 -0.078779 0.171873 0.000542 0.151302 0.103692 -0.116173 -0.405805 0.326540 0.135822 0.126109 0.191094 -0.101241 0.384867 -0.298074 0.034169 0.222457 0.129220 0.331115 -0.057531 -0.369221 0.035366 0.567059 0.348625 0.215028 -0.154651 -0.078574 0.704078 0.052417 -0.253843 -0.104444 -0.066498 0.039898 -0.043860 0.148320 -0.237221 -0.372676 -0.548759 0.039568 -0.055045 -0.012758 -0.350549 0.005958 -0.188766 0.089838 -0.002388 0.098448 0.335384 0.146495 0.151953 0.015259 -0.244407 0.127612 -0.004913 -0.410348 -0.058145 -0.192855 0.165604 -0.162365 0.063112 0.101555 -0.081020 -0.232307 0.109522 -0.062876 0.354788 0.220782 0.415796 -0.108424 0.076219 0.127422 0.083412 -0.082225 0.121113 0.280968 0.200602 -0.164978 -0.328397 0.003478 0.451007 -0.031160 0.337082 0.038525 -0.047809 -0.126817 -0.002515 0.149120 0.109714 0.240165 -0.120917 -0.114325 -0.132318 0.003389 0.136520 -0.132217 0.255766 0.165500 -0.161459 0.050288 -0.012096 -0.084783 0.191139 -0.243753 -0.167839 -0.145894 -0.219641 0.117360 0.075710 0.090303 -0.047376 -0.083638 -0.056678 0.085213 0.040940 -0.067507 0.229870 0.036115 0.123210 -0.043016 -0.006669 0.254261 0.017422 
on@@ 0.165526 0.127329 0.000395 0.347320 -0.145832 -0.351308 0.017236 0.209533 -0.357155 -0.325287 0.027814 0.003304 -0.291263 0.066409 0.127597 0.249893 -0.286869 0.212153 0.072630 0.052326 0.106596 -0.064760 0.132195 0.042165 0.167688 0.023286 -0.334218 0.074019 -0.180009 0.007902 0.022973 -0.163039 0.276865 0.506778 -0.123544 0.023483 0.250562 -0.194116 0.144824 0.158809 -0.029638 -0.075417 -0.170488 0.301438 0.189005 -0.126767 -0.028217 -0.021164 0.077045 0.185587 0.061668 0.188475 -0.029001 -0.114413 -0.309952 0.391929 -0.162960 -0.091819 0.129440 -0.000401 0.071462 -0.175749 0.167974 0.377938 -0.340184 0.414178 0.060953 -0.051306 -0.093241 0.150932 -0.460463 0.185446 0.171830 0.256919 -0.099853 -0.094521 0.186055 0.098057 -0.399116 0.029116 -0.146625 0.316287 0.063481 0.015184 -0.123338 0.088564 -0.061383 -0.071172 -0.139456 0.240558 0.202687 -0.002746 -0.093610 0.128293 0.141402 -0.096668 -0.029922 -0.026740 -0.090976 0.469458 -0.113529 -0.061749 -0.090449 0.342553 -0.438392 -0.031706 -0.120765 0.139311 -0.388298 -0.203900 -0.089667 -0.064693 0.204160 0.219304 0.012368 0.176048 -0.032466 -0.083802 0.001452 0.148833 -0.060872 -0.143543 0.189674 -0.152000 -0.069435 -0.098092 0.101828 0.175344 
y@@ -0.012770 -0.168018 0.135462 0.498103 0.447820 -0.121674 0.132694 0.074715 0.176342 -0.065810 -0.073012 0.273324 -0.383566 -0.255134 0.339436 0.068946 -0.266431 0.085468 0.066809 -0.099716 -0.355544 -0.113742 0.438113 0.059990 0.158923 0.417849 -0.311911 0.000125 0.106443 0.268799 0.138662 0.276833 0.140174 0.452986 -0.123496 -0.078232 0.075486 -0.219641 0.512215 0.106512 0.061274 -0.086207 -0.217702 -0.174296 -0.100747 0.117688 -0.043505 -0.410189 0.191405 0.179068 0.098911 0.070537 -0.120175 -0.075637 -0.313952 0.131140 0.120844 0.186856 0.246919 0.265945 0.219136 -0.298429 -0.041022 0.284891 -0.275861 0.031266 -0.066448 -0.225041 0.113906 0.120132 -0.334325 0.118785 0.059439 0.165134 -0.212306 -0.142115 0.219864 0.279739 -0.332861 0.102597 0.052831 -0.160375 -0.100573 -0.129498 -0.179366 0.044511 -0.293765 0.095564 0.239311 -0.005817 -0.150078 0.212379 -0.088085 -0.076453 0.163602 -0.127608 -0.111411 -0.232494 -0.215039 0.163924 -0.027915 -0.142777 0.291767 0.258899 -0.040629 0.247169 -0.127543 0.381006 0.046576 -0.335209 0.091917 -0.063451 -0.036313 -0.001961 -0.167463 -0.126417 -0.305913 -0.093243 -0.178857 0.110514 0.057107 0.139979 0.250167 0.168424 0.025811 0.073751 0.172506 0.083066 
